{"learner":{"attributes":{"scikit_learn":"{\"_estimator_type\": \"classifier\"}"},"feature_names":["LogP","MW","PSA","mol2vec_0","mol2vec_1","mol2vec_10","mol2vec_11","mol2vec_12","mol2vec_13","mol2vec_14","mol2vec_15","mol2vec_16","mol2vec_17","mol2vec_18","mol2vec_19","mol2vec_2","mol2vec_20","mol2vec_21","mol2vec_22","mol2vec_23","mol2vec_24","mol2vec_25","mol2vec_26","mol2vec_27","mol2vec_28","mol2vec_29","mol2vec_3","mol2vec_30","mol2vec_31","mol2vec_32","mol2vec_33","mol2vec_34","mol2vec_35","mol2vec_36","mol2vec_37","mol2vec_38","mol2vec_39","mol2vec_4","mol2vec_40","mol2vec_41","mol2vec_42","mol2vec_43","mol2vec_44","mol2vec_45","mol2vec_46","mol2vec_47","mol2vec_48","mol2vec_49","mol2vec_5","mol2vec_50","mol2vec_51","mol2vec_52","mol2vec_53","mol2vec_54","mol2vec_55","mol2vec_56","mol2vec_57","mol2vec_58","mol2vec_59","mol2vec_6","mol2vec_60","mol2vec_61","mol2vec_62","mol2vec_63","mol2vec_64","mol2vec_65","mol2vec_66","mol2vec_67","mol2vec_68","mol2vec_69","mol2vec_7","mol2vec_70","mol2vec_71","mol2vec_72","mol2vec_73","mol2vec_74","mol2vec_75","mol2vec_76","mol2vec_77","mol2vec_78","mol2vec_79","mol2vec_8","mol2vec_80","mol2vec_81","mol2vec_82","mol2vec_83","mol2vec_84","mol2vec_85","mol2vec_86","mol2vec_87","mol2vec_88","mol2vec_89","mol2vec_9","mol2vec_90","mol2vec_91","mol2vec_92","mol2vec_93","mol2vec_94","mol2vec_95","mol2vec_96","mol2vec_97","mol2vec_98","mol2vec_99","num_h_acceptors","num_h_donors","num_heteroatoms","num_of_heavy_atoms","num_rot_bonds"],"feature_types":["float","float","float","float","float","float","float","float","float","float","float","float","float","float","float","float","float","float","float","float","float","float","float","float","float","float","float","float","float","float","float","float","float","float","float","float","float","float","float","float","float","float","float","float","float","float","float","float","float","float","float","float","float","float","float","float","float","float","float","float","float","float","float","float","float","float","float","float","float","float","float","float","float","float","float","float","float","float","float","float","float","float","float","float","float","float","float","float","float","float","float","float","float","float","float","float","float","float","float","float","float","float","float","float","float","float","float","float"],"gradient_booster":{"model":{"gbtree_model_param":{"num_parallel_tree":"1","num_trees":"100"},"iteration_indptr":[0,1,2,3,4,5,6,7,8,9,10,11,12,13,14,15,16,17,18,19,20,21,22,23,24,25,26,27,28,29,30,31,32,33,34,35,36,37,38,39,40,41,42,43,44,45,46,47,48,49,50,51,52,53,54,55,56,57,58,59,60,61,62,63,64,65,66,67,68,69,70,71,72,73,74,75,76,77,78,79,80,81,82,83,84,85,86,87,88,89,90,91,92,93,94,95,96,97,98,99,100],"tree_info":[0,0,0,0,0,0,0,0,0,0,0,0,0,0,0,0,0,0,0,0,0,0,0,0,0,0,0,0,0,0,0,0,0,0,0,0,0,0,0,0,0,0,0,0,0,0,0,0,0,0,0,0,0,0,0,0,0,0,0,0,0,0,0,0,0,0,0,0,0,0,0,0,0,0,0,0,0,0,0,0,0,0,0,0,0,0,0,0,0,0,0,0,0,0,0,0,0,0,0,0],"trees":[{"base_weights":[-8.344192E-1,-1.0476872E0,-7.1105593E-1,-2.4181578E-1,-1.0649426E0,-5.4264104E-1,-9.1308755E-1,-7.940272E-1,2.940498E-1,-1.0760094E0,-5.685145E-1,-8.802179E-1,-3.483134E-1,1.8990172E-1,-9.275803E-1,-2.760615E-1,-3.2707103E-2,-1.0791016E0,-3.2707103E-2,-2.9997352E-1,2.9466695E-1,-9.215963E-1,8.188864E-1,-7.450648E-1,6.040133E-2,-9.654306E-1,-2.996765E-1,-5.823668E-1,-1.087784E0,-3.2466993E-1,-1.0624484E0,5.5044305E-1,-1.7849463E-1,-4.5569134E-1,-9.4352394E-1,8.403945E-1,-7.1894366E-1,-9.8083955E-1,2.8087908E-1,-7.251668E-1,9.1980094E-1,1.2422755E-1,-2.850506E-1,-3.281533E-1,-1.5307437E-1,3.7178934E-1,-1.8670826E-1,-3.249604E-1,-1.06718495E-1,-1.8183836E-1,3.110407E-1,-2.978736E-1,2.2612022E-1,3.4498373E-1,-2.048122E-1,2.6890948E-1,-2.4243233E-1,-2.9774976E-1,5.308529E-2,3.640309E-1,-2.0317875E-1,-2.8770906E-1,2.5886798E-1,6.470641E-1,-2.1597926E-1],"categories":[],"categories_nodes":[],"categories_segments":[],"categories_sizes":[],"default_left":[0,0,0,0,0,0,0,0,0,0,0,0,0,0,0,0,0,0,0,0,0,0,0,0,0,0,0,0,0,0,0,0,0,0,0,0,0,0,0,0,0,0,0,0,0,0,0,0,0,0,0,0,0,0,0,0,0,0,0,0,0,0,0,0,0],"id":0,"left_children":[1,3,5,7,9,11,13,15,-1,17,19,21,23,-1,25,-1,-1,27,-1,-1,-1,29,31,33,35,37,39,41,43,45,47,-1,-1,49,51,53,55,57,59,61,63,-1,-1,-1,-1,-1,-1,-1,-1,-1,-1,-1,-1,-1,-1,-1,-1,-1,-1,-1,-1,-1,-1,-1,-1],"loss_changes":[2.1746155E1,4.069458E0,1.8038147E1,6.053037E0,1.0603333E0,1.934285E1,6.1031647E0,4.127679E-1,0E0,7.6919556E-1,6.8405094E0,8.402374E0,3.1139574E1,0E0,5.5166016E0,0E0,0E0,6.411133E-1,0E0,0E0,0E0,8.622955E0,5.566841E0,5.1622505E0,5.8583115E1,4.691559E0,8.626003E0,3.0429547E0,4.5443726E-1,1.0922394E1,8.739166E-1,0E0,0E0,9.957152E0,5.5119247E0,2.3477486E1,7.6733837E0,3.2449493E0,4.0257215E0,5.258393E0,1.049521E1,0E0,0E0,0E0,0E0,0E0,0E0,0E0,0E0,0E0,0E0,0E0,0E0,0E0,0E0,0E0,0E0,0E0,0E0,0E0,0E0,0E0,0E0,0E0,0E0],"parents":[2147483647,0,0,1,1,2,2,3,3,4,4,5,5,6,6,7,7,9,9,10,10,11,11,12,12,14,14,17,17,21,21,22,22,23,23,24,24,25,25,26,26,27,27,28,28,29,29,30,30,33,33,34,34,35,35,36,36,37,37,38,38,39,39,40,40],"right_children":[2,4,6,8,10,12,14,16,-1,18,20,22,24,-1,26,-1,-1,28,-1,-1,-1,30,32,34,36,38,40,42,44,46,48,-1,-1,50,52,54,56,58,60,62,64,-1,-1,-1,-1,-1,-1,-1,-1,-1,-1,-1,-1,-1,-1,-1,-1,-1,-1,-1,-1,-1,-1,-1,-1],"split_conditions":[1.922527E2,-1.1248716E-1,5E0,2.2790603E-1,1.4E1,2.0116E0,-2.36183E-1,1.5956E0,2.940498E-1,5.839413E-4,1.4618556E-2,3.6E1,3E0,1.8990172E-1,6.917067E-2,-2.760615E-1,-3.2707103E-2,2.061501E-1,-3.2707103E-2,-2.9997352E-1,2.9466695E-1,5.437E1,5.799802E2,2E0,3.095283E2,1.3853669E-2,1.2651443E-2,5.978629E-2,3.2252404E-1,1E0,-2.9941449E-2,5.5044305E-1,-1.7849463E-1,4.653E1,4.4039252E-1,1.0140869E-1,2.5033087E-1,2.9E1,2.5938E0,2.2207868E-1,-2.2856658E-2,1.2422755E-1,-2.850506E-1,-3.281533E-1,-1.5307437E-1,3.7178934E-1,-1.8670826E-1,-3.249604E-1,-1.06718495E-1,-1.8183836E-1,3.110407E-1,-2.978736E-1,2.2612022E-1,3.4498373E-1,-2.048122E-1,2.6890948E-1,-2.4243233E-1,-2.9774976E-1,5.308529E-2,3.640309E-1,-2.0317875E-1,-2.8770906E-1,2.5886798E-1,6.470641E-1,-2.1597926E-1],"split_indices":[1,24,107,62,106,0,81,0,0,101,55,106,103,0,64,0,0,93,0,0,0,2,1,107,1,92,61,57,62,107,92,0,0,2,24,3,93,103,0,12,42,0,0,0,0,0,0,0,0,0,0,0,0,0,0,0,0,0,0,0,0,0,0,0,0],"split_type":[0,0,0,0,0,0,0,0,0,0,0,0,0,0,0,0,0,0,0,0,0,0,0,0,0,0,0,0,0,0,0,0,0,0,0,0,0,0,0,0,0,0,0,0,0,0,0,0,0,0,0,0,0,0,0,0,0,0,0,0,0,0,0,0,0],"sum_hessian":[8.5387085E2,3.1016727E2,5.437036E2,6.816863E0,3.033504E2,2.985316E2,2.45172E2,4.936349E0,1.8805139E0,2.955933E2,7.7571197E0,1.07776955E2,1.9075462E2,1.8805139E0,2.4329149E2,3.8785598E0,1.0577891E0,2.945355E2,1.0577891E0,6.3467345E0,1.4103854E0,1.0566138E2,2.1155782E0,9.6376335E1,9.437829E1,2.2895258E2,1.4338919E1,6.2292023E0,2.8830627E2,2.0803185E1,8.485819E1,1.0577891E0,1.0577891E0,4.054858E1,5.5827755E1,4.713038E1,4.7247913E1,2.2636687E2,2.5857067E0,1.0930487E1,3.4084315E0,1.6454496E0,4.5837526E0,2.8442773E2,3.8785598E0,2.8207707E0,1.7982414E1,8.191988E1,2.938303E0,3.7375214E1,3.1733673E0,5.4652435E1,1.1753212E0,3.937326E1,7.7571197E0,1.998046E0,4.5249866E1,2.2425128E2,2.1155782E0,1.1753212E0,1.4103854E0,9.872698E0,1.0577891E0,1.7629818E0,1.6454496E0],"tree_param":{"num_deleted":"0","num_feature":"108","num_nodes":"65","size_leaf_vector":"1"}},{"base_weights":[-7.405371E-1,-9.774681E-1,-6.1421776E-1,-2.0085248E-1,-9.976804E-1,-7.758749E-1,-3.979073E-1,6.4663935E-1,-2.6828602E-1,-1.0415956E0,-8.0144525E-1,-5.1988643E-1,-8.798969E-1,-2.3897435E-1,-7.358574E-1,5.511324E-1,-1.2441585E-1,-3.8190395E-2,-1.0463622E0,3.3979988E-1,-9.4897103E-1,3.7398238E-2,-7.110325E-1,5.6698775E-1,-8.9856124E-1,-3.1544384E-1,-1.5377823E-1,-8.651385E-3,-8.953393E-1,-3.1669074E-1,-4.5619783E-1,1.295013E0,-2.3793131E-1,-1.0084364E0,-3.0329543E-1,-2.8675747E-1,1.2694578E0,-7.5513726E-1,2.7066055E-1,-2.0175025E-2,2.7523002E-1,-7.956442E-2,-9.2459524E-1,1.8966156E-1,-3.366382E-1,-4.9228626E-1,1.1685683E0,-1.051256E0,-2.274078E-1,1.1757179E-1,-2.4270383E-1,-1.6787133E-1,6.532829E-1,-5.5922803E-2,-3.1684908E-1,2.7268764E-1,-2.5101206E-1,-1.6442662E-1,3.0604964E-1,-9.172652E-2,6.594195E-1,-2.4678756E-1,6.348518E-2,3.0399096E-1,-2.621921E-1,8.9021206E-2,-2.8032467E-1,1.6511817E-1,-1.184676E-1,1.7964761E-1,-1.2731653E-1,-2.6377654E-1,3.8037398E-1,-1.0905351E-1,7.70616E-1,-3.219157E-1,-4.2990148E-2,3.1527844E-1,-1.987759E-1],"categories":[],"categories_nodes":[],"categories_segments":[],"categories_sizes":[],"default_left":[0,0,0,0,0,0,0,0,0,0,0,0,0,0,0,0,0,0,0,0,0,0,0,0,0,0,0,0,0,0,0,0,0,0,0,0,0,0,0,0,0,0,0,0,0,0,0,0,0,0,0,0,0,0,0,0,0,0,0,0,0,0,0,0,0,0,0,0,0,0,0,0,0,0,0,0,0,0,0],"id":1,"left_children":[1,3,5,7,9,11,13,15,-1,17,19,21,23,25,27,-1,-1,-1,29,31,33,35,37,39,41,-1,43,45,47,-1,49,51,-1,53,55,57,59,61,-1,-1,-1,63,65,67,69,71,73,75,77,-1,-1,-1,-1,-1,-1,-1,-1,-1,-1,-1,-1,-1,-1,-1,-1,-1,-1,-1,-1,-1,-1,-1,-1,-1,-1,-1,-1,-1,-1],"loss_changes":[2.0685913E1,3.6554108E0,1.600705E1,4.975816E0,1.2261658E0,6.6250916E0,1.0653107E1,5.749905E0,0E0,7.039032E-1,8.415686E0,8.473389E0,5.5778046E0,9.432972E0,7.415558E0,0E0,0E0,0E0,5.6347656E-1,7.778626E0,1.3386612E0,8.83159E0,4.885895E0,7.292317E-1,3.8854065E0,0E0,8.015977E0,7.70474E0,5.226803E0,0E0,1.7279242E0,7.3808312E0,0E0,1.3249283E0,4.0209208E0,6.570674E0,7.4015427E0,3.9625282E0,0E0,0E0,0E0,6.8019E0,2.4345245E0,9.629254E0,7.066477E0,7.639759E0,9.391716E0,6.828804E-1,6.9319563E0,0E0,0E0,0E0,0E0,0E0,0E0,0E0,0E0,0E0,0E0,0E0,0E0,0E0,0E0,0E0,0E0,0E0,0E0,0E0,0E0,0E0,0E0,0E0,0E0,0E0,0E0,0E0,0E0,0E0,0E0],"parents":[2147483647,0,0,1,1,2,2,3,3,4,4,5,5,6,6,7,7,9,9,10,10,11,11,12,12,13,13,14,14,18,18,19,19,20,20,21,21,22,22,23,23,24,24,26,26,27,27,28,28,30,30,31,31,33,33,34,34,35,35,36,36,37,37,41,41,42,42,43,43,44,44,45,45,46,46,47,47,48,48],"right_children":[2,4,6,8,10,12,14,16,-1,18,20,22,24,26,28,-1,-1,-1,30,32,34,36,38,40,42,-1,44,46,48,-1,50,52,-1,54,56,58,60,62,-1,-1,-1,64,66,68,70,72,74,76,78,-1,-1,-1,-1,-1,-1,-1,-1,-1,-1,-1,-1,-1,-1,-1,-1,-1,-1,-1,-1,-1,-1,-1,-1,-1,-1,-1,-1,-1,-1],"split_conditions":[1.922527E2,-1.1248716E-1,1.7892373E-1,-5.223595E-1,2E0,3E0,3.9192E0,7.404177E-2,-2.6828602E-1,-5.7266E0,1.2795828E-1,-3.3320505E-2,-3.8837606E-1,-2.2278391E-1,2.803631E2,5.511324E-1,-1.2441585E-1,-3.8190395E-2,4.7359738E-1,2E0,2.3781122E-1,-5.211966E-2,4.582757E-1,-4.1484976E-1,-1.1508392E-1,-3.1544384E-1,-2.2432994E-2,1.5003014E-1,2E0,-3.1669074E-1,-1.2943819E-1,-1.15024626E-1,-2.3793131E-1,-4.4802207E-2,-5.1195127E-1,1.12457454E-1,2.2345686E-1,2.0573917E-1,2.7066055E-1,-2.0175025E-2,2.7523002E-1,3.684977E-1,1.3822263E-1,2.2E1,2.819764E-1,1.5210028E-1,-2.2333914E-1,-9.231691E-3,3.544863E2,1.1757179E-1,-2.4270383E-1,-1.6787133E-1,6.532829E-1,-5.5922803E-2,-3.1684908E-1,2.7268764E-1,-2.5101206E-1,-1.6442662E-1,3.0604964E-1,-9.172652E-2,6.594195E-1,-2.4678756E-1,6.348518E-2,3.0399096E-1,-2.621921E-1,8.9021206E-2,-2.8032467E-1,1.6511817E-1,-1.184676E-1,1.7964761E-1,-1.2731653E-1,-2.6377654E-1,3.8037398E-1,-1.0905351E-1,7.70616E-1,-3.219157E-1,-4.2990148E-2,3.1527844E-1,-1.987759E-1],"split_indices":[1,24,38,98,104,107,0,10,0,0,17,27,70,95,1,0,0,0,17,107,38,27,45,96,52,0,3,84,104,0,22,51,0,7,98,81,97,12,0,0,0,93,93,106,29,4,43,48,1,0,0,0,0,0,0,0,0,0,0,0,0,0,0,0,0,0,0,0,0,0,0,0,0,0,0,0,0,0,0],"split_type":[0,0,0,0,0,0,0,0,0,0,0,0,0,0,0,0,0,0,0,0,0,0,0,0,0,0,0,0,0,0,0,0,0,0,0,0,0,0,0,0,0,0,0,0,0,0,0,0,0,0,0,0,0,0,0,0,0,0,0,0,0,0,0,0,0,0,0,0,0,0,0,0,0,0,0,0,0,0,0],"sum_hessian":[7.102261E2,2.4463605E2,4.6559003E2,6.482876E0,2.3815317E2,2.6497626E2,2.0061374E2,2.9477355E0,3.5351403E0,1.9108311E2,4.7070057E1,7.8295685E1,1.8668059E2,1.3760657E2,6.3007183E1,1.0448653E0,1.9028703E0,1.1347326E0,1.8994838E2,5.238925E0,4.183113E1,2.0201817E1,5.809387E1,2.003314E0,1.8467728E2,1.1983123E1,1.2562344E2,1.1522244E1,5.1484936E1,1.8623329E2,3.7150931E0,2.7647352E0,2.4741898E0,3.778901E1,4.042123E0,1.6601267E1,3.600551E0,5.7065643E1,1.0282259E0,1.0005735E0,1.0027404E0,5.8145685E0,1.788627E2,4.363426E1,8.198918E1,8.579407E0,2.9428382E0,4.1275917E1,1.0209019E1,1.0588969E0,2.6561964E0,1.0094954E0,1.7552398E0,2.3428423E0,3.5446167E1,1.0199933E0,3.0221298E0,1.4318731E1,2.2825353E0,1.5841192E0,2.0164318E0,5.348127E1,3.584373E0,2.3315356E0,3.4830327E0,1.1936427E0,1.7766905E2,2.7019043E1,1.6615213E1,6.531864E0,7.545732E1,7.443483E0,1.1359234E0,1.7587491E0,1.1840892E0,4.0130703E1,1.145214E0,2.2334194E0,7.9755993E0],"tree_param":{"num_deleted":"0","num_feature":"108","num_nodes":"79","size_leaf_vector":"1"}},{"base_weights":[-6.4882207E-1,-9.1512364E-1,-5.19474E-1,-6.464986E-1,-9.9174196E-1,-3.605489E-1,-7.424008E-1,-9.481644E-2,-9.023481E-1,-1.0034024E0,-2.1245824E-1,-7.314631E-1,-1.7548579E-1,3.9228526E-1,-7.701184E-1,-5.889028E-1,6.3190454E-1,1.0859327E-1,-9.6014565E-1,-5.2253306E-2,-1.009332E0,-1.9506925E-1,1.2998527E-1,1.8356374E-1,-8.28009E-1,-5.682187E-1,1.5207224E-1,3.9617756E-1,-2.1605287E-1,-8.1907177E-1,-1.3237317E-1,2.5406086E-1,-8.6088675E-1,1.5352641E0,-3.6202124E-1,-2.5340887E-2,-9.8876834E-1,-3.0447927E-1,-4.0537784E-1,1.0865452E0,-2.6058236E-1,-8.891586E-1,7.965912E-1,-6.4255106E-1,3.2873365E-1,5.83433E-1,-5.104054E-1,-8.953246E-1,-3.416248E-1,5.3892076E-1,-2.8369412E-1,-2.8576458E-1,-2.2676684E-2,-6.848337E-2,8.1154263E-1,-2.251059E-1,1.20370865E-1,-3.0606267E-1,-5.3260196E-2,-1.8182825E-2,-1.6425113E-1,-1.7818004E-1,5.256902E-1,-1.6834527E-2,-2.806265E-1,5.2984357E-1,-1.7612174E-1,2.7937672E-1,-2.040688E-1,4.0880358E-1,-1.7603014E-1,-1.7657435E-2,2.9033405E-1,1.5048315E-1,-1.9668429E-1,-2.7471477E-1,1.9557244E-1,8.8409044E-2,-2.2220972E-1,-2.2959661E-1,3.5847116E-1],"categories":[],"categories_nodes":[],"categories_segments":[],"categories_sizes":[],"default_left":[0,0,0,0,0,0,0,0,0,0,0,0,0,0,0,0,0,0,0,0,0,0,0,0,0,0,0,0,0,0,0,0,0,0,0,0,0,0,0,0,0,0,0,0,0,0,0,0,0,0,0,0,0,0,0,0,0,0,0,0,0,0,0,0,0,0,0,0,0,0,0,0,0,0,0,0,0,0,0,0,0],"id":2,"left_children":[1,3,5,7,9,11,13,15,17,19,21,23,25,27,29,31,33,-1,35,-1,37,-1,-1,39,41,43,45,-1,-1,47,49,-1,51,53,55,-1,57,-1,59,61,-1,63,65,67,69,71,73,75,77,79,-1,-1,-1,-1,-1,-1,-1,-1,-1,-1,-1,-1,-1,-1,-1,-1,-1,-1,-1,-1,-1,-1,-1,-1,-1,-1,-1,-1,-1,-1,-1],"loss_changes":[2.0105576E1,3.3521118E0,1.4062111E1,6.397501E0,1.141571E0,1.6213692E1,5.56678E0,5.998543E0,2.6319733E0,5.4515076E-1,1.2616924E0,7.124855E0,2.0687868E1,5.75731E0,5.0034943E0,4.5737805E0,6.683102E0,0E0,6.726265E-1,0E0,8.018494E-2,0E0,0E0,8.878702E0,7.819153E0,5.0808697E0,2.5475697E1,0E0,0E0,5.223366E0,7.533469E0,0E0,5.595174E-1,8.386878E0,1.5039778E0,0E0,5.6160927E-1,0E0,1.1383608E-1,6.566198E0,0E0,2.6242294E0,5.2277102E0,4.653124E0,6.716776E0,1.3345053E1,5.5131836E0,4.7092667E0,5.940142E0,7.489405E0,0E0,0E0,0E0,0E0,0E0,0E0,0E0,0E0,0E0,0E0,0E0,0E0,0E0,0E0,0E0,0E0,0E0,0E0,0E0,0E0,0E0,0E0,0E0,0E0,0E0,0E0,0E0,0E0,0E0,0E0,0E0],"parents":[2147483647,0,0,1,1,2,2,3,3,4,4,5,5,6,6,7,7,8,8,9,9,10,10,11,11,12,12,13,13,14,14,15,15,16,16,18,18,20,20,23,23,24,24,25,25,26,26,29,29,30,30,32,32,33,33,34,34,36,36,38,38,39,39,41,41,42,42,43,43,44,44,45,45,46,46,47,47,48,48,49,49],"right_children":[2,4,6,8,10,12,14,16,18,20,22,24,26,28,30,32,34,-1,36,-1,38,-1,-1,40,42,44,46,-1,-1,48,50,-1,52,54,56,-1,58,-1,60,62,-1,64,66,68,70,72,74,76,78,80,-1,-1,-1,-1,-1,-1,-1,-1,-1,-1,-1,-1,-1,-1,-1,-1,-1,-1,-1,-1,-1,-1,-1,-1,-1,-1,-1,-1,-1,-1,-1],"split_conditions":[1.922527E2,6.679011E-2,5E0,2.951188E-1,5.0140315E-1,2.0116E0,-2.0891114E-1,1.7211872E-1,-5.902784E-1,-6.106197E-1,5.2698534E-2,3.525E1,3E0,-4.9037412E-1,6.917067E-2,-3.28637E-1,9.902617E-2,1.0859327E-1,-1.257857E-1,-5.2253306E-2,3.0262671E-2,-1.9506925E-1,1.2998527E-1,-8.402203E-2,3.6E1,1.8104178E-1,3.095283E2,3.9617756E-1,-2.1605287E-1,3.8E1,3.3536E0,2.5406086E-1,7.151628E-2,5.695682E-2,3.2921772E-2,-2.5340887E-2,5E0,-3.0447927E-1,-6.974608E-2,-1.5006585E-1,-2.6058236E-1,1.2E1,-5.6425292E-2,2.1033E0,2.411422E-1,1E0,-1.3971297E-1,2.9545898E-2,-2.1874847E-1,-1.518947E-1,-2.8369412E-1,-2.8576458E-1,-2.2676684E-2,-6.848337E-2,8.1154263E-1,-2.251059E-1,1.20370865E-1,-3.0606267E-1,-5.3260196E-2,-1.8182825E-2,-1.6425113E-1,-1.7818004E-1,5.256902E-1,-1.6834527E-2,-2.806265E-1,5.2984357E-1,-1.7612174E-1,2.7937672E-1,-2.040688E-1,4.0880358E-1,-1.7603014E-1,-1.7657435E-2,2.9033405E-1,1.5048315E-1,-1.9668429E-1,-2.7471477E-1,1.9557244E-1,8.8409044E-2,-2.2220972E-1,-2.2959661E-1,3.5847116E-1],"split_indices":[1,40,107,36,17,0,81,83,98,86,81,2,103,98,64,32,84,0,50,0,31,0,0,60,106,84,1,0,0,106,0,0,71,84,88,0,107,0,91,15,0,106,42,0,38,104,51,92,43,14,0,0,0,0,0,0,0,0,0,0,0,0,0,0,0,0,0,0,0,0,0,0,0,0,0,0,0,0,0,0,0],"split_type":[0,0,0,0,0,0,0,0,0,0,0,0,0,0,0,0,0,0,0,0,0,0,0,0,0,0,0,0,0,0,0,0,0,0,0,0,0,0,0,0,0,0,0,0,0,0,0,0,0,0,0,0,0,0,0,0,0,0,0,0,0,0,0,0,0,0,0,0,0,0,0,0,0,0,0,0,0,0,0,0,0],"sum_hessian":[5.9649097E2,1.9302223E2,4.034687E2,4.493107E1,1.4809117E2,2.3707481E2,1.6639389E2,1.466971E1,3.0261358E1,1.456246E2,2.4665656E0,7.7930176E1,1.5914464E2,3.6540399E0,1.6273984E2,8.845462E0,5.8242483E0,1.0928273E0,2.916853E1,1.2495912E0,1.4437502E2,1.4658568E0,1.0007089E0,7.351743E0,7.057843E1,7.203817E1,8.710647E1,1.8899003E0,1.7641395E0,1.5087439E2,1.1865454E1,1.0721307E0,7.7733307E0,2.765811E0,3.0584376E0,1.0482963E0,2.8120234E1,1.4237463E2,2.0003738E0,3.938782E0,3.4129615E0,6.845451E1,2.1239219E0,6.678702E1,5.2511544E0,5.282785E1,3.4278614E1,1.2934203E2,2.153237E1,6.68492E0,5.1805344E0,6.7701287E0,1.0032022E0,1.4240243E0,1.3417866E0,2.038296E0,1.0201415E0,2.6823067E1,1.2971671E0,1.0002999E0,1.000074E0,1.14826E0,2.790522E0,3.7180362E0,6.473647E1,1.0863051E0,1.0376168E0,1.0070472E0,6.577997E1,2.2366655E0,3.0144887E0,2.009444E1,3.273341E1,3.993309E0,3.0285307E1,1.2806242E2,1.279602E0,8.400064E0,1.3132305E1,2.1813073E0,4.503612E0],"tree_param":{"num_deleted":"0","num_feature":"108","num_nodes":"81","size_leaf_vector":"1"}},{"base_weights":[-5.6527156E-1,-8.543377E-1,-4.3889317E-1,-5.663589E-1,-9.436397E-1,-3.4391117E-1,-8.3374417E-1,-6.9645755E-2,-8.355653E-1,-3.238384E-1,-9.648457E-1,-6.938815E-2,-4.942806E-1,-8.939129E-1,5.638273E-2,-5.5652744E-1,5.7697463E-1,-9.0543354E-1,1.2144038E-1,1.7914088E-1,-2.3962884E-1,-4.980371E-1,-9.794323E-1,-9.561564E-1,8.5975446E-2,8.0032444E-1,-5.247244E-1,1.1510039E-1,-9.2244154E-1,3.3256978E-1,-2.3390406E-1,7.543515E-2,-8.1528467E-1,1.1380444E0,-2.0788538E-1,-2.6481566E-1,-9.7575635E-1,1.1859109E-1,-2.4471146E-1,-9.873078E-1,-9.517165E-2,-3.0324975E-1,-3.1470932E-2,-3.2451093E-1,3.1705004E-1,1.7042426E0,-2.0075706E-1,-7.330503E-1,-3.4569246E-1,3.8615286E-2,-9.5078003E-1,-2.7193356E-1,-4.0322352E-2,5.1235896E-2,5.19176E-1,-2.0491982E-1,1.300215E-1,-4.5181785E-2,-3.0557507E-1,-3.0573487E-1,-2.1727966E-1,-1.4622034E-1,3.8805515E-1,2.2031741E-1,-7.2967775E-2,1.1590579E-1,6.469179E-1,7.803522E-2,-2.334832E-1,1.6477603E-1,-1.4175253E-1,-2.9389942E-1,-1.3166301E-2],"categories":[],"categories_nodes":[],"categories_segments":[],"categories_sizes":[],"default_left":[0,0,0,0,0,0,0,0,0,0,0,0,0,0,0,0,0,0,0,0,0,0,0,0,0,0,0,0,0,0,0,0,0,0,0,0,0,0,0,0,0,0,0,0,0,0,0,0,0,0,0,0,0,0,0,0,0,0,0,0,0,0,0,0,0,0,0,0,0,0,0,0,0],"id":3,"left_children":[1,3,5,7,9,11,13,15,17,19,21,23,25,27,29,31,33,35,-1,-1,-1,37,39,41,43,45,47,-1,49,-1,-1,-1,51,53,-1,55,57,-1,-1,59,-1,-1,-1,61,63,65,-1,67,69,-1,71,-1,-1,-1,-1,-1,-1,-1,-1,-1,-1,-1,-1,-1,-1,-1,-1,-1,-1,-1,-1,-1,-1],"loss_changes":[1.8217941E1,3.4200134E0,1.3071564E1,5.1431484E0,1.2104721E0,1.1888191E1,3.7118607E0,4.968828E0,2.544777E0,2.8119638E0,2.7163696E-1,1.43246155E1,7.7682114E0,2.6900444E0,5.4996314E0,2.07213E0,5.656625E0,8.274727E-1,0E0,0E0,0E0,1.858878E0,2.4541473E-1,6.151104E-1,8.533687E0,7.3565655E0,6.5631523E0,0E0,1.9987221E0,0E0,0E0,0E0,3.1265354E-1,2.6372223E0,0E0,1.3931168E0,6.009712E-1,0E0,0E0,1.4363098E-1,0E0,0E0,0E0,9.198196E0,1.3594458E1,1.0614119E0,0E0,3.9566383E0,1.1629902E1,0E0,1.5668297E0,0E0,0E0,0E0,0E0,0E0,0E0,0E0,0E0,0E0,0E0,0E0,0E0,0E0,0E0,0E0,0E0,0E0,0E0,0E0,0E0,0E0,0E0],"parents":[2147483647,0,0,1,1,2,2,3,3,4,4,5,5,6,6,7,7,8,8,9,9,10,10,11,11,12,12,13,13,14,14,15,15,16,16,17,17,21,21,22,22,23,23,24,24,25,25,26,26,28,28,32,32,33,33,35,35,36,36,39,39,43,43,44,44,45,45,47,47,48,48,50,50],"right_children":[2,4,6,8,10,12,14,16,18,20,22,24,26,28,30,32,34,36,-1,-1,-1,38,40,42,44,46,48,-1,50,-1,-1,-1,52,54,-1,56,58,-1,-1,60,-1,-1,-1,62,64,66,-1,68,70,-1,72,-1,-1,-1,-1,-1,-1,-1,-1,-1,-1,-1,-1,-1,-1,-1,-1,-1,-1,-1,-1,-1,-1],"split_conditions":[1.922527E2,6.679011E-2,1.0140869E-1,2.951188E-1,-3.5808238E-1,3E0,2.3557979E-1,2.7582747E-1,2.5287473E-1,-8.3822645E-2,-2.8195807E-1,6.2928E-1,-3.305707E-1,-3.492053E-1,1.1701371E-1,1.13371365E-1,2.0063405E-1,4.236487E-3,1.2144038E-1,1.7914088E-1,-2.3962884E-1,-1.2668543E-1,4.328373E-1,2.4996382E-1,8.78015E-2,-2.9730083E-2,1.7792049E-1,1.1510039E-1,1.2639778E-3,3.3256978E-1,-2.3390406E-1,7.543515E-2,4.3883735E-1,-7.680456E-2,-2.0788538E-1,5.382375E-2,-2.693567E-2,1.1859109E-1,-2.4471146E-1,-7.876793E-2,-9.517165E-2,-3.0324975E-1,-3.1470932E-2,4.0777355E-2,-1.9425934E-2,1.3959232E-1,-2.0075706E-1,-7.500237E-2,2.65391E-1,3.8615286E-2,-1.3433517E-2,-2.7193356E-1,-4.0322352E-2,5.1235896E-2,5.19176E-1,-2.0491982E-1,1.300215E-1,-4.5181785E-2,-3.0557507E-1,-3.0573487E-1,-2.1727966E-1,-1.4622034E-1,3.8805515E-1,2.2031741E-1,-7.2967775E-2,1.1590579E-1,6.469179E-1,7.803522E-2,-2.334832E-1,1.6477603E-1,-1.4175253E-1,-2.9389942E-1,-1.3166301E-2],"split_indices":[1,40,3,36,14,107,12,36,58,30,59,0,70,18,82,33,17,62,0,0,0,39,69,83,12,53,38,0,5,0,0,0,67,15,0,50,57,0,0,48,0,0,0,71,10,19,0,99,29,0,64,0,0,0,0,0,0,0,0,0,0,0,0,0,0,0,0,0,0,0,0,0,0],"split_type":[0,0,0,0,0,0,0,0,0,0,0,0,0,0,0,0,0,0,0,0,0,0,0,0,0,0,0,0,0,0,0,0,0,0,0,0,0,0,0,0,0,0,0,0,0,0,0,0,0,0,0,0,0,0,0,0,0,0,0,0,0,0,0,0,0,0,0,0,0,0,0,0,0],"sum_hessian":[5.0795306E2,1.5276732E2,3.5518576E2,3.7897755E1,1.1486956E2,2.8782098E2,6.736477E1,1.3762763E1,2.4134993E1,4.338431E0,1.1053113E2,1.0237704E2,1.8544395E2,6.3095535E1,4.269239E0,7.9306216E0,5.8321414E0,2.3103622E1,1.0313698E0,1.3885062E0,2.9499245E0,4.414043E0,1.0611709E2,1.4494205E1,8.7882835E1,3.6796696E0,1.8176428E2,1.1062558E0,6.1989277E1,1.745985E0,2.523254E0,1.930575E0,6.0000467E0,4.117033E0,1.7151084E0,2.7566986E0,2.0346924E1,1.0937685E0,3.320274E0,1.04384674E2,1.7324144E0,1.3443279E1,1.0509263E0,3.1507612E1,5.637522E1,2.1793752E0,1.5002944E0,8.257893E1,9.918535E1,1.5343264E0,6.0454952E1,4.999401E0,1.0006454E0,2.0533683E0,2.0636644E0,1.7375629E0,1.0191358E0,1.2268006E0,1.9120123E1,9.055942E1,1.3825254E1,2.926065E1,2.246961E0,3.213074E1,2.4244484E1,1.0304332E0,1.148942E0,3.3897588E0,7.918918E1,1.1896946E1,8.72884E1,5.8511124E1,1.9438295E0],"tree_param":{"num_deleted":"0","num_feature":"108","num_nodes":"73","size_leaf_vector":"1"}},{"base_weights":[-4.8185256E-1,-7.9368603E-1,-3.6014614E-1,-9.26253E-1,-5.442556E-1,-2.6513514E-1,-7.16898E-1,-3.0708788E-2,-9.363219E-1,-6.161971E-1,5.0247836E-1,-2.8678405E-1,1.2783892E0,-7.71176E-1,4.7061965E-2,-9.656954E-1,-4.9353427E-1,1.3887703E-1,-7.445818E-1,-8.3935745E-2,3.4760275E-1,-3.906526E-1,2.1371257E-2,5.47351E-1,-2.6694907E-2,-9.245268E-1,-3.920292E-1,-5.7070667E-1,3.5040462E-1,-9.774685E-1,-1.0886497E-1,1.1990634E-1,-7.2363895E-1,-2.2757867E-1,7.4988437E-1,-2.3789634E-1,-9.1480833E-1,-4.4774514E-1,4.31958E-1,-2.7871224E-1,4.3267897E-1,-1.5394463E-1,-9.6257627E-1,-6.3813764E-1,1.0582201E0,-1.0769022E-2,-2.1898635E-1,-1.10674344E-1,-2.9700646E-1,-2.5036532E-1,-2.8451918E-2,4.7184816E-1,-1.0637607E-1,8.410458E-2,-2.5431362E-1,3.0703751E-2,-2.932278E-1,-8.492954E-2,-2.187956E-1,5.1861864E-1,-1.0213555E-1,-2.0668939E-1,8.042794E-2,4.6819448E-1,1.6079543E-2,-1.7929035E-1,1.2534197E-1,-4.0099405E-2,-2.9521272E-1,-2.4344295E-1,8.669992E-2,-1.730505E-1,6.400267E-1],"categories":[],"categories_nodes":[],"categories_segments":[],"categories_sizes":[],"default_left":[0,0,0,0,0,0,0,0,0,0,0,0,0,0,0,0,0,0,0,0,0,0,0,0,0,0,0,0,0,0,0,0,0,0,0,0,0,0,0,0,0,0,0,0,0,0,0,0,0,0,0,0,0,0,0,0,0,0,0,0,0,0,0,0,0,0,0,0,0,0,0,0,0],"id":4,"left_children":[1,3,5,7,9,11,13,-1,15,17,19,21,23,25,27,29,31,33,35,-1,-1,37,39,-1,-1,41,43,45,-1,47,-1,-1,49,-1,51,53,55,57,59,61,63,65,67,69,71,-1,-1,-1,-1,-1,-1,-1,-1,-1,-1,-1,-1,-1,-1,-1,-1,-1,-1,-1,-1,-1,-1,-1,-1,-1,-1,-1,-1],"loss_changes":[1.651146E1,3.576805E0,1.0662357E1,5.608597E-1,3.7174807E0,8.868399E0,2.8041458E0,0E0,5.389633E-1,4.2518272E0,2.1008556E0,8.065403E0,2.9270449E0,3.2644424E0,4.3854923E0,1.5755463E-1,1.7080109E0,4.4411783E0,2.9505596E0,0E0,0E0,9.037697E0,8.069987E0,0E0,0E0,1.1324883E0,7.7067423E0,3.2587993E-1,0E0,1.710968E-1,0E0,0E0,3.2846785E-1,0E0,4.8334317E0,3.5840278E0,1.8288517E0,7.980095E0,1.3340105E1,8.674625E0,1.1700699E1,1.0730519E0,6.057091E-1,3.0414753E0,6.9166307E0,0E0,0E0,0E0,0E0,0E0,0E0,0E0,0E0,0E0,0E0,0E0,0E0,0E0,0E0,0E0,0E0,0E0,0E0,0E0,0E0,0E0,0E0,0E0,0E0,0E0,0E0,0E0,0E0],"parents":[2147483647,0,0,1,1,2,2,3,3,4,4,5,5,6,6,8,8,9,9,10,10,11,11,12,12,13,13,14,14,15,15,16,16,17,17,18,18,21,21,22,22,25,25,26,26,27,27,29,29,32,32,34,34,35,35,36,36,37,37,38,38,39,39,40,40,41,41,42,42,43,43,44,44],"right_children":[2,4,6,8,10,12,14,-1,16,18,20,22,24,26,28,30,32,34,36,-1,-1,38,40,-1,-1,42,44,46,-1,48,-1,-1,50,-1,52,54,56,58,60,62,64,66,68,70,72,-1,-1,-1,-1,-1,-1,-1,-1,-1,-1,-1,-1,-1,-1,-1,-1,-1,-1,-1,-1,-1,-1,-1,-1,-1,-1,-1,-1],"split_conditions":[1.922527E2,3.4130818E-1,1.6742582E-2,-3.8514E0,1.4E1,3.360867E-1,-7.870477E-2,-3.0708788E-2,8.2013905E-2,-5.4432595E-1,-1.14537954E-1,-8.936939E-2,1.1903768E-1,1.3316163E-1,-8.43794E-2,-4.9749436E-3,-2.8130326E-1,-2.5775763E-1,-2.4331298E-1,-8.3935745E-2,3.4760275E-1,5.300745E-2,1.558683E-1,5.47351E-1,-2.6694907E-2,-4.6229786E-1,6.823328E-2,7.291338E-2,3.5040462E-1,-2.159049E-1,-1.0886497E-1,1.1990634E-1,-3.0148788E-3,-2.2757867E-1,-2.0214072E-1,7.2626986E-2,-3.461721E-1,5E0,-2.1350987E-1,2.1437562E-1,2E0,-1.16734475E-1,8.683594E-2,2.8095657E-1,-1.1989706E-1,-1.0769022E-2,-2.1898635E-1,-1.10674344E-1,-2.9700646E-1,-2.5036532E-1,-2.8451918E-2,4.7184816E-1,-1.0637607E-1,8.410458E-2,-2.5431362E-1,3.0703751E-2,-2.932278E-1,-8.492954E-2,-2.187956E-1,5.1861864E-1,-1.0213555E-1,-2.0668939E-1,8.042794E-2,4.6819448E-1,1.6079543E-2,-1.7929035E-1,1.2534197E-1,-4.0099405E-2,-2.9521272E-1,-2.4344295E-1,8.669992E-2,-1.730505E-1,6.400267E-1],"split_indices":[1,5,26,0,106,99,6,0,90,98,85,48,40,12,23,14,74,16,35,0,0,42,57,0,0,80,25,69,0,81,0,0,25,0,16,88,43,107,16,38,107,63,73,24,14,0,0,0,0,0,0,0,0,0,0,0,0,0,0,0,0,0,0,0,0,0,0,0,0,0,0,0,0],"split_type":[0,0,0,0,0,0,0,0,0,0,0,0,0,0,0,0,0,0,0,0,0,0,0,0,0,0,0,0,0,0,0,0,0,0,0,0,0,0,0,0,0,0,0,0,0,0,0,0,0,0,0,0,0,0,0,0,0,0,0,0,0,0,0,0,0,0,0,0,0,0,0,0,0],"sum_hessian":[4.4159143E2,1.2241674E2,3.1917468E2,7.816189E1,4.4254856E1,2.5342511E2,6.574957E1,1.0785131E0,7.7083374E1,4.1793713E1,2.4611459E0,2.5072276E2,2.7023463E0,6.1379242E1,4.3703284E0,7.118049E1,5.9028826E0,6.0616083E0,3.57321E1,1.3844022E0,1.0767437E0,1.8731696E2,6.340582E1,1.6921903E0,1.0101562E0,4.2678806E1,1.8700436E1,3.134015E0,1.2363132E0,6.920734E1,1.9731566E0,1.0581944E0,4.8446884E0,2.3574054E0,3.7042027E0,9.588653E0,2.614345E1,1.7558626E2,1.1730698E1,3.6845966E1,2.655985E1,2.2456465E0,4.0433163E1,1.6466105E1,2.2343297E0,1.0002476E0,2.1337674E0,2.012904E0,6.719443E1,3.8401265E0,1.0045619E0,1.8796322E0,1.8245704E0,5.4755726E0,4.11308E0,1.4793051E0,2.4664145E1,1.1206375E2,6.3522507E1,3.91681E0,7.8138876E0,2.0903036E1,1.5942931E1,5.8967886E0,2.0663061E1,1.2389373E0,1.0067092E0,1.203079E0,3.9230083E1,1.3977587E1,2.4885182E0,1.0702758E0,1.164054E0],"tree_param":{"num_deleted":"0","num_feature":"108","num_nodes":"73","size_leaf_vector":"1"}},{"base_weights":[-4.03097E-1,-6.5240294E-1,-2.523597E-1,-8.8344324E-1,-4.2487603E-1,6.536359E-1,-3.1407818E-1,-9.1326183E-1,4.794832E-2,-1.16957985E-2,-5.858913E-1,-9.9490374E-2,1.8720312E0,-1.7515211E-1,-5.205307E-1,-2.6053753E-1,-9.350517E-1,-2.7692637E-1,3.6410484E-1,-7.648347E-1,-2.3069976E-1,9.96768E-1,-6.0400265E-1,8.106623E-1,-9.5160335E-2,2.0963581E-2,-4.809338E-1,-6.7908746E-1,1.4327949E-2,-1.9657673E-1,1.154725E-1,-6.6746496E-2,-9.468612E-1,8.3308464E-1,-7.156882E-1,-2.9902166E-1,-5.0302804E-1,-7.2880876E-1,3.5014883E-1,-1.883239E-1,6.234398E-1,2.0428675E-1,-2.833839E-1,-4.12075E-1,3.0090702E-1,-8.962847E-1,-1.8472601E-1,-7.2673684E-1,2.263784E-1,1.3910002E0,-2.1330518E-1,-2.880814E-1,-3.7755586E-2,4.4106254E-1,-3.3028629E-3,-2.502543E-1,-3.207032E-2,2.6698026E-1,-1.901754E-1,3.2191638E-2,-2.9008627E-1,2.834224E-1,-2.363401E-1,-2.1504045E-1,1.5211092E-1,1.5604894E-1,-1.5736535E-1,-2.8959018E-1,7.057169E-2,-1.1938559E-1,2.480044E-1,4.185452E-2,-2.3492116E-1,-1.750979E-1,8.59495E-1,-2.131005E-1,1.2104906E-1],"categories":[],"categories_nodes":[],"categories_segments":[],"categories_sizes":[],"default_left":[0,0,0,0,0,0,0,0,0,0,0,0,0,0,0,0,0,0,0,0,0,0,0,0,0,0,0,0,0,0,0,0,0,0,0,0,0,0,0,0,0,0,0,0,0,0,0,0,0,0,0,0,0,0,0,0,0,0,0,0,0,0,0,0,0,0,0,0,0,0,0,0,0,0,0,0,0],"id":5,"left_children":[1,3,5,7,9,11,13,15,-1,17,19,21,23,25,27,29,31,-1,33,35,37,39,41,-1,-1,43,45,47,49,-1,-1,-1,51,53,55,-1,57,59,61,-1,-1,-1,-1,63,65,67,69,71,-1,73,75,-1,-1,-1,-1,-1,-1,-1,-1,-1,-1,-1,-1,-1,-1,-1,-1,-1,-1,-1,-1,-1,-1,-1,-1,-1,-1],"loss_changes":[1.4551838E1,7.3483276E0,1.394287E1,2.385006E0,5.0461884E0,1.4861881E1,6.525278E0,7.5372696E-1,0E0,7.980428E0,3.2960567E0,6.5937505E0,1.2052599E1,8.3697815E0,7.83597E0,1.1825182E0,3.571167E-1,0E0,8.962018E0,1.6781845E0,5.9650965E0,7.9653373E0,4.1628714E0,0E0,0E0,1.0535964E1,6.541131E0,5.412594E0,7.2164283E0,0E0,0E0,0E0,6.0650635E-1,6.4588213E0,3.1048512E-1,0E0,4.006656E0,2.283852E0,7.3658895E0,0E0,0E0,0E0,0E0,9.926734E0,9.818731E0,1.9789314E0,7.4628935E0,3.4970016E0,0E0,1.1178343E1,6.361332E0,0E0,0E0,0E0,0E0,0E0,0E0,0E0,0E0,0E0,0E0,0E0,0E0,0E0,0E0,0E0,0E0,0E0,0E0,0E0,0E0,0E0,0E0,0E0,0E0,0E0,0E0],"parents":[2147483647,0,0,1,1,2,2,3,3,4,4,5,5,6,6,7,7,9,9,10,10,11,11,12,12,13,13,14,14,15,15,16,16,18,18,19,19,20,20,21,21,22,22,25,25,26,26,27,27,28,28,32,32,33,33,34,34,36,36,37,37,38,38,43,43,44,44,45,45,46,46,47,47,49,49,50,50],"right_children":[2,4,6,8,10,12,14,16,-1,18,20,22,24,26,28,30,32,-1,34,36,38,40,42,-1,-1,44,46,48,50,-1,-1,-1,52,54,56,-1,58,60,62,-1,-1,-1,-1,64,66,68,70,72,-1,74,76,-1,-1,-1,-1,-1,-1,-1,-1,-1,-1,-1,-1,-1,-1,-1,-1,-1,-1,-1,-1,-1,-1,-1,-1,-1,-1],"split_conditions":[2.21177E2,-9.142604E-2,2.292313E2,2.2929448E-1,-2.3248138E-1,1.7E1,5E0,-3.5808238E-1,4.794832E-2,-1.3612808E-1,-1.4541237E-1,-7.835044E-2,2.7239388E-3,-7.5469054E-2,8E0,2.5707966E-2,5.9523922E-3,-2.7692637E-1,3.5167164E-1,1.573115E-1,3.2641256E-1,1.2129003E-1,2.2843514E-1,8.106623E-1,-9.5160335E-2,-2.2828817E-1,2.5756E0,4.2E1,2.6621872E-1,-1.9657673E-1,1.154725E-1,-6.6746496E-2,-4.9749436E-3,2.0608559E-1,1.782811E-1,-2.9902166E-1,1.624303E-1,-1.85962E-1,2.9795754E-1,-1.883239E-1,6.234398E-1,2.0428675E-1,-2.833839E-1,-1.4017458E-1,1.7103825E-2,3.6E1,5E0,-1.9377477E-1,2.263784E-1,-2.875396E-1,2.1059915E-1,-2.880814E-1,-3.7755586E-2,4.4106254E-1,-3.3028629E-3,-2.502543E-1,-3.207032E-2,2.6698026E-1,-1.901754E-1,3.2191638E-2,-2.9008627E-1,2.834224E-1,-2.363401E-1,-2.1504045E-1,1.5211092E-1,1.5604894E-1,-1.5736535E-1,-2.8959018E-1,7.057169E-2,-1.1938559E-1,2.480044E-1,4.185452E-2,-2.3492116E-1,-1.750979E-1,8.59495E-1,-2.131005E-1,1.2104906E-1],"split_indices":[1,71,1,58,35,106,107,14,0,48,72,76,90,60,103,55,34,0,97,12,67,50,100,0,0,9,0,106,46,0,0,0,14,54,68,0,12,90,36,0,0,0,0,72,74,106,103,10,0,96,34,0,0,0,0,0,0,0,0,0,0,0,0,0,0,0,0,0,0,0,0,0,0,0,0,0,0],"split_type":[0,0,0,0,0,0,0,0,0,0,0,0,0,0,0,0,0,0,0,0,0,0,0,0,0,0,0,0,0,0,0,0,0,0,0,0,0,0,0,0,0,0,0,0,0,0,0,0,0,0,0,0,0,0,0,0,0,0,0,0,0,0,0,0,0,0,0,0,0,0,0,0,0,0,0,0,0],"sum_hessian":[3.906071E2,1.4592772E2,2.4467937E2,7.0974464E1,7.4953255E1,1.49934E1,2.2968596E2,6.912341E1,1.8510556E0,2.1319094E1,5.3634163E1,9.833416E0,5.1599836E0,1.3840132E2,9.1284645E1,2.6515594E0,6.6471855E1,5.799009E0,1.5520084E1,3.4898964E1,1.8735199E1,2.79167E0,7.041746E0,3.5713706E0,1.588613E0,8.488868E1,5.3512638E1,7.020345E1,2.1081194E1,1.6359228E0,1.0156366E0,1.407151E0,6.5064705E1,1.0979782E1,4.5403028E0,1.7017756E1,1.7881208E1,9.948818E0,8.78638E0,1.2832916E0,1.5083784E0,1.2661083E0,5.775638E0,3.314515E1,5.1743526E1,2.1432922E1,3.2079716E1,6.842248E1,1.7809709E0,2.2660344E0,1.881516E1,6.3852142E1,1.212559E0,5.8342905E0,5.1454916E0,3.4906561E0,1.0496464E0,1.0377823E0,1.6843426E1,2.3272827E0,7.6215363E0,5.882491E0,2.9038887E0,2.5057564E1,8.087585E0,4.1176247E1,1.0567281E1,2.0339258E1,1.093665E0,2.6995113E1,5.0846014E0,4.0877576E0,6.4334724E1,1.2266911E0,1.0393434E0,1.0335219E1,8.479941E0],"tree_param":{"num_deleted":"0","num_feature":"108","num_nodes":"77","size_leaf_vector":"1"}},{"base_weights":[-3.378179E-1,-2.590216E-1,-8.12631E-1,-7.00006E-1,-1.8582834E-1,-8.4666646E-1,1.1723763E-1,-8.5179585E-1,-1.01908326E-1,-4.5145088E-1,1.3965372E-3,1.0201437E-1,-8.822062E-1,3.8794912E-2,-9.515417E-1,4.2737257E-1,-2.5836223E-1,-5.2265316E-1,4.349315E-1,9.4855535E-1,-7.837484E-2,-9.197818E-1,5.3083356E-2,-1.9964291E-1,2.227363E-1,-3.4188733E-2,-9.8117584E-1,1.0162141E0,-2.0581152E-1,-8.274328E-1,-3.4729594E-1,8.058047E-1,-7.9577893E-1,1.4565446E0,-3.8477728E-1,5.1918507E-2,-4.5300436E-1,-9.574992E-1,-1.1917708E-1,-3.0325556E-1,-2.2256931E-2,5.8387685E-1,2.1526365E-2,-1.039407E-1,-2.8892604E-1,-1.9117764E-1,-1.8730288E-2,-3.1046048E-2,-2.7228618E-1,-1.7030995E-1,5.4356927E-1,1.1963164E-1,-2.2911291E-1,1.1500631E-1,-6.228995E-2,-2.3612763E-1,7.4771894E-3,-1.7518401E-2,-2.9369757E-1,1.3981377E-1,-1.783431E-1],"categories":[],"categories_nodes":[],"categories_segments":[],"categories_sizes":[],"default_left":[0,0,0,0,0,0,0,0,0,0,0,0,0,0,0,0,0,0,0,0,0,0,0,0,0,0,0,0,0,0,0,0,0,0,0,0,0,0,0,0,0,0,0,0,0,0,0,0,0,0,0,0,0,0,0,0,0,0,0,0,0],"id":6,"left_children":[1,3,5,7,9,11,-1,13,15,17,19,-1,21,23,25,27,-1,29,31,33,35,37,-1,-1,-1,-1,39,41,-1,43,45,-1,47,49,51,53,55,57,59,-1,-1,-1,-1,-1,-1,-1,-1,-1,-1,-1,-1,-1,-1,-1,-1,-1,-1,-1,-1,-1,-1],"loss_changes":[1.3011383E1,9.70043E0,2.3719406E0,3.8163795E0,1.3058668E1,2.3571968E0,0E0,3.0710068E0,4.32199E0,7.078865E0,1.1786432E1,0E0,2.0586205E0,2.6750271E0,6.515312E-1,4.936233E0,0E0,5.107561E0,2.6012985E1,8.767886E0,7.047243E0,1.2799568E0,0E0,0E0,0E0,0E0,7.20953E-1,3.9291425E0,0E0,2.0244827E0,5.3952055E0,0E0,3.9721012E-1,7.4906235E0,1.5319979E0,9.341021E0,5.964793E0,7.920761E-1,1.1725099E0,0E0,0E0,0E0,0E0,0E0,0E0,0E0,0E0,0E0,0E0,0E0,0E0,0E0,0E0,0E0,0E0,0E0,0E0,0E0,0E0,0E0,0E0],"parents":[2147483647,0,0,1,1,2,2,3,3,4,4,5,5,7,7,8,8,9,9,10,10,12,12,13,13,14,14,15,15,17,17,18,18,19,19,20,20,21,21,26,26,27,27,29,29,30,30,32,32,33,33,34,34,35,35,36,36,37,37,38,38],"right_children":[2,4,6,8,10,12,-1,14,16,18,20,-1,22,24,26,28,-1,30,32,34,36,38,-1,-1,-1,-1,40,42,-1,44,46,-1,48,50,52,54,56,58,60,-1,-1,-1,-1,-1,-1,-1,-1,-1,-1,-1,-1,-1,-1,-1,-1,-1,-1,-1,-1,-1,-1],"split_conditions":[-3.287309E-1,3.2672E-1,-1.5310203E-1,2.2548732E-1,4.086E1,-1.972348E-1,1.1723763E-1,-3.6600727E-1,-1.616732E-1,4E0,-3.0360797E-1,1.0201437E-1,6E0,-3.2079053E-1,-3.516918E-1,-1.4307821E-2,-2.5836223E-1,-4.9586494E-2,8.81E0,1.6847967E-1,1.1955884E-1,2.7914155E-1,5.3083356E-2,-1.9964291E-1,2.227363E-1,-3.4188733E-2,3.6016312E-1,-3.171599E-1,-2.0581152E-1,-2.887989E-1,8.90126E-2,8.058047E-1,3.6594965E-2,-2.0594323E-1,1.0298759E-1,3.4088093E-1,2.8895673E-1,3.9818678E-2,-9.954654E-2,-3.0325556E-1,-2.2256931E-2,5.8387685E-1,2.1526365E-2,-1.039407E-1,-2.8892604E-1,-1.9117764E-1,-1.8730288E-2,-3.1046048E-2,-2.7228618E-1,-1.7030995E-1,5.4356927E-1,1.1963164E-1,-2.2911291E-1,1.1500631E-1,-6.228995E-2,-2.3612763E-1,7.4771894E-3,-1.7518401E-2,-2.9369757E-1,1.3981377E-1,-1.783431E-1],"split_indices":[98,0,86,38,2,27,0,92,9,103,35,0,104,96,18,11,0,91,2,24,7,50,0,0,0,0,45,96,0,32,45,0,78,55,28,29,33,67,60,0,0,0,0,0,0,0,0,0,0,0,0,0,0,0,0,0,0,0,0,0,0],"split_type":[0,0,0,0,0,0,0,0,0,0,0,0,0,0,0,0,0,0,0,0,0,0,0,0,0,0,0,0,0,0,0,0,0,0,0,0,0,0,0,0,0,0,0,0,0,0,0,0,0,0,0,0,0,0,0,0,0,0,0,0,0],"sum_hessian":[3.5239822E2,3.0356622E2,4.883198E1,4.1993637E1,2.615726E2,4.7777187E1,1.0547928E0,3.3155106E1,8.838532E0,1.0756089E2,1.540117E2,1.1400906E0,4.6637096E1,3.400901E0,2.9754206E1,5.4657187E0,3.3728135E0,9.994292E1,7.617972E0,1.1117543E1,1.4289415E2,4.5166313E1,1.4707847E0,1.7268316E0,1.6740695E0,1.1823331E0,2.8571873E1,3.6321216E0,1.8335973E0,3.5143394E1,6.479952E1,2.27475E0,5.3432217E0,7.983488E0,3.1340556E0,1.0666002E2,3.6234142E1,4.294706E1,2.219255E0,2.7555748E1,1.0161239E0,1.2955954E0,2.3365262E0,8.513318E0,2.6630075E1,3.1499186E1,3.330034E1,1.0109304E0,4.3322916E0,1.102963E0,6.880525E0,1.0045366E0,2.129519E0,4.663378E1,6.0026234E1,2.0945595E1,1.5288547E1,1.0894376E0,4.185762E1,1.0033407E0,1.2159141E0],"tree_param":{"num_deleted":"0","num_feature":"108","num_nodes":"61","size_leaf_vector":"1"}},{"base_weights":[-2.7806133E-1,-6.839192E-1,-1.9279374E-1,-9.0311897E-1,-2.8385198E-1,-9.988223E-2,-5.236102E-1,-9.77657E-1,-3.3201784E-1,5.632807E-1,-6.2347263E-1,5.724665E-2,-3.747272E-1,-6.3691986E-1,3.6875817E-3,-2.9860485E-1,-6.9586135E-2,-2.3221034E-1,1.3573019E-1,1.1161917E0,-1.990861E-1,-2.7826887E-1,-1.1503287E-1,-3.2046914E-1,2.4383411E-1,-4.370534E-1,7.933546E-1,-7.6969993E-1,-1.4815901E-1,-6.920781E-1,5.074948E-1,-8.5882515E-2,1.6767389E0,5.079633E-1,-2.3021574E-1,1.5844244E-1,-5.636289E-1,-8.859792E-2,5.56497E-1,7.0668554E-1,-4.9034268E-1,1.5698222E0,-1.7858496E-1,-2.3402554E-1,-9.515196E-1,6.10997E-1,-4.029631E-1,-2.742977E-2,-2.4394523E-1,-2.1549451E-1,1.0719979E0,1.2843363E-1,6.643442E-1,-1.2897162E-1,4.603019E-1,-1.2216803E-1,2.534751E-1,5.2669037E-2,-2.3002255E-1,1.2042096E-1,-1.0774458E-1,2.1702975E-1,-1.2761068E-1,-1.7906794E-1,4.878773E-1,-7.43137E-2,-2.3728201E-1,1.2960333E-1,5.766876E-1,1.933149E-1,-2.6637542E-1,-3.0368024E-1,-6.48134E-2,-1.7111269E-1,4.3162513E-1,-1.9743408E-1,2.3993501E-1,5.3819317E-1,-2.9803392E-2],"categories":[],"categories_nodes":[],"categories_segments":[],"categories_sizes":[],"default_left":[0,0,0,0,0,0,0,0,0,0,0,0,0,0,0,0,0,0,0,0,0,0,0,0,0,0,0,0,0,0,0,0,0,0,0,0,0,0,0,0,0,0,0,0,0,0,0,0,0,0,0,0,0,0,0,0,0,0,0,0,0,0,0,0,0,0,0,0,0,0,0,0,0,0,0,0,0,0,0],"id":7,"left_children":[1,3,5,7,9,11,13,15,17,19,21,23,25,27,29,-1,-1,-1,-1,31,-1,-1,33,35,37,39,41,43,45,47,49,-1,51,53,-1,55,57,59,61,63,65,67,-1,69,71,73,75,-1,-1,-1,77,-1,-1,-1,-1,-1,-1,-1,-1,-1,-1,-1,-1,-1,-1,-1,-1,-1,-1,-1,-1,-1,-1,-1,-1,-1,-1,-1,-1],"loss_changes":[1.1088263E1,4.6455536E0,8.225768E0,1.1931133E0,6.4632215E0,9.155454E0,3.5166664E0,1.784172E-1,2.3024733E0,5.221303E0,2.311307E0,9.623357E0,5.9573145E0,3.02837E0,4.3466115E0,0E0,0E0,0E0,0E0,4.3525205E0,0E0,0E0,3.2324932E0,5.3546324E0,9.530916E0,4.844984E0,5.5266676E0,3.462635E0,2.4866958E0,3.0454063E-1,5.7438984E0,0E0,1.5128736E0,4.6828313E0,0E0,6.5597625E0,4.670004E0,6.119926E0,8.03542E0,5.4004755E0,4.9905396E0,3.753023E-1,0E0,6.841438E0,1.0288906E0,4.055539E0,3.372519E0,0E0,0E0,0E0,4.6795816E0,0E0,0E0,0E0,0E0,0E0,0E0,0E0,0E0,0E0,0E0,0E0,0E0,0E0,0E0,0E0,0E0,0E0,0E0,0E0,0E0,0E0,0E0,0E0,0E0,0E0,0E0,0E0,0E0],"parents":[2147483647,0,0,1,1,2,2,3,3,4,4,5,5,6,6,7,7,8,8,9,9,10,10,11,11,12,12,13,13,14,14,19,19,22,22,23,23,24,24,25,25,26,26,27,27,28,28,29,29,30,30,32,32,33,33,35,35,36,36,37,37,38,38,39,39,40,40,41,41,43,43,44,44,45,45,46,46,50,50],"right_children":[2,4,6,8,10,12,14,16,18,20,22,24,26,28,30,-1,-1,-1,-1,32,-1,-1,34,36,38,40,42,44,46,48,50,-1,52,54,-1,56,58,60,62,64,66,68,-1,70,72,74,76,-1,-1,-1,78,-1,-1,-1,-1,-1,-1,-1,-1,-1,-1,-1,-1,-1,-1,-1,-1,-1,-1,-1,-1,-1,-1,-1,-1,-1,-1,-1,-1],"split_conditions":[1.68319E2,4.314E1,-8.529173E-2,3.3383578E-2,1.2253582E-1,2.2E1,2.065775E-1,4.1898417E-1,2E0,1.50173E2,3.4515414E-1,-9.2293784E-2,-8.367536E-2,-5.969997E-3,-2.1406654E-1,-2.9860485E-1,-6.9586135E-2,-2.3221034E-1,1.3573019E-1,-1.8762752E-1,-1.990861E-1,-2.7826887E-1,1.964673E-1,-9.6684285E-2,2.1682416E-1,-3.6662337E-1,-1.304765E-1,-2.9390332E-1,2.4024688E-1,3.082542E-2,-6.710282E-2,-8.5882515E-2,7.592E-1,7.355E-1,-2.3021574E-1,3.0427313E-1,4.2865844E-3,-2.3638406E-1,-1.1434513E-1,-1.3336849E-1,-2.254897E-1,-1.7558599E-1,-1.7858496E-1,6.4219266E-2,-1.3929044E-1,2.4579643E-1,-1.3522169E-1,-2.742977E-2,-2.4394523E-1,-2.1549451E-1,-1.5341431E-1,1.2843363E-1,6.643442E-1,-1.2897162E-1,4.603019E-1,-1.2216803E-1,2.534751E-1,5.2669037E-2,-2.3002255E-1,1.2042096E-1,-1.0774458E-1,2.1702975E-1,-1.2761068E-1,-1.7906794E-1,4.878773E-1,-7.43137E-2,-2.3728201E-1,1.2960333E-1,5.766876E-1,1.933149E-1,-2.6637542E-1,-3.0368024E-1,-6.48134E-2,-1.7111269E-1,4.3162513E-1,-1.9743408E-1,2.3993501E-1,5.3819317E-1,-2.9803392E-2],"split_indices":[1,2,37,55,17,106,99,69,107,1,67,71,6,74,48,0,0,0,0,65,0,0,34,15,73,18,48,9,73,87,3,0,0,0,0,36,99,39,18,95,80,85,0,77,9,47,86,0,0,0,32,0,0,0,0,0,0,0,0,0,0,0,0,0,0,0,0,0,0,0,0,0,0,0,0,0,0,0,0],"split_type":[0,0,0,0,0,0,0,0,0,0,0,0,0,0,0,0,0,0,0,0,0,0,0,0,0,0,0,0,0,0,0,0,0,0,0,0,0,0,0,0,0,0,0,0,0,0,0,0,0,0,0,0,0,0,0,0,0,0,0,0,0,0,0,0,0,0,0,0,0,0,0,0,0,0,0,0,0,0,0],"sum_hessian":[3.2321982E2,5.489742E1,2.683224E2,3.4653236E1,2.0244183E1,2.1050336E2,5.781904E1,3.0022879E1,4.630357E0,5.604941E0,1.4639242E1,1.3443727E2,7.6066086E1,4.7420967E1,1.0398067E1,2.9000048E1,1.0228317E0,2.97008E0,1.6602768E0,3.9259298E0,1.6790113E0,8.644666E0,5.9945765E0,4.4214573E1,9.02227E1,7.28071E1,3.258988E0,3.68384E1,1.0582567E1,4.210124E0,6.1879435E0,1.2607859E0,2.6651437E0,3.1794972E0,2.815079E0,1.50067215E1,2.9207851E1,4.4076237E1,4.6146465E1,2.695374E0,7.0111725E1,2.0065393E0,1.2524486E0,9.914773E0,2.6923628E1,2.3080678E0,8.2745E0,1.0007173E0,3.2094069E0,1.8652053E0,4.322738E0,1.3429554E0,1.3221885E0,1.965046E0,1.2144513E0,8.450292E0,6.55643E0,6.324958E0,2.2882895E1,1.5507165E1,2.856907E1,3.9665756E1,6.480711E0,1.260045E0,1.4353291E0,3.9805973E1,3.030575E1,1.0009689E0,1.0055704E0,4.237226E0,5.677547E0,2.4521858E1,2.4017706E0,1.0790207E0,1.2290471E0,7.1999316E0,1.0745683E0,2.3454928E0,1.9772455E0],"tree_param":{"num_deleted":"0","num_feature":"108","num_nodes":"79","size_leaf_vector":"1"}},{"base_weights":[-2.2938414E-1,-1.6722165E-1,-7.207559E-1,-6.236566E-1,-1.0383365E-1,-3.0417106E-1,-9.40167E-1,-8.089388E-1,9.624042E-2,-5.405553E-1,-4.6004076E-2,6.7142314E-1,-5.831181E-1,-2.9438505E-1,-6.8655066E-2,-8.7098455E-1,1.0539626E-1,-5.331744E-1,8.1640494E-1,-7.683303E-1,1.5905222E-1,-2.0953926E-1,1.7740278E-1,3.554885E-1,-4.267095E-2,-7.3759407E-1,1.3437088E-1,-1.43853E-1,-9.446756E-1,5.1439792E-2,-2.3233317E-1,-6.607983E-2,3.9944768E-1,1.01216234E-1,-8.839698E-1,6.1969626E-1,-2.1574488E-1,-5.1771104E-1,-2.1371854E-2,4.8885652E-1,-8.6202115E-2,-8.17895E-1,-6.5861284E-3,-2.0031433E-1,1.4676411E-1,-2.94787E-1,-4.6778124E-2,-2.9202917E-1,-7.067817E-2,2.9878405E-1,-1.6115525E-1,1.7530972E-2,-2.2960223E-1,-1.1517295E-1,7.233385E-2,3.1887785E-2,4.297289E-1,-7.207278E-2,2.3773508E-1,-3.1150812E-2,-2.7018735E-1],"categories":[],"categories_nodes":[],"categories_segments":[],"categories_sizes":[],"default_left":[0,0,0,0,0,0,0,0,0,0,0,0,0,0,0,0,0,0,0,0,0,0,0,0,0,0,0,0,0,0,0,0,0,0,0,0,0,0,0,0,0,0,0,0,0,0,0,0,0,0,0,0,0,0,0,0,0,0,0,0,0],"id":8,"left_children":[1,3,5,7,9,11,13,15,17,19,21,23,25,-1,-1,27,-1,29,31,33,35,37,39,-1,-1,41,-1,43,45,-1,-1,-1,-1,-1,47,49,-1,51,53,55,57,59,-1,-1,-1,-1,-1,-1,-1,-1,-1,-1,-1,-1,-1,-1,-1,-1,-1,-1,-1],"loss_changes":[9.06062E0,7.692784E0,2.7717648E0,4.412286E0,5.9513135E0,3.9345593E0,4.0231133E-1,2.1741562E0,3.8554354E0,4.51667E0,7.7114244E0,1.5723507E0,2.0281026E0,0E0,0E0,1.1994343E0,0E0,9.2014396E-1,2.3832817E0,2.9802284E0,3.520823E0,7.048125E0,7.375141E0,0E0,0E0,5.3650665E-1,0E0,1.4783767E0,5.1867294E-1,0E0,0E0,0E0,0E0,0E0,8.8814545E-1,2.9392054E0,0E0,6.6230373E0,7.38448E0,1.4681212E1,6.852828E0,4.1731834E-1,0E0,0E0,0E0,0E0,0E0,0E0,0E0,0E0,0E0,0E0,0E0,0E0,0E0,0E0,0E0,0E0,0E0,0E0,0E0],"parents":[2147483647,0,0,1,1,2,2,3,3,4,4,5,5,6,6,7,7,8,8,9,9,10,10,11,11,12,12,15,15,17,17,18,18,19,19,20,20,21,21,22,22,25,25,27,27,28,28,34,34,35,35,37,37,38,38,39,39,40,40,41,41],"right_children":[2,4,6,8,10,12,14,16,18,20,22,24,26,-1,-1,28,-1,30,32,34,36,38,40,-1,-1,42,-1,44,46,-1,-1,-1,-1,-1,48,50,-1,52,54,56,58,60,-1,-1,-1,-1,-1,-1,-1,-1,-1,-1,-1,-1,-1,-1,-1,-1,-1,-1,-1],"split_conditions":[-3.2485124E-1,-2.0226783E-1,-1.3931179E-1,-8.5579045E-2,3.2672E-1,-2.1465483E-1,2.7914155E-1,3.4456798E-1,6.0509123E-2,2.2548732E-1,4E0,-8.055955E-2,-2.859281E-1,-2.9438505E-1,-6.8655066E-2,-5.341148E-1,1.0539626E-1,2.3312336E-1,-1.5550695E-1,-3.6600727E-1,-2.19756E-1,-3.9291047E-2,3.095283E2,3.554885E-1,-4.267095E-2,-2.536499E-1,1.3437088E-1,-1.0113802E-1,4.817562E-1,5.1439792E-2,-2.3233317E-1,-6.607983E-2,3.9944768E-1,1.01216234E-1,1.4433077E-1,-1.8112978E-1,-2.1574488E-1,2.8298575E-1,-1.3662596E-1,2.8798E0,1E1,-5.175692E-2,-6.5861284E-3,-2.0031433E-1,1.4676411E-1,-2.94787E-1,-4.6778124E-2,-2.9202917E-1,-7.067817E-2,2.9878405E-1,-1.6115525E-1,1.7530972E-2,-2.2960223E-1,-1.1517295E-1,7.233385E-2,3.1887785E-2,4.297289E-1,-7.207278E-2,2.3773508E-1,-3.1150812E-2,-2.7018735E-1],"split_indices":[98,95,79,18,0,39,50,34,84,38,103,55,44,0,0,86,0,29,15,92,18,91,1,0,0,64,0,13,69,0,0,0,0,0,77,35,0,46,23,0,103,28,0,0,0,0,0,0,0,0,0,0,0,0,0,0,0,0,0,0,0],"split_type":[0,0,0,0,0,0,0,0,0,0,0,0,0,0,0,0,0,0,0,0,0,0,0,0,0,0,0,0,0,0,0,0,0,0,0,0,0,0,0,0,0,0,0,0,0,0,0,0,0,0,0,0,0,0,0,0,0,0,0,0,0],"sum_hessian":[2.995787E2,2.671255E2,3.2453217E1,3.1495878E1,2.356296E2,1.2019225E1,2.0433992E1,2.4950579E1,6.545298E0,2.6576895E1,2.090527E2,2.3596284E0,9.659597E0,1.895859E1,1.4754018E0,2.392072E1,1.0298598E0,3.6312659E0,2.914032E0,1.9975222E1,6.6016726E0,1.2073559E2,8.8317116E1,1.1668434E0,1.192785E0,8.648419E0,1.011178E0,2.4728155E0,2.1447905E1,1.0000077E0,2.6312582E0,1.157269E0,1.7567629E0,1.7097175E0,1.8265505E1,4.5233784E0,2.0782943E0,4.510818E1,7.56274E1,4.009256E1,4.8224556E1,7.647427E0,1.000992E0,1.3231673E0,1.1496482E0,2.0228868E1,1.2190361E0,1.5610309E1,2.6551955E0,3.5182524E0,1.005126E0,1.3789308E1,3.1318874E1,3.1566233E1,4.4061172E1,2.9318333E1,1.0774227E1,4.1649395E1,6.575164E0,1.0281688E0,6.6192584E0],"tree_param":{"num_deleted":"0","num_feature":"108","num_nodes":"61","size_leaf_vector":"1"}},{"base_weights":[-1.8717015E-1,-1.2594055E-1,-6.462983E-1,-5.4885197E-1,-6.0416535E-2,-7.171505E-1,1.8411168E-1,-8.06196E-1,-1.1455483E-1,1.0317578E0,-8.8305354E-2,-3.92663E-2,-8.139106E-1,-9.301232E-1,-1.1206697E-1,6.2838084E-1,-6.445319E-1,-4.295876E-1,1.9896933E0,-4.1308735E-2,-5.54526E-1,-1.6146088E-1,1.7092203E-1,-8.9401853E-1,1.1391639E-1,-6.59946E-2,-2.8803492E-1,2.3948117E-1,-2.1015783E-1,-4.127065E-2,5.3954977E-1,-8.019187E-1,7.77569E-2,-3.193114E-2,-1.6131973E-1,7.7535933E-1,1.07191645E-1,-3.0266678E-1,7.134353E-2,-6.86383E-1,2.570735E-1,-9.28131E-1,-1.8171577E-2,2.1426247E-1,-1.5992647E-1,1.533016E-1,-1.9962929E-1,-2.6456138E-1,-4.42565E-2,1.2329392E-1,-1.5568565E-1,6.108373E-2,-9.416709E-2,5.873836E-2,-2.619614E-1,-2.871257E-1,-3.9746873E-2],"categories":[],"categories_nodes":[],"categories_segments":[],"categories_sizes":[],"default_left":[0,0,0,0,0,0,0,0,0,0,0,0,0,0,0,0,0,0,0,0,0,0,0,0,0,0,0,0,0,0,0,0,0,0,0,0,0,0,0,0,0,0,0,0,0,0,0,0,0,0,0,0,0,0,0,0,0],"id":9,"left_children":[1,3,5,7,9,11,-1,13,15,17,19,21,23,25,27,29,31,33,35,37,39,-1,-1,41,43,-1,-1,-1,-1,45,-1,47,-1,-1,-1,-1,-1,49,51,53,-1,55,-1,-1,-1,-1,-1,-1,-1,-1,-1,-1,-1,-1,-1,-1,-1],"loss_changes":[7.864599E0,6.912159E0,3.387701E0,3.6516485E0,6.7354155E0,2.0486584E0,0E0,1.6909733E0,5.771648E0,8.568451E0,4.6578045E0,1.8298265E0,2.161255E0,1.6303825E-1,2.8618891E0,4.9176116E0,1.4095497E0,4.7755897E-2,2.4808855E0,5.767137E0,4.2138844E0,0E0,0E0,6.72142E-1,1.5805221E0,0E0,0E0,0E0,0E0,2.0321698E0,0E0,2.591653E-1,0E0,0E0,0E0,0E0,0E0,9.315115E0,7.053625E0,3.1989393E0,0E0,4.3856812E-1,0E0,0E0,0E0,0E0,0E0,0E0,0E0,0E0,0E0,0E0,0E0,0E0,0E0,0E0,0E0],"parents":[2147483647,0,0,1,1,2,2,3,3,4,4,5,5,7,7,8,8,9,9,10,10,11,11,12,12,13,13,14,14,15,15,16,16,17,17,18,18,19,19,20,20,23,23,24,24,29,29,31,31,37,37,38,38,39,39,41,41],"right_children":[2,4,6,8,10,12,-1,14,16,18,20,22,24,26,28,30,32,34,36,38,40,-1,-1,42,44,-1,-1,-1,-1,46,-1,48,-1,-1,-1,-1,-1,50,52,54,-1,56,-1,-1,-1,-1,-1,-1,-1,-1,-1,-1,-1,-1,-1,-1,-1],"split_conditions":[5.4073058E-2,1.68319E2,3.536832E-1,4.337E1,1E1,-3.8028663E-1,1.8411168E-1,-1.9359453E-1,5.228E1,3.7602223E-2,5.1598E0,-2.1595348E-1,-7.870477E-2,1.1888454E-1,-2.3511228E-1,-1.1114794E-1,3.691088E-2,-2.6899362E-1,-1.7428483E-1,1.99902E0,9.74886E0,-1.6146088E-1,1.7092203E-1,5.0256956E-1,-6.87836E-4,-6.59946E-2,-2.8803492E-1,2.3948117E-1,-2.1015783E-1,-4.6943125E-1,5.3954977E-1,2.0260364E-1,7.77569E-2,-3.193114E-2,-1.6131973E-1,7.7535933E-1,1.07191645E-1,1E0,5E0,-1.5495661E-1,2.570735E-1,2.7557868E-1,-1.8171577E-2,2.1426247E-1,-1.5992647E-1,1.533016E-1,-1.9962929E-1,-2.6456138E-1,-4.42565E-2,1.2329392E-1,-1.5568565E-1,6.108373E-2,-9.416709E-2,5.873836E-2,-2.619614E-1,-2.871257E-1,-3.9746873E-2],"split_indices":[26,1,34,2,106,18,0,44,2,63,0,41,6,73,70,65,42,92,70,0,0,0,0,100,20,0,0,0,0,98,0,19,0,0,0,0,0,104,107,81,0,62,0,0,0,0,0,0,0,0,0,0,0,0,0,0,0],"split_type":[0,0,0,0,0,0,0,0,0,0,0,0,0,0,0,0,0,0,0,0,0,0,0,0,0,0,0,0,0,0,0,0,0,0,0,0,0,0,0,0,0,0,0,0,0,0,0,0,0,0,0,0,0,0,0,0,0],"sum_hessian":[2.8165256E2,2.4963535E2,3.201722E1,3.249924E1,2.1713611E2,3.0720581E1,1.2966373E0,1.9869305E1,1.2629937E1,4.5102816E0,2.1262582E2,4.0128775E0,2.6707705E1,1.6570824E1,3.2984798E0,5.181167E0,7.4487705E0,2.004276E0,2.5060058E0,1.9414404E2,1.8481775E1,2.269676E0,1.7432015E0,2.461859E1,2.0891144E0,1.0092583E0,1.5561566E1,1.1550659E0,2.1434138E0,3.9088726E0,1.2722944E0,6.4398866E0,1.0088841E0,1.0000896E0,1.0041864E0,1.4092107E0,1.096795E0,5.7968327E1,1.3617572E2,1.7372526E1,1.109249E0,2.3541447E1,1.0771421E0,1.0297978E0,1.0593168E0,2.170044E0,1.7388288E0,5.428979E0,1.0109074E0,1.3273021E1,4.4695305E1,1.0172143E2,3.4454292E1,3.0276818E0,1.4344845E1,2.2519035E1,1.0224124E0],"tree_param":{"num_deleted":"0","num_feature":"108","num_nodes":"57","size_leaf_vector":"1"}},{"base_weights":[-1.4870465E-1,-3.78119E-1,-4.5921404E-2,-7.4368544E-2,-5.39462E-1,2.3786727E-2,-6.674978E-1,-4.338413E-1,3.5456213E-1,-8.1650555E-2,-7.19104E-1,8.270918E-2,-5.5459046E-1,-7.88147E-1,1.02075465E-1,-8.985843E-1,7.1827926E-2,8.308185E-1,-5.81031E-1,-2.4853761E-1,2.5171414E-1,1.835845E-2,-8.653755E-1,5.4097974E-1,-2.3176663E-2,-7.4057376E-1,2.9591334E-1,-8.949277E-1,1.2345419E-1,-2.875051E-1,-6.627747E-2,7.889503E-1,-4.231195E-1,1.3415748E0,-1.9443226E-1,-2.4525405E-1,6.6040136E-2,-6.3751674E-1,7.272906E-1,5.511589E-1,-2.2335352E-1,-2.5547096E-1,-3.0424973E-1,7.9694664E-1,-3.4470087E-1,-1.7159225E-1,3.0914694E-1,9.5229484E-2,-8.698287E-1,-1.6770786E-1,2.8053385E-1,-3.6895644E-2,-2.9612547E-1,3.6862856E-1,-4.682481E-2,1.6727924E-1,-2.552679E-1,5.2775604E-1,-8.0884114E-2,-2.1337593E-1,1.986929E-1,-2.3937698E-1,-7.101194E-3,3.553239E-1,-1.9435124E-1,-1.268314E-1,3.1124836E-1,-2.2867471E-1,2.075333E-1,-2.1619326E-1,3.0039597E-1,8.744653E-2,-2.612245E-1,-2.2697699E-1,-2.5308786E-3,1.4268553E-1,-1.3955589E-1,6.899884E-2,-2.9739457E-1],"categories":[],"categories_nodes":[],"categories_segments":[],"categories_sizes":[],"default_left":[0,0,0,0,0,0,0,0,0,0,0,0,0,0,0,0,0,0,0,0,0,0,0,0,0,0,0,0,0,0,0,0,0,0,0,0,0,0,0,0,0,0,0,0,0,0,0,0,0,0,0,0,0,0,0,0,0,0,0,0,0,0,0,0,0,0,0,0,0,0,0,0,0,0,0,0,0,0,0],"id":10,"left_children":[1,3,5,7,9,11,13,15,17,19,21,23,25,27,-1,29,31,33,35,-1,37,39,41,43,45,47,49,51,-1,-1,-1,53,55,57,59,-1,-1,61,63,65,-1,67,-1,69,71,73,75,-1,77,-1,-1,-1,-1,-1,-1,-1,-1,-1,-1,-1,-1,-1,-1,-1,-1,-1,-1,-1,-1,-1,-1,-1,-1,-1,-1,-1,-1,-1,-1],"loss_changes":[6.2962356E0,4.013115E0,8.077107E0,4.7564893E0,4.370414E0,5.7798023E0,2.55336E0,3.9868104E0,6.7925177E0,4.267818E0,4.1742344E0,7.4642487E0,2.7003145E0,2.557145E0,0E0,1.4351034E-1,3.4995346E0,5.390283E0,1.1964768E0,0E0,5.5552964E0,3.40179E0,2.6620808E0,6.818268E0,6.2529516E0,2.0753183E0,2.451324E0,1.0172329E0,0E0,0E0,0E0,1.850668E0,2.961351E0,4.9587574E0,2.3000398E0,0E0,0E0,4.4668102E-1,5.9920053E0,2.7633064E0,0E0,4.1994586E0,0E0,7.760316E0,2.653221E0,8.348787E0,5.269703E0,0E0,1.8302555E0,0E0,0E0,0E0,0E0,0E0,0E0,0E0,0E0,0E0,0E0,0E0,0E0,0E0,0E0,0E0,0E0,0E0,0E0,0E0,0E0,0E0,0E0,0E0,0E0,0E0,0E0,0E0,0E0,0E0,0E0],"parents":[2147483647,0,0,1,1,2,2,3,3,4,4,5,5,6,6,7,7,8,8,9,9,10,10,11,11,12,12,13,13,15,15,16,16,17,17,18,18,20,20,21,21,22,22,23,23,24,24,25,25,26,26,27,27,31,31,32,32,33,33,34,34,37,37,38,38,39,39,41,41,43,43,44,44,45,45,46,46,48,48],"right_children":[2,4,6,8,10,12,14,16,18,20,22,24,26,28,-1,30,32,34,36,-1,38,40,42,44,46,48,50,52,-1,-1,-1,54,56,58,60,-1,-1,62,64,66,-1,68,-1,70,72,74,76,-1,78,-1,-1,-1,-1,-1,-1,-1,-1,-1,-1,-1,-1,-1,-1,-1,-1,-1,-1,-1,-1,-1,-1,-1,-1,-1,-1,-1,-1,-1,-1],"split_conditions":[1.7250697E-1,-2.17225E-1,4.3477327E-1,-4.108975E-1,-1.7093691E-1,3.403753E-1,1.3811468E-1,2.768E0,3.6783233E-2,3.0986557E-2,-4.7224602E-1,2.0847797E-1,-3.0179042E-2,2.2698885E-1,1.02075465E-1,4.5323125E-1,3.4874752E-2,3.7318423E-1,-2.2703898E-1,-2.4853761E-1,1.8046448E-1,3E0,1.808717E-1,1.0581462E-1,-8.936939E-2,-1.647234E-2,2E0,-3.1268248E-1,1.2345419E-1,-2.875051E-1,-6.627747E-2,4E0,-2.36183E-1,-1.5678431E-1,6.481872E-2,-2.4525405E-1,6.6040136E-2,-1.9985369E-1,6E0,4.337E1,-2.2335352E-1,4.9272574E-2,-3.0424973E-1,-2.677339E-1,-1.9635098E-1,-2.9952243E-1,2.9850291E-2,9.5229484E-2,1.415981E2,-1.6770786E-1,2.8053385E-1,-3.6895644E-2,-2.9612547E-1,3.6862856E-1,-4.682481E-2,1.6727924E-1,-2.552679E-1,5.2775604E-1,-8.0884114E-2,-2.1337593E-1,1.986929E-1,-2.3937698E-1,-7.101194E-3,3.553239E-1,-1.9435124E-1,-1.268314E-1,3.1124836E-1,-2.2867471E-1,2.075333E-1,-2.1619326E-1,3.0039597E-1,8.744653E-2,-2.612245E-1,-2.2697699E-1,-2.5308786E-3,1.4268553E-1,-1.3955589E-1,6.899884E-2,-2.9739457E-1],"split_indices":[69,16,100,98,61,87,61,0,66,4,98,69,8,19,0,97,20,73,16,0,100,107,49,63,48,4,104,96,0,0,0,107,81,9,68,0,0,6,107,2,0,58,0,72,59,32,91,0,1,0,0,0,0,0,0,0,0,0,0,0,0,0,0,0,0,0,0,0,0,0,0,0,0,0,0,0,0,0,0],"split_type":[0,0,0,0,0,0,0,0,0,0,0,0,0,0,0,0,0,0,0,0,0,0,0,0,0,0,0,0,0,0,0,0,0,0,0,0,0,0,0,0,0,0,0,0,0,0,0,0,0,0,0,0,0,0,0,0,0,0,0,0,0,0,0,0,0,0,0,0,0,0,0,0,0,0,0,0,0,0,0],"sum_hessian":[2.6675287E2,8.170555E1,1.850473E2,2.8850824E1,5.2854725E1,1.6725215E2,1.779515E1,1.5690055E1,1.3160769E1,1.5304995E1,3.7549732E1,1.5256638E2,1.4685776E1,1.6087095E1,1.7080559E0,7.7709885E0,7.919066E0,8.795485E0,4.3652844E0,4.2651057E0,1.1039889E1,6.359798E0,3.1189932E1,2.7863773E1,1.2470261E2,1.2156675E1,2.5291E0,1.50054865E1,1.0816083E0,6.7605386E0,1.0104498E0,2.9911795E0,4.9278865E0,5.664852E0,3.1306324E0,3.3546696E0,1.010615E0,3.7282705E0,7.311619E0,3.9079466E0,2.4518514E0,6.6496034E0,2.4540329E1,2.1694206E1,6.1695657E0,8.65383E1,3.816431E1,1.1649791E0,1.0991696E1,1.135619E0,1.3934808E0,1.8493317E0,1.3156155E1,1.8363323E0,1.1548471E0,1.4044789E0,3.5234077E0,4.4258404E0,1.2390121E0,2.058612E0,1.0720203E0,2.7181149E0,1.0101558E0,5.591554E0,1.7200649E0,1.3450552E0,2.5628912E0,4.459222E0,2.1903818E0,2.2749865E0,1.941922E1,2.9942636E0,3.175302E0,1.8078917E1,6.845938E1,3.1728804E1,6.435507E0,1.004522E0,9.987175E0],"tree_param":{"num_deleted":"0","num_feature":"108","num_nodes":"79","size_leaf_vector":"1"}},{"base_weights":[-1.3103129E-1,-3.5593396E-1,-3.4107953E-2,-7.61703E-1,-1.72025E-1,6.0648453E-1,-8.8817894E-2,-8.211233E-1,6.1709084E-2,-5.2013155E-2,-8.40122E-1,-5.101993E-1,9.723985E-1,-3.5564956E-1,3.706389E-2,1.0460184E-2,-8.9158505E-1,2.7646884E-1,-4.0159523E-1,-4.782536E-2,-2.737637E-1,-2.3085015E-1,4.3554887E-2,-1.9679531E-1,1.3092655E0,-1.1344765E-1,-6.8884224E-1,2.1694522E-1,-2.4290244E-1,-2.568771E-1,-2.882605E-1,4.8038685E-1,-5.2857214E-1,-8.245525E-1,1.0080475E-2,6.2460884E-2,1.721139E0,1.8596594E-1,-7.8234965E-1,-8.104829E-1,2.8464934E-1,4.2622247E-1,-3.7044457E-1,-6.424828E-1,2.2687478E-1,8.653006E-2,-1.8031551E-1,-9.365239E-2,2.484065E-1,-2.4312828E-1,1.1043814E-1,-2.789796E-1,-8.95831E-2,2.7977332E-1,-6.0362365E-2,2.0359312E-1,-1.9804727E-1,5.8218837E-1,5.8977846E-2,-1.6861507E-1,1.9198011E-1,1.8301312E-3,-2.838685E-1,1.5391672E-1,-2.794523E-1,2.2708187E-1,-3.5615677E-3,9.090755E-2,-1.8798517E-1,-2.4770926E-1,-4.770517E-3,-2.048755E-1,1.5256867E-1],"categories":[],"categories_nodes":[],"categories_segments":[],"categories_sizes":[],"default_left":[0,0,0,0,0,0,0,0,0,0,0,0,0,0,0,0,0,0,0,0,0,0,0,0,0,0,0,0,0,0,0,0,0,0,0,0,0,0,0,0,0,0,0,0,0,0,0,0,0,0,0,0,0,0,0,0,0,0,0,0,0,0,0,0,0,0,0,0,0,0,0,0,0],"id":11,"left_children":[1,3,5,7,9,11,13,15,-1,17,19,21,23,25,27,-1,29,31,33,-1,-1,-1,-1,-1,35,37,39,41,43,45,-1,47,49,51,53,55,57,59,61,63,-1,65,67,69,71,-1,-1,-1,-1,-1,-1,-1,-1,-1,-1,-1,-1,-1,-1,-1,-1,-1,-1,-1,-1,-1,-1,-1,-1,-1,-1,-1,-1],"loss_changes":[5.591295E0,5.6383E0,6.3884573E0,1.5381613E0,4.325385E0,6.359599E0,5.6359186E0,1.3967361E0,0E0,5.5378933E0,2.6034594E-1,8.250462E-1,6.976445E0,4.259665E0,5.8262777E0,0E0,6.74778E-1,4.3509655E0,4.0657063E0,0E0,0E0,0E0,0E0,0E0,4.8092327E0,6.6191792E0,5.237027E0,8.80295E0,8.652569E0,8.1663144E-1,0E0,5.889359E0,1.6935061E0,3.5999727E-1,2.681839E0,1.9686522E0,2.0141506E0,8.216307E0,1.3220124E0,3.9085855E0,0E0,7.5890102E0,3.4694278E0,2.8280907E0,5.874797E0,0E0,0E0,0E0,0E0,0E0,0E0,0E0,0E0,0E0,0E0,0E0,0E0,0E0,0E0,0E0,0E0,0E0,0E0,0E0,0E0,0E0,0E0,0E0,0E0,0E0,0E0,0E0,0E0],"parents":[2147483647,0,0,1,1,2,2,3,3,4,4,5,5,6,6,7,7,9,9,10,10,11,11,12,12,13,13,14,14,16,16,17,17,18,18,24,24,25,25,26,26,27,27,28,28,29,29,31,31,32,32,33,33,34,34,35,35,36,36,37,37,38,38,39,39,41,41,42,42,43,43,44,44],"right_children":[2,4,6,8,10,12,14,16,-1,18,20,22,24,26,28,-1,30,32,34,-1,-1,-1,-1,-1,36,38,40,42,44,46,-1,48,50,52,54,56,58,60,62,64,-1,66,68,70,72,-1,-1,-1,-1,-1,-1,-1,-1,-1,-1,-1,-1,-1,-1,-1,-1,-1,-1,-1,-1,-1,-1,-1,-1,-1,-1,-1,-1],"split_conditions":[2.21177E2,-1.7395611E-1,2.292313E2,5.0140315E-1,4.2344192E-1,-1.24300696E-1,5E0,-3.1354353E-1,6.1709084E-2,-7.627903E-2,-1.3281326E-2,-7.008657E-2,1.8034E0,2.883416E2,8E0,1.0460184E-2,-1.4426278E-1,-1.16752915E-1,-3.0262314E-2,-4.782536E-2,-2.737637E-1,-2.3085015E-1,4.3554887E-2,-1.9679531E-1,-1.8131846E-1,3.974406E-2,3.5E1,3.1411386E-1,8E0,-1.3239644E-1,-2.882605E-1,-2.9516476E-1,1.9114573E-1,-5.969997E-3,-2.2454116E-2,-9.676457E-2,-4.9069963E-2,-2.3746067E-1,-7.44216E-2,1.5E1,2.8464934E-1,-4.8551828E-2,2E0,-3.64428E-2,-2.2018246E-1,8.653006E-2,-1.8031551E-1,-9.365239E-2,2.484065E-1,-2.4312828E-1,1.1043814E-1,-2.789796E-1,-8.95831E-2,2.7977332E-1,-6.0362365E-2,2.0359312E-1,-1.9804727E-1,5.8218837E-1,5.8977846E-2,-1.6861507E-1,1.9198011E-1,1.8301312E-3,-2.838685E-1,1.5391672E-1,-2.794523E-1,2.2708187E-1,-3.5615677E-3,9.090755E-2,-1.8798517E-1,-2.4770926E-1,-4.770517E-3,-2.048755E-1,1.5256867E-1],"split_indices":[1,48,1,17,100,60,105,74,0,81,50,8,0,1,105,0,58,85,102,0,0,0,0,0,37,3,106,73,103,18,0,80,84,74,102,22,22,43,52,106,0,10,107,15,72,0,0,0,0,0,0,0,0,0,0,0,0,0,0,0,0,0,0,0,0,0,0,0,0,0,0,0,0],"split_type":[0,0,0,0,0,0,0,0,0,0,0,0,0,0,0,0,0,0,0,0,0,0,0,0,0,0,0,0,0,0,0,0,0,0,0,0,0,0,0,0,0,0,0,0,0,0,0,0,0,0,0,0,0,0,0,0,0,0,0,0,0,0,0,0,0,0,0,0,0,0,0,0,0],"sum_hessian":[2.5605817E2,7.6311424E1,1.7974675E2,2.2820185E1,5.349124E1,1.3349816E1,1.6639694E2,2.1642076E1,1.1781077E0,4.6259407E1,7.231834E0,3.1974952E0,1.0152321E1,5.2752396E1,1.1364455E2,1.6844182E0,1.9957659E1,2.3957283E1,2.2302124E1,1.0032794E0,6.2285542E0,2.1662836E0,1.0312117E0,1.577847E0,8.574473E0,3.1323463E1,2.142893E1,6.9326584E1,4.431796E1,2.427434E0,1.7530226E1,1.943711E1,4.5201707E0,1.0505655E1,1.1796469E1,2.4151359E0,6.159338E0,2.213665E1,9.186814E0,2.0417492E1,1.0114393E0,5.1317417E1,1.8009167E1,2.3749561E1,2.05684E1,1.0019304E0,1.4255036E0,5.957287E0,1.3479825E1,3.5123572E0,1.0078133E0,8.112152E0,2.393503E0,1.562171E0,1.0234298E1,1.3364166E0,1.0787191E0,5.145604E0,1.0137341E0,8.270695E0,1.3865955E1,1.7465614E0,7.4402523E0,1.4391814E0,1.897831E1,2.882765E1,2.2489769E1,4.9122148E0,1.3096952E1,1.8130388E1,5.619174E0,4.5259895E0,1.604241E1],"tree_param":{"num_deleted":"0","num_feature":"108","num_nodes":"73","size_leaf_vector":"1"}},{"base_weights":[-1.1658477E-1,-5.0408804E-1,-6.891893E-2,-6.7983496E-1,-1.3014191E-2,-3.0129802E-1,4.7065992E-2,9.798625E-2,-8.121259E-1,3.7742177E-1,-2.1929727E-1,-6.686701E-2,-5.4860616E-1,-1.5028371E-1,2.2412159E-1,-1.56935E-1,1.571799E-1,-8.956312E-1,2.2076229E-2,7.0203257E-1,-1.635658E-1,5.9863713E-2,-7.9971516E-1,-6.9747764E-1,3.9528865E-1,-4.486075E-1,8.773366E-2,3.4027222E-1,-5.3195024E-1,-5.960867E-3,-2.865455E-1,1.0674758E0,-6.1202236E-2,-1.1092568E-1,1.0813639E0,-2.6438066E-1,-6.312699E-2,-7.445561E-1,7.643285E-2,1.0789224E0,-4.4660604E-1,2.1003704E-1,-6.24594E-1,-1.3841707E-1,8.517221E-1,7.744293E-1,5.441877E-2,-8.252366E-1,1.9571099E-1,9.385485E-2,3.7600455E-1,3.278192E-1,-6.682109E-2,5.46199E-1,5.5482714E-3,-2.4236004E-1,-2.5717262E-2,4.5904732E-1,4.4758104E-2,-2.1541055E-2,-1.7737634E-1,2.3101047E-1,-1.2825012E-1,-2.1533675E-1,2.0642065E-1,7.8189805E-2,-1.3680324E-1,-1.9714724E-1,3.7707126E-1,2.7105603E-2,3.5761902E-1,1.1877931E-1,-1.254056E-1,-5.3233644E-3,-2.7670452E-1],"categories":[],"categories_nodes":[],"categories_segments":[],"categories_sizes":[],"default_left":[0,0,0,0,0,0,0,0,0,0,0,0,0,0,0,0,0,0,0,0,0,0,0,0,0,0,0,0,0,0,0,0,0,0,0,0,0,0,0,0,0,0,0,0,0,0,0,0,0,0,0,0,0,0,0,0,0,0,0,0,0,0,0,0,0,0,0,0,0,0,0,0,0,0,0],"id":12,"left_children":[1,3,5,7,9,11,13,15,17,19,-1,21,23,25,27,-1,-1,29,-1,31,-1,33,35,37,39,41,43,45,47,-1,-1,49,-1,51,53,-1,-1,55,-1,57,59,61,63,65,67,69,71,73,-1,-1,-1,-1,-1,-1,-1,-1,-1,-1,-1,-1,-1,-1,-1,-1,-1,-1,-1,-1,-1,-1,-1,-1,-1,-1,-1],"loss_changes":[4.522888E0,2.310082E0,5.967453E0,2.113677E0,2.5468302E0,4.234773E0,5.2122407E0,1.2703313E0,1.3234215E0,2.1519074E0,0E0,3.6663706E0,5.2942305E0,5.0583973E0,7.076539E0,0E0,0E0,7.9487514E-1,0E0,1.8093297E0,0E0,6.0773487E0,9.396696E-2,1.5888815E0,3.6495202E0,3.7861314E0,7.055313E0,8.480679E0,4.3058047E0,0E0,0E0,1.10835075E-1,0E0,4.3027844E0,3.8830214E0,0E0,0E0,1.1818733E0,0E0,1.1687794E0,1.296032E-1,2.970072E0,3.568738E0,4.154344E0,6.518311E0,7.6600056E0,7.0201993E0,6.9997406E-1,0E0,0E0,0E0,0E0,0E0,0E0,0E0,0E0,0E0,0E0,0E0,0E0,0E0,0E0,0E0,0E0,0E0,0E0,0E0,0E0,0E0,0E0,0E0,0E0,0E0,0E0,0E0],"parents":[2147483647,0,0,1,1,2,2,3,3,4,4,5,5,6,6,7,7,8,8,9,9,11,11,12,12,13,13,14,14,17,17,19,19,21,21,22,22,23,23,24,24,25,25,26,26,27,27,28,28,31,31,33,33,34,34,37,37,39,39,40,40,41,41,42,42,43,43,44,44,45,45,46,46,47,47],"right_children":[2,4,6,8,10,12,14,16,18,20,-1,22,24,26,28,-1,-1,30,-1,32,-1,34,36,38,40,42,44,46,48,-1,-1,50,-1,52,54,-1,-1,56,-1,58,60,62,64,66,68,70,72,74,-1,-1,-1,-1,-1,-1,-1,-1,-1,-1,-1,-1,-1,-1,-1,-1,-1,-1,-1,-1,-1,-1,-1,-1,-1,-1,-1],"split_conditions":[3.2672E-1,2.2548732E-1,3.833E1,-3.6600727E-1,-1.2997052E-1,2.1538149E-1,1.187669E-1,-3.2079053E-1,3.5058096E-1,-4.701628E-2,-2.1929727E-1,3.553E1,1.8104178E-1,-3.21426E-2,-1.5760419E-1,-1.56935E-1,1.571799E-1,-2.3271866E-1,2.2076229E-2,-1.2911539E-1,-1.635658E-1,3.267E1,-3.7015755E-2,-6.270337E-2,-1.8321875E-1,-2.1549253E-1,1.8604739E-1,3.2978678E-1,9.13268E-2,-5.960867E-3,-2.865455E-1,1.2919535E-1,-6.1202236E-2,-3.911419E-1,7.276959E-2,-2.6438066E-1,-6.312699E-2,3.219809E-1,7.643285E-2,-9.252303E-2,2.146455E2,2.2172375E-1,6E0,-1.0113749E-1,8.00248E-3,-2.4331298E-1,7.0104524E-2,4.625E1,1.9571099E-1,9.385485E-2,3.7600455E-1,3.278192E-1,-6.682109E-2,5.46199E-1,5.5482714E-3,-2.4236004E-1,-2.5717262E-2,4.5904732E-1,4.4758104E-2,-2.1541055E-2,-1.7737634E-1,2.3101047E-1,-1.2825012E-1,-2.1533675E-1,2.0642065E-1,7.8189805E-2,-1.3680324E-1,-1.9714724E-1,3.7707126E-1,2.7105603E-2,3.5761902E-1,1.1877931E-1,-1.254056E-1,-5.3233644E-3,-2.7670452E-1],"split_indices":[0,38,2,92,59,33,50,96,45,22,0,2,84,21,43,0,0,8,0,41,0,2,56,6,31,37,57,29,4,0,0,19,0,44,4,0,0,19,0,51,1,34,104,56,58,35,7,2,0,0,0,0,0,0,0,0,0,0,0,0,0,0,0,0,0,0,0,0,0,0,0,0,0,0,0],"split_type":[0,0,0,0,0,0,0,0,0,0,0,0,0,0,0,0,0,0,0,0,0,0,0,0,0,0,0,0,0,0,0,0,0,0,0,0,0,0,0,0,0,0,0,0,0,0,0,0,0,0,0,0,0,0,0,0,0,0,0,0,0,0,0,0,0,0,0,0,0,0,0,0,0,0,0],"sum_hessian":[2.457495E2,2.5869102E1,2.1988039E2,1.876798E1,7.101122E0,7.267541E1,1.4720499E2,2.7657447E0,1.6002235E1,4.907013E0,2.1941092E0,3.7961197E1,3.471421E1,6.968448E1,7.752051E1,1.0323199E0,1.7334249E0,1.4613293E1,1.3889424E0,3.8067853E0,1.1002275E0,3.3147366E1,4.8138285E0,3.0210468E1,4.5037436E0,3.0531921E1,3.9152557E1,6.76741E1,9.846406E0,1.0148586E0,1.35984335E1,2.5856917E0,1.2210937E0,2.9162895E1,3.9844718E0,3.7933812E0,1.0204473E0,2.899509E1,1.215377E0,2.3301105E0,2.173633E0,6.3970227E0,2.41349E1,3.0841799E1,8.31076E0,2.6188921E1,4.148518E1,8.135035E0,1.7113712E0,1.0412891E0,1.5444027E0,1.7330878E0,2.7429808E1,1.9294419E0,2.0550299E0,2.6246698E1,2.748393E0,1.1339484E0,1.1961622E0,1.0219727E0,1.1516604E0,3.2949712E0,3.1020515E0,2.295812E1,1.1767786E0,1.3747593E1,1.7094206E1,1.6276357E0,6.6831236E0,1.0388719E1,1.5800201E1,2.4173063E1,1.7312117E1,1.0002865E0,7.1347485E0],"tree_param":{"num_deleted":"0","num_feature":"108","num_nodes":"75","size_leaf_vector":"1"}},{"base_weights":[-9.683712E-2,-6.971418E-2,-7.939123E-1,-6.3713694E-1,-3.3914685E-2,-2.8100896E-1,2.7026728E-2,5.4598726E-2,-8.452369E-1,1.7064528E-1,-1.12634644E-1,1.6192359E-1,-1.7129943E-1,-2.8228106E-2,-2.7446243E-1,-1.7254083E-1,5.9802127E-1,-5.89828E-2,-6.35002E-1,4.1194744E-2,-7.7585053E-1,1.8846993E-1,1.1559108E0,-2.8238747E-1,6.982907E-2,-8.311072E-1,2.2478624E-1,9.785343E-2,-2.334004E-1,6.682252E-2,-2.7835858E-1,-2.1385826E-1,1.7087147E-1,4.7851375E-1,2.2570293E-2,6.5302804E-2,-1.7310841E-1,1.969272E-1,-3.991765E-3,-2.94958E-1,-4.1261233E-2,2.7090183E-1,-1.7240433E-1],"categories":[],"categories_nodes":[],"categories_segments":[],"categories_sizes":[],"default_left":[0,0,0,0,0,0,0,0,0,0,0,0,0,0,0,0,0,0,0,0,0,0,0,0,0,0,0,0,0,0,0,0,0,0,0,0,0,0,0,0,0,0,0],"id":13,"left_children":[1,3,5,7,9,-1,-1,11,13,15,17,-1,-1,-1,-1,19,21,23,25,27,29,31,33,35,37,39,41,-1,-1,-1,-1,-1,-1,-1,-1,-1,-1,-1,-1,-1,-1,-1,-1],"loss_changes":[4.4230595E0,4.6320686E0,1.1919823E0,1.9952064E0,3.5063725E0,0E0,0E0,1.5436454E0,4.6153927E-1,8.987711E0,4.362019E0,0E0,0E0,0E0,0E0,4.464292E0,5.9974556E0,4.1480765E0,2.6348486E0,6.400838E0,1.5792556E0,6.2047834E0,5.252467E0,7.885057E0,4.4852843E0,1.1342878E0,2.4078197E0,0E0,0E0,0E0,0E0,0E0,0E0,0E0,0E0,0E0,0E0,0E0,0E0,0E0,0E0,0E0,0E0],"parents":[2147483647,0,0,1,1,2,2,3,3,4,4,7,7,8,8,9,9,10,10,15,15,16,16,17,17,18,18,19,19,20,20,21,21,22,22,23,23,24,24,25,25,26,26],"right_children":[2,4,6,8,10,-1,-1,12,14,16,18,-1,-1,-1,-1,20,22,24,26,28,30,32,34,36,38,40,42,-1,-1,-1,-1,-1,-1,-1,-1,-1,-1,-1,-1,-1,-1,-1,-1],"split_conditions":[1.6474164E-1,-4.034262E-1,-5.718469E-2,-2.6714262E-1,1.8096879E-1,-2.8100896E-1,2.7026728E-2,7.217466E-2,-4.724817E-1,1.5395549E-1,1.7812037E-1,1.6192359E-1,-1.7129943E-1,-2.8228106E-2,-2.7446243E-1,3.7378964E-1,3.1770635E-1,4.476E1,-8.146242E-2,1.5938789E-1,1.4571077E-1,-4.563115E-1,-1.9273691E-1,-2.2488487E-1,-3.0038677E-2,-5.846515E-2,-4.3873358E-1,9.785343E-2,-2.334004E-1,6.682252E-2,-2.7835858E-1,-2.1385826E-1,1.7087147E-1,4.7851375E-1,2.2570293E-2,6.5302804E-2,-1.7310841E-1,1.969272E-1,-3.991765E-3,-2.94958E-1,-4.1261233E-2,2.7090183E-1,-1.7240433E-1],"split_indices":[53,31,48,14,97,0,0,62,64,97,94,0,0,0,0,46,36,2,18,19,87,86,9,70,20,23,86,0,0,0,0,0,0,0,0,0,0,0,0,0,0,0,0],"split_type":[0,0,0,0,0,0,0,0,0,0,0,0,0,0,0,0,0,0,0,0,0,0,0,0,0,0,0,0,0,0,0,0,0,0,0,0,0,0,0,0,0,0,0],"sum_hessian":[2.3586841E2,2.2809338E2,7.7750196E0,1.2539808E1,2.1555357E2,6.642509E0,1.1325107E0,3.0705993E0,9.469209E0,5.957515E1,1.5597842E2,1.8067259E0,1.2638736E0,1.0028821E0,8.466327E0,3.337281E1,2.620234E1,1.4245947E2,1.3518959E1,2.533061E1,8.042201E0,1.5881457E1,1.0320882E1,5.1663944E1,9.0795525E1,1.1035321E1,2.4836378E0,1.9239405E1,6.091206E0,1.001018E0,7.0411825E0,4.4608126E0,1.1420645E1,7.000319E0,3.3205624E0,1.9251518E1,3.2412426E1,1.0414636E1,8.038089E1,8.708201E0,2.3271196E0,1.2736448E0,1.2099929E0],"tree_param":{"num_deleted":"0","num_feature":"108","num_nodes":"43","size_leaf_vector":"1"}},{"base_weights":[-8.334554E-2,-5.8168016E-2,-7.459261E-1,-3.364336E-2,-6.7663217E-1,1.1213871E-2,-2.660029E-1,1.0478705E-2,-3.6792934E-1,-2.7151126E-1,2.9561171E-2,-6.205547E-1,5.133812E-2,7.040152E-2,-6.415094E-1,6.321248E-2,-7.802637E-1,6.633671E-1,4.8707663E-3,-6.699909E-1,6.411742E-1,1.0060552E-1,-7.879694E-1,-2.7134833E-1,4.984699E-2,3.689662E-1,-7.257089E-2,6.319511E-2,-4.9895532E-2,-2.4443917E-1,-1.1966956E-2,-1.7877753E-1,3.0936795E-1,-2.4123527E-2,-2.8407523E-1],"categories":[],"categories_nodes":[],"categories_segments":[],"categories_sizes":[],"default_left":[0,0,0,0,0,0,0,0,0,0,0,0,0,0,0,0,0,0,0,0,0,0,0,0,0,0,0,0,0,0,0,0,0,0,0],"id":14,"left_children":[1,3,5,7,9,-1,-1,11,13,-1,-1,15,17,19,21,-1,23,25,27,29,31,-1,33,-1,-1,-1,-1,-1,-1,-1,-1,-1,-1,-1,-1],"loss_changes":[3.7963717E0,3.3570428E0,9.5280695E-1,3.180631E0,1.5847085E0,0E0,0E0,4.9627857E0,3.0600662E0,0E0,0E0,1.7185402E0,5.1310997E0,4.8933043E0,2.493095E0,0E0,1.3298297E0,6.827313E0,5.981525E0,4.3165874E-1,3.739191E0,0E0,1.4810438E0,0E0,0E0,0E0,0E0,0E0,0E0,0E0,0E0,0E0,0E0,0E0,0E0],"parents":[2147483647,0,0,1,1,2,2,3,3,4,4,7,7,8,8,11,11,12,12,13,13,14,14,16,16,17,17,18,18,19,19,20,20,22,22],"right_children":[2,4,6,8,10,-1,-1,12,14,-1,-1,16,18,20,22,-1,24,26,28,30,32,-1,34,-1,-1,-1,-1,-1,-1,-1,-1,-1,-1,-1,-1],"split_conditions":[4.560226E-1,1.6133225E-1,2.9543635E-1,-5.3519458E-3,-6.8900086E-2,1.1213871E-2,-2.660029E-1,2.0693095E-1,-2.091531E-1,-2.7151126E-1,2.9561171E-2,-1.9775426E-1,-1.8170156E-1,-7.710909E-2,-2.0051467E-1,6.321248E-2,2.2162107E-1,3.1979144E-2,-1.776247E-1,3.2420042E-1,-1.4505002E-1,1.0060552E-1,-4.7877502E-1,-2.7134833E-1,4.984699E-2,3.689662E-1,-7.257089E-2,6.319511E-2,-4.9895532E-2,-2.4443917E-1,-1.1966956E-2,-1.7877753E-1,3.0936795E-1,-2.4123527E-2,-2.8407523E-1],"split_indices":[73,53,89,15,48,0,0,36,16,0,0,42,61,8,10,0,78,68,65,82,56,0,98,0,0,0,0,0,0,0,0,0,0,0,0],"split_type":[0,0,0,0,0,0,0,0,0,0,0,0,0,0,0,0,0,0,0,0,0,0,0,0,0,0,0,0,0,0,0,0,0,0,0],"sum_hessian":[2.2917197E2,2.2183038E2,7.3415847E0,2.1438359E2,7.4467964E0,1.2301203E0,6.1114645E0,1.9024234E2,2.4141241E1,5.622562E0,1.8242347E0,1.0706315E1,1.7953603E2,9.562632E0,1.4578609E1,1.6740086E0,9.032307E0,1.1732283E1,1.6780376E2,4.0871058E0,5.4755254E0,1.732622E0,1.2845987E1,8.023422E0,1.0088844E0,6.9957433E0,4.736539E0,7.609842E1,9.170533E1,3.0850055E0,1.0021005E0,1.186041E0,4.2894845E0,2.6326473E0,1.021334E1],"tree_param":{"num_deleted":"0","num_feature":"108","num_nodes":"35","size_leaf_vector":"1"}},{"base_weights":[-6.991253E-2,-3.313911E-1,-8.311671E-3,3.3376846E-1,-4.409218E-1,-2.2804321E-1,9.287284E-2,-2.065255E-1,8.736415E-1,2.1966452E-2,-5.791991E-1,1.2972857E-1,-4.599573E-1,2.1601416E-1,-3.154387E-1,4.0845004E-1,-7.823957E-2,3.3863232E-1,-2.1489692E-1,2.858585E-1,-6.9491214E-1,-1.2915905E-1,9.032383E-1,1.4487253E-1,-6.157441E-1,3.3585802E-1,-3.7232164E-1,1.4657184E-1,-5.565613E-1,7.02481E-1,-1.9622739E-1,-1.0414458E-1,2.3431562E-1,3.4711903E-1,-8.0271834E-1,2.4091136E-1,-6.502876E-1,1.6419713E0,-7.830639E-2,-5.5315524E-1,7.9274225E-1,-8.659497E-1,-2.5602955E-1,1.01029284E-1,6.7881274E-1,1.0348473E-1,-7.0727134E-1,4.2531118E-1,-2.1426968E-1,-7.1001214E-1,5.318671E-1,-1.0647424E-1,3.425507E-1,2.2579722E-1,-6.4026974E-2,-2.575904E-1,1.888388E-2,-4.224049E-2,2.4945775E-1,-2.6960295E-1,3.1622987E-2,6.790733E-1,6.8449244E-2,-1.8585934E-1,1.7126714E-1,2.075442E-2,-2.2582136E-1,-8.134724E-2,3.9165962E-1,4.6361487E-2,-2.8363436E-1,-1.8638264E-1,1.593675E-1,8.006017E-2,-1.537894E-1,1.03317946E-1,4.339269E-1,2.1385519E-1,-1.440397E-1,-2.55492E-1,2.5903106E-2,2.2708825E-3,3.5383716E-1,5.4213654E-2,-2.558854E-1,2.608045E-1,-2.131378E-2],"categories":[],"categories_nodes":[],"categories_segments":[],"categories_sizes":[],"default_left":[0,0,0,0,0,0,0,0,0,0,0,0,0,0,0,0,0,0,0,0,0,0,0,0,0,0,0,0,0,0,0,0,0,0,0,0,0,0,0,0,0,0,0,0,0,0,0,0,0,0,0,0,0,0,0,0,0,0,0,0,0,0,0,0,0,0,0,0,0,0,0,0,0,0,0,0,0,0,0,0,0,0,0,0,0,0,0],"id":15,"left_children":[1,3,5,7,9,11,13,-1,15,17,19,21,23,25,27,-1,-1,29,-1,31,33,35,37,39,41,43,45,47,49,51,-1,-1,-1,53,55,57,59,61,63,65,67,69,71,73,75,77,79,81,-1,83,85,-1,-1,-1,-1,-1,-1,-1,-1,-1,-1,-1,-1,-1,-1,-1,-1,-1,-1,-1,-1,-1,-1,-1,-1,-1,-1,-1,-1,-1,-1,-1,-1,-1,-1,-1,-1],"loss_changes":[3.6261349E0,3.2749004E0,4.097987E0,4.2651596E0,2.3996515E0,4.8806825E0,6.416498E0,0E0,3.003403E0,2.4732013E0,3.07654E0,4.8488846E0,3.4315872E0,7.006548E0,3.3859355E0,0E0,0E0,3.1165466E0,0E0,1.5565146E0,3.1600962E0,3.7399611E0,4.5161405E0,4.0902267E0,2.3341513E0,6.5037413E0,2.7810066E0,2.9343147E0,3.6676707E0,3.130118E0,0E0,0E0,0E0,8.6601377E-1,1.1938353E0,2.7310123E0,1.5937219E0,2.5577278E0,1.6020478E0,6.0802674E-1,2.862968E0,1.4707813E0,4.087988E0,5.1860013E0,7.971286E0,3.1488514E0,1.2305942E0,2.7975616E0,0E0,2.406765E0,6.7334545E-1,0E0,0E0,0E0,0E0,0E0,0E0,0E0,0E0,0E0,0E0,0E0,0E0,0E0,0E0,0E0,0E0,0E0,0E0,0E0,0E0,0E0,0E0,0E0,0E0,0E0,0E0,0E0,0E0,0E0,0E0,0E0,0E0,0E0,0E0,0E0,0E0],"parents":[2147483647,0,0,1,1,2,2,3,3,4,4,5,5,6,6,8,8,9,9,10,10,11,11,12,12,13,13,14,14,17,17,19,19,20,20,21,21,22,22,23,23,24,24,25,25,26,26,27,27,28,28,29,29,33,33,34,34,35,35,36,36,37,37,38,38,39,39,40,40,41,41,42,42,43,43,44,44,45,45,46,46,47,47,49,49,50,50],"right_children":[2,4,6,8,10,12,14,-1,16,18,20,22,24,26,28,-1,-1,30,-1,32,34,36,38,40,42,44,46,48,50,52,-1,-1,-1,54,56,58,60,62,64,66,68,70,72,74,76,78,80,82,-1,84,86,-1,-1,-1,-1,-1,-1,-1,-1,-1,-1,-1,-1,-1,-1,-1,-1,-1,-1,-1,-1,-1,-1,-1,-1,-1,-1,-1,-1,-1,-1,-1,-1,-1,-1,-1,-1],"split_conditions":[3.250155E-2,-3.0184346E-1,-1.7125694E-1,3E0,-3.0360797E-1,1.0787314E-2,7.154925E-2,-2.065255E-1,7.865558E-2,3.3429763E-1,-5.4432595E-1,-1.6601862E-1,-1.2080712E-1,-7.178336E-5,-2.9367981E-2,4.0845004E-1,-7.823957E-2,3.183709E2,-2.1489692E-1,-5.908178E-2,-1.4153361E-1,-6.865593E-2,-1.858664E-1,-2.621464E-1,-7.24378E-2,-8.829179E-2,-1.3363677E-1,-7.942012E-2,3.4E1,-1.7418814E-1,-1.9622739E-1,-1.0414458E-1,2.3431562E-1,-1.9528383E-1,1.6418378E-1,-6.0337983E-2,1.9054088E-1,2.1284318E-1,1.52659E-1,-1.6448335E-1,-1.7490624E-1,-4.9114227E-2,-1.7438743E-1,-5.254449E-2,-8.21073E-2,-2.30457E-1,-2.3960391E-2,-1.8374576E-1,-2.1426968E-1,1.491533E2,-4.9496304E-2,-1.0647424E-1,3.425507E-1,2.2579722E-1,-6.4026974E-2,-2.575904E-1,1.888388E-2,-4.224049E-2,2.4945775E-1,-2.6960295E-1,3.1622987E-2,6.790733E-1,6.8449244E-2,-1.8585934E-1,1.7126714E-1,2.075442E-2,-2.2582136E-1,-8.134724E-2,3.9165962E-1,4.6361487E-2,-2.8363436E-1,-1.8638264E-1,1.593675E-1,8.006017E-2,-1.537894E-1,1.03317946E-1,4.339269E-1,2.1385519E-1,-1.440397E-1,-2.55492E-1,2.5903106E-2,2.2708825E-3,3.5383716E-1,5.4213654E-2,-2.558854E-1,2.608045E-1,-2.131378E-2],"split_indices":[12,48,85,103,35,20,79,0,38,36,98,72,95,11,3,0,0,1,0,48,76,60,9,43,68,95,81,60,106,37,0,0,0,23,39,102,62,33,45,70,95,94,75,15,23,35,21,9,0,1,26,0,0,0,0,0,0,0,0,0,0,0,0,0,0,0,0,0,0,0,0,0,0,0,0,0,0,0,0,0,0,0,0,0,0,0,0],"split_type":[0,0,0,0,0,0,0,0,0,0,0,0,0,0,0,0,0,0,0,0,0,0,0,0,0,0,0,0,0,0,0,0,0,0,0,0,0,0,0,0,0,0,0,0,0,0,0,0,0,0,0,0,0,0,0,0,0,0,0,0,0,0,0,0,0,0,0,0,0,0,0,0,0,0,0,0,0,0,0,0,0,0,0,0,0,0,0],"sum_hessian":[2.2429463E2,4.193072E1,1.8236392E2,5.6389813E0,3.6291737E1,5.7103863E1,1.25260056E2,1.853827E0,3.785154E0,8.54113E0,2.7750608E1,2.263133E1,3.447253E1,9.659827E1,2.8661793E1,2.5069187E0,1.2782356E0,6.356178E0,2.1849525E0,3.1005852E0,2.4650023E1,1.7580349E1,5.0509825E0,7.074891E0,2.739764E1,8.060764E1,1.5990619E1,9.963343E0,1.8698448E1,4.8653293E0,1.4908489E0,1.4921411E0,1.608444E0,2.103004E0,2.2547018E1,1.0594536E1,6.985813E0,2.498049E0,2.5529335E0,3.4759872E0,3.5989041E0,1.5328393E1,1.2069247E1,4.8614677E1,3.199297E1,6.8917375E0,9.098881E0,7.9084125E0,2.0549304E0,1.6692719E1,2.005731E0,1.4845804E0,3.3807487E0,1.0213511E0,1.0816529E0,2.1186623E1,1.3603965E0,6.8979836E0,3.6965523E0,5.1152797E0,1.8705332E0,1.3176634E0,1.1803856E0,1.4171636E0,1.1357698E0,1.0027112E0,2.473276E0,1.3237312E0,2.275173E0,1.0395947E0,1.4288798E1,8.388326E0,3.680922E0,3.871682E1,9.897857E0,2.32935E1,8.699467E0,3.2631664E0,3.628571E0,7.636576E0,1.4623048E0,5.7392993E0,2.1691134E0,2.2717934E0,1.4420924E1,1.0026071E0,1.0031239E0],"tree_param":{"num_deleted":"0","num_feature":"108","num_nodes":"87","size_leaf_vector":"1"}},{"base_weights":[-6.2075704E-2,-2.1214879E-3,-3.3052492E-1,-4.610353E-1,4.7939472E-2,-5.9075856E-1,1.1735601E-2,-8.221994E-1,-9.471661E-2,9.1247074E-2,-4.6945277E-1,-6.7537814E-1,7.670499E-2,2.4477702E-1,-6.642559E-1,-4.155809E-2,-2.678966E-1,-2.157254E-1,1.9166408E-1,1.7546077E-1,-1.6664387E-1,-6.640056E-1,1.650241E-1,-8.6709577E-1,-2.2252652E-1,-4.0136936E-1,5.45328E-1,-1.4335417E-2,-2.4335305E-1,-1.375427E-1,5.051766E-1,-2.9670525E-1,2.6879874E-1,-4.921603E-1,1.8593809E-1,-2.733766E-1,-9.81155E-2,-6.471678E-2,-9.484957E-1,-6.791607E-1,5.7877666E-1,1.3481793E-1,-2.339731E-1,9.0158933E-1,-3.1875253E-1,-9.964145E-2,2.3691483E-1,1.5330802E-2,-2.2829293E-1,-9.72737E-2,1.06413215E-1,-2.2535306E-1,9.1766626E-2,-8.138085E-2,1.8792917E-1,1.8962784E-1,-1.6583113E-1,-2.9877362E-1,-6.924772E-2,-2.5441557E-1,-4.0832374E-2,-1.862533E-2,2.8312716E-1,-1.1456724E-1,3.81189E-1,8.681468E-2,-1.9998287E-1],"categories":[],"categories_nodes":[],"categories_segments":[],"categories_sizes":[],"default_left":[0,0,0,0,0,0,0,0,0,0,0,0,0,0,0,0,0,0,0,0,0,0,0,0,0,0,0,0,0,0,0,0,0,0,0,0,0,0,0,0,0,0,0,0,0,0,0,0,0,0,0,0,0,0,0,0,0,0,0,0,0,0,0,0,0,0,0],"id":16,"left_children":[1,3,5,7,9,11,13,15,17,19,21,23,-1,25,27,-1,-1,-1,29,31,33,35,-1,37,39,41,43,-1,-1,-1,45,47,49,51,53,-1,55,-1,57,59,61,-1,-1,63,65,-1,-1,-1,-1,-1,-1,-1,-1,-1,-1,-1,-1,-1,-1,-1,-1,-1,-1,-1,-1,-1,-1],"loss_changes":[3.4908476E0,4.1192236E0,3.5338693E0,2.2552645E0,3.6661594E0,1.7852783E0,3.0114622E0,2.997594E-1,1.9053754E0,3.2880673E0,2.8749325E0,1.6079187E0,0E0,2.9723969E0,4.0552855E-1,0E0,0E0,0E0,1.7738549E0,5.08631E0,4.389726E0,1.4606018E0,0E0,5.4977036E-1,3.1427758E0,1.9856598E0,3.3969738E0,0E0,0E0,0E0,1.5918579E0,3.1433911E0,4.9744005E0,4.3115845E0,3.9367597E0,0E0,1.839773E0,0E0,1.9048023E-1,3.6581373E-1,8.2293713E-1,0E0,0E0,3.996748E0,9.7302634E-1,0E0,0E0,0E0,0E0,0E0,0E0,0E0,0E0,0E0,0E0,0E0,0E0,0E0,0E0,0E0,0E0,0E0,0E0,0E0,0E0,0E0,0E0],"parents":[2147483647,0,0,1,1,2,2,3,3,4,4,5,5,6,6,7,7,8,8,9,9,10,10,11,11,13,13,14,14,18,18,19,19,20,20,21,21,23,23,24,24,25,25,26,26,30,30,31,31,32,32,33,33,34,34,36,36,38,38,39,39,40,40,43,43,44,44],"right_children":[2,4,6,8,10,12,14,16,18,20,22,24,-1,26,28,-1,-1,-1,30,32,34,36,-1,38,40,42,44,-1,-1,-1,46,48,50,52,54,-1,56,-1,58,60,62,-1,-1,64,66,-1,-1,-1,-1,-1,-1,-1,-1,-1,-1,-1,-1,-1,-1,-1,-1,-1,-1,-1,-1,-1,-1],"split_conditions":[2.4124233E-1,3.2672E-1,2.2385061E-1,1.8759473E-1,5.1598E0,-4.0453766E-2,4.2061388E-1,-1.7429115E-1,-1.1040962E-1,-1.5546857E-1,6.824406E-1,2.328179E-1,7.670499E-2,8.873542E-2,-3.21021E-2,-4.155809E-2,-2.678966E-1,-2.157254E-1,-3.5039328E-2,-4.7756708E-1,-1.7007324E-1,3.76943E-2,1.650241E-1,1.2E1,3.1088756E-2,-2.661834E-2,3.095283E2,-1.4335417E-2,-2.4335305E-1,-1.375427E-1,-1.5245414E-1,-7.924867E-2,-9.923917E-3,1.1661832E-1,-2.520219E-1,-2.733766E-1,-6.748119E-2,-6.471678E-2,2.381722E-1,-7.423347E-2,3.799288E-1,1.3481793E-1,-2.339731E-1,-3.008463E-1,-1.2080186E-1,-9.964145E-2,2.3691483E-1,1.5330802E-2,-2.2829293E-1,-9.72737E-2,1.06413215E-1,-2.2535306E-1,9.1766626E-2,-8.138085E-2,1.8792917E-1,1.8962784E-1,-1.6583113E-1,-2.9877362E-1,-6.924772E-2,-2.5441557E-1,-4.0832374E-2,-1.862533E-2,2.8312716E-1,-1.1456724E-1,3.81189E-1,8.681468E-2,-1.9998287E-1],"split_indices":[83,0,82,54,0,85,67,21,51,35,89,38,0,12,58,0,0,0,52,86,72,25,0,106,3,12,1,0,0,0,85,11,4,27,101,0,11,0,50,48,67,0,0,43,11,0,0,0,0,0,0,0,0,0,0,0,0,0,0,0,0,0,0,0,0,0,0],"split_type":[0,0,0,0,0,0,0,0,0,0,0,0,0,0,0,0,0,0,0,0,0,0,0,0,0,0,0,0,0,0,0,0,0,0,0,0,0,0,0,0,0,0,0,0,0,0,0,0,0,0,0,0,0,0,0,0,0,0,0,0,0,0,0,0,0,0,0],"sum_hessian":[2.1593831E2,1.7733992E2,3.859838E1,1.6635073E1,1.6070485E2,2.151424E1,1.708414E1,7.7498155E0,8.885257E0,1.4905228E2,1.1652575E1,1.9742647E1,1.7715946E0,1.3178784E1,3.9053566E0,1.0045838E0,6.7452316E0,2.3188195E0,6.566437E0,1.1260199E2,3.6450287E1,1.0078128E1,1.574447E0,1.3227819E1,6.5148273E0,4.077415E0,9.101369E0,1.0066704E0,2.8986864E0,1.9858792E0,4.580558E0,1.8225647E1,9.437634E1,1.8746742E1,1.7703545E1,6.5889616E0,3.4891655E0,1.8748857E0,1.1352934E1,4.247027E0,2.2678E0,1.1979276E0,2.8794875E0,6.413618E0,2.6877506E0,1.1193529E0,3.4612048E0,1.0928505E1,7.297141E0,1.1590911E1,8.278543E1,1.4197502E1,4.549239E0,8.87546E0,8.828085E0,1.1891066E0,2.300059E0,1.028566E1,1.0672739E0,2.8111215E0,1.4359057E0,1.1240327E0,1.1437672E0,1.4245118E0,4.9891067E0,1.0391592E0,1.6485913E0],"tree_param":{"num_deleted":"0","num_feature":"108","num_nodes":"67","size_leaf_vector":"1"}},{"base_weights":[-6.1655976E-2,-1.6822862E-2,-4.0769538E-1,-6.308576E-2,3.2071355E-1,-5.567098E-1,3.541441E-1,2.9222923E-3,-6.13196E-1,5.072385E-1,-2.2965337E-1,-6.595607E-1,1.1221635E-1,-1.5745081E-1,7.5581354E-1,-2.7129945E-1,1.0179292E-1,-7.3083013E-1,1.6110903E-1,9.3573105E-1,-2.2345935E-3,-1.2558879E-1,-8.277216E-1,4.3464378E-2,2.832647E-1,-3.4468788E-1,6.839265E-1,2.1225405E-1,-2.636652E-1,5.747686E-2,-8.150996E-1,1.2088609E0,-1.1352784E-1,4.367486E-1,-6.3890636E-1,-1.9829859E-1,2.4637869E-1,-9.0611297E-1,1.3135285E-2,-3.176873E-2,-1.9623312E-1,2.8854284E-1,1.7978014E-2,-2.3697948E-2,1.13642015E-1,2.1971376E-1,-1.1083496E-1,-2.7189508E-1,-4.7161847E-2,4.3868524E-1,-7.153229E-2,-1.7026326E-1,2.2598761E-1,-2.3919095E-1,-1.280964E-2,-7.552728E-2,1.7635448E-1,-3.3067677E-2,-2.9148853E-1],"categories":[],"categories_nodes":[],"categories_segments":[],"categories_sizes":[],"default_left":[0,0,0,0,0,0,0,0,0,0,0,0,0,0,0,0,0,0,0,0,0,0,0,0,0,0,0,0,0,0,0,0,0,0,0,0,0,0,0,0,0,0,0,0,0,0,0,0,0,0,0,0,0,0,0,0,0,0,0],"id":17,"left_children":[1,3,5,7,9,11,13,15,17,19,-1,21,-1,-1,23,25,27,29,-1,31,33,35,37,-1,-1,39,41,43,45,-1,47,49,-1,51,53,-1,55,57,-1,-1,-1,-1,-1,-1,-1,-1,-1,-1,-1,-1,-1,-1,-1,-1,-1,-1,-1,-1,-1],"loss_changes":[3.2724879E0,2.958698E0,2.944713E0,6.0415235E0,5.0173078E0,2.2217698E0,2.0103865E0,4.081082E0,2.8042479E0,4.3900914E0,0E0,1.5967731E0,0E0,0E0,2.7145267E-1,3.0322905E0,4.521303E0,1.4460735E0,0E0,4.377118E0,3.12425E0,1.3010424E0,1.0115309E0,0E0,0E0,2.7171087E0,4.9399388E-1,4.1770616E0,3.0226796E0,0E0,7.814293E-1,3.7522182E0,0E0,2.5318716E0,3.966465E-1,0E0,8.455248E-1,5.758438E-1,0E0,0E0,0E0,0E0,0E0,0E0,0E0,0E0,0E0,0E0,0E0,0E0,0E0,0E0,0E0,0E0,0E0,0E0,0E0,0E0,0E0],"parents":[2147483647,0,0,1,1,2,2,3,3,4,4,5,5,6,6,7,7,8,8,9,9,11,11,14,14,15,15,16,16,17,17,19,19,20,20,21,21,22,22,25,25,26,26,27,27,28,28,30,30,31,31,33,33,34,34,36,36,37,37],"right_children":[2,4,6,8,10,12,14,16,18,20,-1,22,-1,-1,24,26,28,30,-1,32,34,36,38,-1,-1,40,42,44,46,-1,48,50,-1,52,54,-1,56,58,-1,-1,-1,-1,-1,-1,-1,-1,-1,-1,-1,-1,-1,-1,-1,-1,-1,-1,-1,-1,-1],"split_conditions":[5.2227717E-2,7E0,4.0896352E-2,8.618E1,-4.1398085E-3,2.8483236E-1,1.2843923E-1,-7.3447585E-2,1.567935E-1,-2.121136E-1,-2.2965337E-1,1.0325766E-1,1.1221635E-1,-1.5745081E-1,9.420555E-2,3.360867E-1,-1.7669737E-1,-3.0476573E-1,1.6110903E-1,3.4279E0,-1.03114255E-1,-1.22950755E-1,-6.755573E-2,4.3464378E-2,2.832647E-1,3E0,2.414622E-1,-1.7125694E-1,-2.9996476E-1,5.747686E-2,-1.23271294E-1,2.5461996E-1,-1.1352784E-1,-2.6317042E-1,8.849374E-2,-1.9829859E-1,-1.2979993E-1,-2.937007E-1,1.3135285E-2,-3.176873E-2,-1.9623312E-1,2.8854284E-1,1.7978014E-2,-2.3697948E-2,1.13642015E-1,2.1971376E-1,-1.1083496E-1,-2.7189508E-1,-4.7161847E-2,4.3868524E-1,-7.153229E-2,-1.7026326E-1,2.2598761E-1,-2.3919095E-1,-1.280964E-2,-7.552728E-2,1.7635448E-1,-3.3067677E-2,-2.9148853E-1],"split_indices":[10,103,102,2,26,62,94,42,88,31,0,54,0,0,84,99,43,65,0,0,95,37,9,0,0,107,29,85,75,0,70,28,0,18,20,0,85,35,0,0,0,0,0,0,0,0,0,0,0,0,0,0,0,0,0,0,0,0,0],"split_type":[0,0,0,0,0,0,0,0,0,0,0,0,0,0,0,0,0,0,0,0,0,0,0,0,0,0,0,0,0,0,0,0,0,0,0,0,0,0,0,0,0,0,0,0,0,0,0,0,0,0,0,0,0,0,0,0,0,0,0],"sum_hessian":[2.1037949E2,1.8717728E2,2.3202206E1,1.6533015E2,2.1847128E1,1.9631563E1,3.5706427E0,1.4850557E2,1.6824581E1,1.910028E1,2.7468464E0,1.7940489E1,1.691074E0,1.0237395E0,2.5469031E0,3.8892273E1,1.096133E2,1.559436E1,1.2302219E0,9.920216E0,9.180066E0,4.715117E0,1.3225372E1,1.017253E0,1.5296502E0,3.6710983E1,2.1812885E0,8.44939E1,2.5119398E1,1.1987889E0,1.4395571E1,8.279548E0,1.640668E0,5.619471E0,3.5605948E0,1.6143757E0,3.1007414E0,1.2097501E1,1.1278713E0,2.1477943E1,1.5233041E1,1.1346421E0,1.0466464E0,3.093108E1,5.356282E1,1.842983E0,2.3276415E1,1.2311034E1,2.084537E0,7.0370116E0,1.2425356E0,1.156696E0,4.462775E0,2.5467093E0,1.0138855E0,1.3679285E0,1.7328129E0,1.1241125E0,1.0973388E1],"tree_param":{"num_deleted":"0","num_feature":"108","num_nodes":"59","size_leaf_vector":"1"}},{"base_weights":[-5.4171003E-2,-3.636263E-1,-1.119782E-2,-5.3905547E-1,-9.36195E-3,-2.2752027E-1,1.2326631E-2,-7.510445E-1,1.14499174E-1,3.7226018E-1,-4.8069787E-1,6.1011845E-1,-2.3148885E-2,-8.529329E-2,-8.8764465E-1,-1.1285678E-1,4.3702617E-1,-1.1406359E-1,6.599698E-1,8.045326E-2,-2.2908483E-1,-1.4076188E-1,8.9029926E-1,2.0334534E-1,-1.1104921E-1,-1.6410649E-1,1.1179749E-1,-2.817983E-1,-6.2848896E-2,-4.9690157E-3,2.1017389E-1,-1.9344868E-2,9.293168E-1,-1.7231438E-2,1.171114E0,-4.7731057E-1,3.0530658E-1,-2.6336467E-1,-6.4478226E-2,3.364577E-1,8.243541E-2,4.2588645E-1,2.035375E-2,-2.3325917E-1,1.7136267E-1,1.1134361E-1,-2.155152E-1,4.6187495E-3,-1.5738761E-1],"categories":[],"categories_nodes":[],"categories_segments":[],"categories_sizes":[],"default_left":[0,0,0,0,0,0,0,0,0,0,0,0,0,0,0,0,0,0,0,0,0,0,0,0,0,0,0,0,0,0,0,0,0,0,0,0,0,0,0,0,0,0,0,0,0,0,0,0,0],"id":18,"left_children":[1,3,5,7,9,-1,11,13,15,17,19,21,23,25,27,-1,29,-1,31,-1,-1,-1,33,35,37,-1,-1,-1,-1,-1,-1,-1,39,-1,41,43,45,-1,47,-1,-1,-1,-1,-1,-1,-1,-1,-1,-1],"loss_changes":[2.729682E0,1.5508075E0,3.20033E0,2.4032764E0,1.8533502E0,0E0,3.767344E0,1.0848427E0,9.500352E-1,1.4865754E0,1.1796674E0,3.4269674E0,3.367867E0,8.9718324E-1,1.706152E-1,0E0,4.2498344E-1,0E0,9.3691146E-1,0E0,0E0,0E0,2.2616587E0,3.4305863E0,4.28948E0,0E0,0E0,0E0,0E0,0E0,0E0,0E0,1.1216402E-1,0E0,1.6604013E0,2.5080707E0,3.0822165E0,0E0,4.2645054E0,0E0,0E0,0E0,0E0,0E0,0E0,0E0,0E0,0E0,0E0],"parents":[2147483647,0,0,1,1,2,2,3,3,4,4,6,6,7,7,8,8,9,9,10,10,11,11,12,12,13,13,14,14,16,16,18,18,22,22,23,23,24,24,32,32,34,34,35,35,36,36,38,38],"right_children":[2,4,6,8,10,-1,12,14,16,18,20,22,24,26,28,-1,30,-1,32,-1,-1,-1,34,36,38,-1,-1,-1,-1,-1,-1,-1,40,-1,42,44,46,-1,48,-1,-1,-1,-1,-1,-1,-1,-1,-1,-1],"split_conditions":[-1.8649071E-1,1.705181E-1,1.221644E2,-8.5579045E-2,1.1820654E-1,-2.2752027E-1,1E1,-3.0841115E-1,-2.1449153E-1,-2.8431043E-1,-9.777584E-2,-1.544459E-1,-2.1465483E-1,-3.517247E-2,2.1057141E-1,-1.1285678E-1,2.8927815E-1,-1.1406359E-1,3E0,8.045326E-2,-2.2908483E-1,-1.4076188E-1,3.7602223E-2,-6.175933E-2,-2.0078485E-1,-1.6410649E-1,1.1179749E-1,-2.817983E-1,-6.2848896E-2,-4.9690157E-3,2.1017389E-1,-1.9344868E-2,-4.9027424E-2,-1.7231438E-2,1.99902E0,1.17821336E-1,-1.1795527E-1,-2.6336467E-1,-3.5277033E-1,3.364577E-1,8.243541E-2,4.2588645E-1,2.035375E-2,-2.3325917E-1,1.7136267E-1,1.1134361E-1,-2.155152E-1,4.6187495E-3,-1.5738761E-1],"split_indices":[95,57,1,18,62,0,106,35,32,92,24,21,39,63,58,0,87,0,103,0,0,0,63,27,39,0,0,0,0,0,0,0,71,0,0,88,9,0,98,0,0,0,0,0,0,0,0,0,0],"split_type":[0,0,0,0,0,0,0,0,0,0,0,0,0,0,0,0,0,0,0,0,0,0,0,0,0,0,0,0,0,0,0,0,0,0,0,0,0,0,0,0,0,0,0,0,0,0,0,0,0],"sum_hessian":[2.0457198E2,2.4034536E1,1.8053743E2,1.5725677E1,8.308861E0,4.5569515E0,1.7598048E2,1.1761508E1,3.964168E0,4.707547E0,3.6013136E0,8.950968E0,1.6702951E2,2.2789485E0,9.48256E0,1.5062294E0,2.4579387E0,1.2131575E0,3.4943895E0,1.0017682E0,2.5995455E0,1.7056671E0,7.2453003E0,4.633192E1,1.2069759E2,1.0379459E0,1.2410027E0,8.45319E0,1.0293702E0,1.2477124E0,1.2102263E0,1.1532178E0,2.3411717E0,1.8379062E0,5.4073944E0,5.5566273E0,4.0775295E1,5.8884573E0,1.14809135E2,1.2582108E0,1.0829611E0,4.179283E0,1.2281114E0,4.520681E0,1.0359464E0,3.8910225E1,1.8650697E0,9.86514E1,1.6157736E1],"tree_param":{"num_deleted":"0","num_feature":"108","num_nodes":"49","size_leaf_vector":"1"}},{"base_weights":[-4.7962155E-2,-1.5236692E-2,-4.1034275E-1,-9.43317E-2,1.8824092E-1,-5.2750754E-1,1.0205464E-1,1.6674222E-2,-2.9801512E-1,-4.94577E-1,2.7441743E-1,-7.393141E-1,1.0945862E-1,1.2369665E-1,-2.4586286E-1,-4.1792172E-1,1.7665644E-1,8.688327E-2,-2.4500479E-1,3.5595062E-1,-5.8035195E-1,-1.1051137E-3,-2.743524E-1,-1.7343043E-1,5.5688536E-1,-1.08341575E-1,3.664714E-1,-7.648271E-1,-4.295619E-3,-5.770347E-1,1.9405074E-2,-1.7737705E-1,4.4456726E-1,-1.0258209E-1,5.4647243E-1,-2.2598188E-1,2.4039457E-3,-9.66265E-2,9.543965E-2,1.7008746E-2,2.5302875E-1,-9.6700884E-2,1.2620886E-1,-1.0795889E-1,1.6994566E-1,-2.7310646E-1,3.0353662E-2,1.7969932E-1,-7.2491124E-2,-5.6690674E-2,-2.4052617E-1,1.9653405E-1,-1.2074777E-1,2.2985893E-1,-5.254971E-2,-1.4213523E-1,1.1707499E-1,4.71296E-1,1.21140875E-1],"categories":[],"categories_nodes":[],"categories_segments":[],"categories_sizes":[],"default_left":[0,0,0,0,0,0,0,0,0,0,0,0,0,0,0,0,0,0,0,0,0,0,0,0,0,0,0,0,0,0,0,0,0,0,0,0,0,0,0,0,0,0,0,0,0,0,0,0,0,0,0,0,0,0,0,0,0,0,0],"id":19,"left_children":[1,3,5,7,9,11,-1,13,15,17,19,21,23,25,27,29,31,-1,-1,33,35,37,-1,-1,39,41,43,45,47,49,51,-1,53,55,57,-1,-1,-1,-1,-1,-1,-1,-1,-1,-1,-1,-1,-1,-1,-1,-1,-1,-1,-1,-1,-1,-1,-1,-1],"loss_changes":[2.375944E0,2.9996018E0,1.6391144E0,3.0365615E0,3.2069955E0,2.0708976E0,0E0,2.4954386E0,2.7688098E0,1.8040946E0,3.481306E0,1.4472456E0,1.7222238E0,3.588138E0,3.223768E0,2.6622329E0,2.371978E0,0E0,0E0,3.8576918E0,4.6101284E-1,4.2514998E-1,0E0,0E0,4.2039585E-1,3.8692162E0,4.7090693E0,1.1218257E0,2.8038225E0,2.2873945E0,3.249043E0,0E0,1.7628942E0,2.6757555E0,3.8823233E0,0E0,0E0,0E0,0E0,0E0,0E0,0E0,0E0,0E0,0E0,0E0,0E0,0E0,0E0,0E0,0E0,0E0,0E0,0E0,0E0,0E0,0E0,0E0,0E0],"parents":[2147483647,0,0,1,1,2,2,3,3,4,4,5,5,7,7,8,8,9,9,10,10,11,11,12,12,13,13,14,14,15,15,16,16,19,19,20,20,21,21,24,24,25,25,26,26,27,27,28,28,29,29,30,30,32,32,33,33,34,34],"right_children":[2,4,6,8,10,12,-1,14,16,18,20,22,24,26,28,30,32,-1,-1,34,36,38,-1,-1,40,42,44,46,48,50,52,-1,54,56,58,-1,-1,-1,-1,-1,-1,-1,-1,-1,-1,-1,-1,-1,-1,-1,-1,-1,-1,-1,-1,-1,-1,-1,-1],"split_conditions":[5.4073058E-2,-4.102457E-2,-7.870477E-2,-2.0441374E-1,-1.6932936E-1,6.823328E-2,1.0205464E-1,-4.112859E-2,5.280159E-4,-1.5250893E-1,4.62E0,-3.8028663E-1,-1.11477435E-1,-9.4336756E-2,-1.682184E-1,6.8858387E-3,-7.156358E-2,8.688327E-2,-2.4500479E-1,-2.4896781E-1,2.3106425E-1,5.615295E-1,-2.743524E-1,-1.7343043E-1,1.5638953E-1,1.729917E-1,-9.9163055E-2,-9.4543055E-2,-1.9959362E-1,5.432603E-2,2.1195622E-2,-1.7737705E-1,-1.04978174E-1,-5.5012304E-2,-1.17605375E-2,-2.2598188E-1,2.4039457E-3,-9.66265E-2,9.543965E-2,1.7008746E-2,2.5302875E-1,-9.6700884E-2,1.2620886E-1,-1.0795889E-1,1.6994566E-1,-2.7310646E-1,3.0353662E-2,1.7969932E-1,-7.2491124E-2,-5.6690674E-2,-2.4052617E-1,1.9653405E-1,-1.2074777E-1,2.2985893E-1,-5.254971E-2,-1.4213523E-1,1.1707499E-1,4.71296E-1,1.21140875E-1],"split_indices":[26,56,6,43,55,25,0,22,76,11,0,18,64,48,72,91,13,0,0,92,24,89,0,0,78,57,66,31,59,24,91,0,8,15,20,0,0,0,0,0,0,0,0,0,0,0,0,0,0,0,0,0,0,0,0,0,0,0,0],"split_type":[0,0,0,0,0,0,0,0,0,0,0,0,0,0,0,0,0,0,0,0,0,0,0,0,0,0,0,0,0,0,0,0,0,0,0,0,0,0,0,0,0,0,0,0,0,0,0,0,0,0,0,0,0,0,0,0,0,0,0],"sum_hessian":[1.9987541E2,1.8427606E2,1.5599352E1,1.3308154E2,5.1194523E1,1.3749984E1,1.849368E0,8.6731606E1,4.6349934E1,5.205973E0,4.598855E1,1.0198168E1,3.551816E0,6.1990295E1,2.474131E1,3.709814E1,9.251793E0,1.5451304E0,3.660843E0,4.251662E1,3.4719276E0,2.1490579E0,8.049109E0,1.2850394E0,2.2667766E0,3.1979143E1,3.0011152E1,7.170552E0,1.7570759E1,2.6967186E1,1.0130955E1,2.0807679E0,7.171025E0,1.2615711E1,2.9900911E1,2.4666855E0,1.0052422E0,1.0671453E0,1.0819124E0,1.2618893E0,1.0048872E0,2.304728E1,8.931865E0,6.3073516E0,2.37038E1,6.095093E0,1.0754589E0,4.5306396E0,1.3040119E1,1.0564442E1,1.6402744E1,3.8209028E0,6.3100514E0,4.5653596E0,2.605665E0,7.2178574E0,5.397854E0,2.4311793E0,2.7469732E1],"tree_param":{"num_deleted":"0","num_feature":"108","num_nodes":"59","size_leaf_vector":"1"}},{"base_weights":[-4.4315197E-2,-9.150887E-3,-3.915106E-1,-3.0519408E-1,4.5551922E-2,-6.852853E-1,-1.6600028E-2,5.557876E-1,-4.0662134E-1,-2.365805E-1,6.6262156E-2,-8.1154156E-1,3.1219477E-2,-4.1011906E-1,5.353716E-1,2.19091E-2,2.3312828E-1,-5.677427E-1,2.965585E-1,2.5880817E-1,-4.620161E-2,5.0777424E-2,-2.879803E-1,-6.844837E-1,9.7627595E-2,-3.820742E-2,2.8235748E-1,-7.3885965E-1,-3.188236E-4,5.713748E-1,-1.2032446E-1,4.7921248E-2,6.492599E-1,1.0441997E-1,-3.563869E-1,-4.9602702E-2,-2.3589629E-1,-2.504842E-1,7.833346E-2,1.6161957E-1,-1.5778306E-1,7.0314673E-3,2.7329352E-1,-5.5128038E-2,1.3197346E-1,2.7170625E-1,-2.1174036E-2,-1.1291636E-1,8.42503E-2,-1.3989331E-1,1.2964976E-1],"categories":[],"categories_nodes":[],"categories_segments":[],"categories_sizes":[],"default_left":[0,0,0,0,0,0,0,0,0,0,0,0,0,0,0,0,0,0,0,0,0,0,0,0,0,0,0,0,0,0,0,0,0,0,0,0,0,0,0,0,0,0,0,0,0,0,0,0,0,0,0],"id":20,"left_children":[1,3,5,7,9,11,13,15,17,-1,19,21,-1,23,25,-1,-1,27,29,31,33,-1,-1,35,-1,-1,-1,37,39,41,-1,43,45,47,49,-1,-1,-1,-1,-1,-1,-1,-1,-1,-1,-1,-1,-1,-1,-1,-1],"loss_changes":[2.3837798E0,2.9059544E0,1.9666691E0,2.669579E0,2.6712496E0,1.0854902E0,2.1560044E0,3.0345035E-1,3.0699687E0,0E0,3.2352502E0,1.4393415E0,0E0,1.3873296E0,1.2344571E0,0E0,0E0,2.0561929E0,1.2704414E0,4.5006304E0,4.4670315E0,0E0,0E0,1.0922742E-1,0E0,0E0,0E0,1.7814827E0,1.9571934E0,7.8042424E-1,0E0,3.424254E0,3.6119156E0,5.5848904E0,2.9075582E0,0E0,0E0,0E0,0E0,0E0,0E0,0E0,0E0,0E0,0E0,0E0,0E0,0E0,0E0,0E0,0E0],"parents":[2147483647,0,0,1,1,2,2,3,3,4,4,5,5,6,6,7,7,8,8,10,10,11,11,13,13,14,14,17,17,18,18,19,19,20,20,23,23,27,27,28,28,29,29,31,31,32,32,33,33,34,34],"right_children":[2,4,6,8,10,12,14,16,18,-1,20,22,-1,24,26,-1,-1,28,30,32,34,-1,-1,36,-1,-1,-1,38,40,42,-1,44,46,48,50,-1,-1,-1,-1,-1,-1,-1,-1,-1,-1,-1,-1,-1,-1,-1,-1],"split_conditions":[1.3949437E-1,3E0,7.960306E-2,-3.7863356E-1,-3.7863356E-1,4.4875214E-1,8.878194E-2,4.7722835E-2,3.2022756E-1,-2.365805E-1,-1.5187672E-1,8.041906E-2,3.1219477E-2,2.465607E-1,3.0220938E-1,2.19091E-2,2.3312828E-1,-9.3081824E-2,-8.6757965E-2,-1.7395611E-1,2.2E1,5.0777424E-2,-2.879803E-1,3.1603742E-1,9.7627595E-2,-3.820742E-2,2.8235748E-1,-7.700522E-2,-1.1525067E-1,-4.7030862E-2,-1.2032446E-1,2.5034325E-2,2.657171E-1,-9.133862E-2,3.527437E-1,-4.9602702E-2,-2.3589629E-1,-2.504842E-1,7.833346E-2,1.6161957E-1,-1.5778306E-1,7.0314673E-3,2.7329352E-1,-5.5128038E-2,1.3197346E-1,2.7170625E-1,-2.1174036E-2,-1.1291636E-1,8.42503E-2,-1.3989331E-1,1.2964976E-1],"split_indices":[53,105,63,14,14,5,77,68,69,0,48,17,0,34,46,0,0,14,81,48,106,0,0,5,0,0,0,43,60,42,0,13,73,102,82,0,0,0,0,0,0,0,0,0,0,0,0,0,0,0,0],"split_type":[0,0,0,0,0,0,0,0,0,0,0,0,0,0,0,0,0,0,0,0,0,0,0,0,0,0,0,0,0,0,0,0,0,0,0,0,0,0,0,0,0,0,0,0,0,0,0,0,0,0,0],"sum_hessian":[1.9454303E2,1.7758354E2,1.6959488E1,2.6981995E1,1.5060155E2,9.044489E0,7.9149976E0,2.3714962E0,2.4610498E1,2.7502656E0,1.4785129E2,7.773075E0,1.2714144E0,4.7707577E0,3.1442404E0,1.1634806E0,1.2080156E0,2.017936E1,4.43114E0,5.4036194E1,9.381509E1,1.0030198E0,6.770055E0,3.525233E0,1.2455246E0,1.4547359E0,1.6895044E0,1.5271754E1,4.907604E0,3.3087409E0,1.1223993E0,3.5814926E1,1.8221268E1,6.3596764E1,3.0218323E1,1.0083752E0,2.5168579E0,1.4083495E1,1.18826E0,2.4105477E0,2.4970567E0,1.6750815E0,1.6336594E0,2.2844286E1,1.2970641E1,1.32448845E1,4.976383E0,1.6766642E1,4.683012E1,2.6879917E1,3.3384058E0],"tree_param":{"num_deleted":"0","num_feature":"108","num_nodes":"51","size_leaf_vector":"1"}},{"base_weights":[-3.866254E-2,-3.0835742E-1,5.196955E-5,-6.1270356E-1,5.0841656E-2,-3.2039323E-1,3.8605493E-2,7.937557E-2,-7.71196E-1,6.4145595E-1,-4.5412174E-1,-1.4094993E-1,-2.4691534E-1,1.3701805E-1,-1.1774358E-1,-2.7244923E-1,-2.028175E-1,1.0548342E0,-4.8178673E-2,-6.7947483E-1,3.3575136E-2,-5.692912E-1,2.038026E-1,-2.730532E-1,2.1394266E-1,5.367945E-1,-2.1497779E-1,-1.6022004E-1,5.240606E-2,3.1997323E-2,4.912587E-1,-2.3617238E-1,-3.5146024E-2,-2.2594279E-1,2.1056032E-2,-2.709558E-1,7.440798E-1,-6.227184E-1,1.4294247E-1,8.873597E-1,1.4830416E-1,-8.214636E-2,7.978885E-1,-3.9460084E-1,1.6867273E-1,-1.741443E-1,1.1199503E-1,2.4079748E-4,2.9723325E-1,2.4079604E-2,-2.6881394E-1,-1.9792847E-1,1.4869797E-1,-2.2427456E-2,3.44005E-1,1.7039524E-2,2.0328072E-1,-5.322395E-2,3.134718E-1,9.312455E-2,-1.4956288E-1,1.8799654E-1,-5.9070703E-2],"categories":[],"categories_nodes":[],"categories_segments":[],"categories_sizes":[],"default_left":[0,0,0,0,0,0,0,0,0,0,0,0,0,0,0,0,0,0,0,0,0,0,0,0,0,0,0,0,0,0,0,0,0,0,0,0,0,0,0,0,0,0,0,0,0,0,0,0,0,0,0,0,0,0,0,0,0,0,0,0,0,0,0],"id":21,"left_children":[1,3,5,7,9,11,13,-1,15,17,19,21,-1,23,25,-1,27,29,-1,31,-1,33,35,37,39,41,43,-1,-1,-1,-1,-1,-1,-1,-1,45,47,49,51,53,55,-1,57,59,61,-1,-1,-1,-1,-1,-1,-1,-1,-1,-1,-1,-1,-1,-1,-1,-1,-1,-1],"loss_changes":[1.9878607E0,2.6438425E0,2.0815535E0,2.013576E0,3.8359225E0,1.5160699E0,2.3301845E0,0E0,6.9381046E-1,2.1230695E0,9.680209E-1,2.2632856E0,0E0,2.9844716E0,3.8470387E0,0E0,5.281615E-1,2.0466886E0,0E0,2.1942806E-1,0E0,8.462062E-1,2.4569924E0,2.2841873E0,3.3456907E0,1.8840585E0,3.6337347E0,0E0,0E0,0E0,0E0,0E0,0E0,0E0,0E0,1.2962103E0,8.022671E-1,1.6832612E0,2.5085967E0,1.7788692E0,3.491461E0,0E0,1.6809618E0,2.7603474E0,3.0044053E0,0E0,0E0,0E0,0E0,0E0,0E0,0E0,0E0,0E0,0E0,0E0,0E0,0E0,0E0,0E0,0E0,0E0,0E0],"parents":[2147483647,0,0,1,1,2,2,3,3,4,4,5,5,6,6,8,8,9,9,10,10,11,11,13,13,14,14,16,16,17,17,19,19,21,21,22,22,23,23,24,24,25,25,26,26,35,35,36,36,37,37,38,38,39,39,40,40,42,42,43,43,44,44],"right_children":[2,4,6,8,10,12,14,-1,16,18,20,22,-1,24,26,-1,28,30,-1,32,-1,34,36,38,40,42,44,-1,-1,-1,-1,-1,-1,-1,-1,46,48,50,52,54,56,-1,58,60,62,-1,-1,-1,-1,-1,-1,-1,-1,-1,-1,-1,-1,-1,-1,-1,-1,-1,-1],"split_conditions":[1.802435E2,2.1523288E-2,-2.2082484E-1,5.5653565E-2,-4.24956E-1,-6.865593E-2,3.5134205E-1,7.937557E-2,-1.18693225E-1,1.964673E-1,-1.2248296E-1,-2.2623259E-1,-2.4691534E-1,2.230677E2,2.026348E2,-2.7244923E-1,4.661E1,-2.2053221E-1,-4.8178673E-2,2.881344E-1,3.3575136E-2,-6.1020773E-2,1.5667424E-1,-7.875662E-3,2.292313E2,3.2750033E-2,-6.8900086E-2,-1.6022004E-1,5.240606E-2,3.1997323E-2,4.912587E-1,-2.3617238E-1,-3.5146024E-2,-2.2594279E-1,2.1056032E-2,-2.2823958E-1,5.3884365E-2,1.2629299E-1,-2.0223415E-1,2.5356042E-1,3.3612192E-1,-8.214636E-2,-2.292659E-1,-1.9959362E-1,1.9292656E-1,-1.741443E-1,1.1199503E-1,2.4079748E-4,2.9723325E-1,2.4079604E-2,-2.6881394E-1,-1.9792847E-1,1.4869797E-1,-2.2427456E-2,3.44005E-1,1.7039524E-2,2.0328072E-1,-5.322395E-2,3.134718E-1,9.312455E-2,-1.4956288E-1,1.8799654E-1,-5.9070703E-2],"split_indices":[1,3,59,17,98,60,5,0,31,34,48,9,0,1,1,0,2,92,0,7,0,37,57,90,1,63,48,0,0,0,0,0,0,0,0,59,4,83,18,73,5,0,9,59,34,0,0,0,0,0,0,0,0,0,0,0,0,0,0,0,0,0,0],"split_type":[0,0,0,0,0,0,0,0,0,0,0,0,0,0,0,0,0,0,0,0,0,0,0,0,0,0,0,0,0,0,0,0,0,0,0,0,0,0,0,0,0,0,0,0,0,0,0,0,0,0,0,0,0,0,0,0,0,0,0,0,0,0,0],"sum_hessian":[1.8938641E2,2.2899302E1,1.6648712E2,1.2014108E1,1.0885194E1,1.7094282E1,1.4939284E2,1.7359387E0,1.0278169E1,4.8925166E0,5.9926767E0,1.3540782E1,3.5535E0,9.175935E1,5.7633484E1,7.80057E0,2.477599E0,3.0205507E0,1.8719655E0,4.142893E0,1.8497841E0,5.7479186E0,7.792863E0,1.4091339E1,7.7668015E1,6.869615E0,5.0763866E1,1.0987483E0,1.3788506E0,1.6000116E0,1.4205393E0,3.1409578E0,1.001935E0,4.3263397E0,1.421579E0,4.4132714E0,3.3795915E0,7.3860555E0,6.7052836E0,5.7861557E0,7.188186E1,1.6617264E0,5.2078886E0,3.455627E1,1.6207596E1,3.047964E0,1.3653075E0,1.0921868E0,2.2874048E0,2.2655451E0,5.12051E0,1.781191E0,4.924093E0,1.37956E0,4.4065957E0,6.223065E1,9.651206E0,1.109402E0,4.098487E0,4.1848607E0,3.037141E1,6.877496E0,9.330101E0],"tree_param":{"num_deleted":"0","num_feature":"108","num_nodes":"63","size_leaf_vector":"1"}},{"base_weights":[-3.3741005E-2,2.5437286E-2,-2.2602357E-1,-2.8664723E-1,7.5670786E-2,-4.462651E-1,1.1556381E-1,-5.5766124E-1,2.7830526E-1,2.6679367E-2,4.76791E-1,-6.2954836E-2,-6.9962215E-1,3.6773765E-1,-2.4375631E-1,-7.4686766E-1,1.7887886E-1,6.523327E-1,-3.459412E-1,1.0422181E-1,-2.574022E-1,7.6178676E-1,-3.4371266E-1,-4.2299214E-1,2.9069462E-1,-1.3100092E-2,-8.4616566E-1,-4.6117747E-1,6.0553855E-1,-8.521503E-1,-4.9182266E-2,2.1762922E-1,-1.335824E-1,9.8024005E-1,-6.3963346E-2,-1.8328647E-1,3.9372895E-2,1.6972141E-1,-3.7349516E-1,-7.4108046E-1,-8.1079975E-2,3.6910343E-1,4.3401042E-1,9.951413E-2,-2.1348159E-1,-2.3707378E-1,1.316028E-1,-5.972234E-2,2.7293095E-1,1.0806756E-1,-1.5555146E-1,-2.8110424E-1,-4.225198E-3,-2.0228994E-1,1.4532177E-2,-1.0799403E-1,7.623743E-1,-4.6544485E-2,-2.7601656E-1,3.665551E-1,8.877333E-2,-1.8559945E-1,6.354604E-2,9.57447E-2,-2.0043291E-1,-2.5809157E-1,-2.2301663E-2,-1.01467304E-1,1.100696E-1,-6.9986045E-2,2.5952184E-1,-1.1808004E-1,1.9120409E-1,-1.5413249E-1,1.2815803E-1,2.717686E-1,-8.7384336E-2],"categories":[],"categories_nodes":[],"categories_segments":[],"categories_sizes":[],"default_left":[0,0,0,0,0,0,0,0,0,0,0,0,0,0,0,0,0,0,0,0,0,0,0,0,0,0,0,0,0,0,0,0,0,0,0,0,0,0,0,0,0,0,0,0,0,0,0,0,0,0,0,0,0,0,0,0,0,0,0,0,0,0,0,0,0,0,0,0,0,0,0,0,0,0,0,0,0],"id":22,"left_children":[1,3,5,7,9,11,13,15,17,19,21,23,25,27,-1,29,31,33,35,37,39,41,43,45,47,49,51,53,55,57,-1,-1,-1,59,-1,-1,-1,61,63,65,67,69,-1,-1,-1,-1,71,73,-1,-1,-1,-1,-1,-1,-1,-1,75,-1,-1,-1,-1,