{"learner":{"attributes":{"scikit_learn":"{\"_estimator_type\": \"classifier\"}"},"feature_names":["LogP","MW","PSA","mol2vec_0","mol2vec_1","mol2vec_10","mol2vec_11","mol2vec_12","mol2vec_13","mol2vec_14","mol2vec_15","mol2vec_16","mol2vec_17","mol2vec_18","mol2vec_19","mol2vec_2","mol2vec_20","mol2vec_21","mol2vec_22","mol2vec_23","mol2vec_24","mol2vec_25","mol2vec_26","mol2vec_27","mol2vec_28","mol2vec_29","mol2vec_3","mol2vec_30","mol2vec_31","mol2vec_32","mol2vec_33","mol2vec_34","mol2vec_35","mol2vec_36","mol2vec_37","mol2vec_38","mol2vec_39","mol2vec_4","mol2vec_40","mol2vec_41","mol2vec_42","mol2vec_43","mol2vec_44","mol2vec_45","mol2vec_46","mol2vec_47","mol2vec_48","mol2vec_49","mol2vec_5","mol2vec_50","mol2vec_51","mol2vec_52","mol2vec_53","mol2vec_54","mol2vec_55","mol2vec_56","mol2vec_57","mol2vec_58","mol2vec_59","mol2vec_6","mol2vec_60","mol2vec_61","mol2vec_62","mol2vec_63","mol2vec_64","mol2vec_65","mol2vec_66","mol2vec_67","mol2vec_68","mol2vec_69","mol2vec_7","mol2vec_70","mol2vec_71","mol2vec_72","mol2vec_73","mol2vec_74","mol2vec_75","mol2vec_76","mol2vec_77","mol2vec_78","mol2vec_79","mol2vec_8","mol2vec_80","mol2vec_81","mol2vec_82","mol2vec_83","mol2vec_84","mol2vec_85","mol2vec_86","mol2vec_87","mol2vec_88","mol2vec_89","mol2vec_9","mol2vec_90","mol2vec_91","mol2vec_92","mol2vec_93","mol2vec_94","mol2vec_95","mol2vec_96","mol2vec_97","mol2vec_98","mol2vec_99","num_h_acceptors","num_h_donors","num_heteroatoms","num_of_heavy_atoms","num_rot_bonds"],"feature_types":["float","float","float","float","float","float","float","float","float","float","float","float","float","float","float","float","float","float","float","float","float","float","float","float","float","float","float","float","float","float","float","float","float","float","float","float","float","float","float","float","float","float","float","float","float","float","float","float","float","float","float","float","float","float","float","float","float","float","float","float","float","float","float","float","float","float","float","float","float","float","float","float","float","float","float","float","float","float","float","float","float","float","float","float","float","float","float","float","float","float","float","float","float","float","float","float","float","float","float","float","float","float","float","float","float","float","float","float"],"gradient_booster":{"model":{"gbtree_model_param":{"num_parallel_tree":"1","num_trees":"100"},"iteration_indptr":[0,1,2,3,4,5,6,7,8,9,10,11,12,13,14,15,16,17,18,19,20,21,22,23,24,25,26,27,28,29,30,31,32,33,34,35,36,37,38,39,40,41,42,43,44,45,46,47,48,49,50,51,52,53,54,55,56,57,58,59,60,61,62,63,64,65,66,67,68,69,70,71,72,73,74,75,76,77,78,79,80,81,82,83,84,85,86,87,88,89,90,91,92,93,94,95,96,97,98,99,100],"tree_info":[0,0,0,0,0,0,0,0,0,0,0,0,0,0,0,0,0,0,0,0,0,0,0,0,0,0,0,0,0,0,0,0,0,0,0,0,0,0,0,0,0,0,0,0,0,0,0,0,0,0,0,0,0,0,0,0,0,0,0,0,0,0,0,0,0,0,0,0,0,0,0,0,0,0,0,0,0,0,0,0,0,0,0,0,0,0,0,0,0,0,0,0,0,0,0,0,0,0,0,0],"trees":[{"base_weights":[-3.9909837E-1,-6.7452765E-1,1.7544353E-1,-8.649089E-1,-4.7494316E-1,8.50656E-1,-2.7172822E-1,-6.8067753E-1,-9.3430597E-1,-6.812392E-1,-1.5189454E-1,9.880844E-3,1.8016934E0,1.1698439E-1,-5.52731E-1,-7.1793616E-1,3.064158E-1,1.16443194E-1,-9.4565946E-1,-7.334742E-1,5.710095E-1,2.481251E-1,-9.411657E-1,-8.022342E-1,5.0499755E-1,2.546253E0,8.112933E-1,1.3244443E0,-9.737561E-2,-2.1747534E-1,-7.874649E-1,-7.600362E-1,4.1454217E-1,-9.631221E-1,-4.2311605E-2,-2.4010961E-1,-7.934042E-1,1.3847082E0,-4.619231E-1,7.564235E-2,1.9393903E0,1.5179047E-1,-1.0270461E0,2.5654435E-1,-9.117772E-1,8.366119E-1,-6.654453E-1,1.2166414E0,3.296649E0,-8.320197E-1,1.2308322E0,1.9164929E0,-3.7371293E-1,-5.0220966E-1,5.526221E-1,4.5937172E-1,-3.2035092E-1,-1.0355933E0,-4.5851156E-1,-2.538911E-1,-2.47891E-2,-2.3391269E-1,5.5156684E-1,4.8805375E-2,-2.9122186E-1,-2.7335614E-1,4.3522102E-1,-1.3623236E-1,3.4017774E-1,-2.6250872E-1,-1.2680206E-1,-7.9999834E-2,6.35004E-1,-2.521009E-1,1.09033085E-1,3.106563E-1,-7.7429995E-2,-5.102204E-2,8.391517E-1,-2.3391269E-1,4.040556E-1,1.09033085E-1,-3.2293868E-1,-3.0942747E-1,2.5654435E-1,3.3762687E-1,-1.2907065E-1,-3.1895542E-1,2.307527E-1,6.049306E-1,-6.1845086E-3,-3.5095803E-2,1.104055E0,-2.8792134E-1,-3.8478166E-2,5.979112E-1,9.140817E-3,8.2010955E-1,4.5537144E-2,-2.3391269E-1,1.09033085E-1,1.946625E-2,-2.2587046E-1,3.3438116E-1,-1.4291671E-1,-1.2208134E-1,3.450622E-1,-3.3587334E-1,1.16443194E-1,-1.7951164E-1,3.0718726E-1],"categories":[],"categories_nodes":[],"categories_segments":[],"categories_sizes":[],"default_left":[0,0,0,0,0,0,0,0,0,0,0,0,0,0,0,0,0,0,0,0,0,0,0,0,0,0,0,0,0,0,0,0,0,0,0,0,0,0,0,0,0,0,0,0,0,0,0,0,0,0,0,0,0,0,0,0,0,0,0,0,0,0,0,0,0,0,0,0,0,0,0,0,0,0,0,0,0,0,0,0,0,0,0,0,0,0,0,0,0,0,0,0,0,0,0,0,0,0,0,0,0,0,0,0,0,0,0,0,0,0,0],"id":0,"left_children":[1,3,5,7,9,11,13,15,17,19,21,23,25,27,29,31,-1,-1,33,35,37,39,41,43,45,47,49,51,53,55,57,59,61,63,65,67,69,71,73,75,77,79,81,-1,83,85,87,89,91,93,95,97,99,101,103,-1,105,107,109,-1,-1,-1,-1,-1,-1,-1,-1,-1,-1,-1,-1,-1,-1,-1,-1,-1,-1,-1,-1,-1,-1,-1,-1,-1,-1,-1,-1,-1,-1,-1,-1,-1,-1,-1,-1,-1,-1,-1,-1,-1,-1,-1,-1,-1,-1,-1,-1,-1,-1,-1,-1],"loss_changes":[1.4402138E2,2.2953491E1,8.944389E1,3.3720245E0,2.0050232E1,9.430456E1,1.9563019E1,6.4064674E0,3.7456818E0,1.2472008E1,3.7849537E1,2.5984314E1,3.8746567E1,1.972892E1,7.996088E0,4.5168533E0,0E0,0E0,3.4833984E0,5.0525894E0,7.3138785E0,2.314954E1,3.9369316E0,5.2242956E0,1.6134373E1,2.7044891E1,1.8410994E1,1.2263248E1,1.74448E1,8.428056E0,4.4765396E0,4.9162445E0,7.905924E0,2.0370483E0,8.1749325E0,6.584264E0,4.401848E0,6.2358723E0,1.6324751E0,2.3816256E1,1.3775497E1,5.2868485E0,2.9663315E0,0E0,5.838913E0,1.2088774E1,6.1915226E0,1.27218685E1,2.5714722E1,3.9154434E-1,1.8689184E1,1.2101591E1,1.4224123E0,5.838629E0,1.5285641E1,0E0,5.8793015E0,4.474224E0,6.392763E0,0E0,0E0,0E0,0E0,0E0,0E0,0E0,0E0,0E0,0E0,0E0,0E0,0E0,0E0,0E0,0E0,0E0,0E0,0E0,0E0,0E0,0E0,0E0,0E0,0E0,0E0,0E0,0E0,0E0,0E0,0E0,0E0,0E0,0E0,0E0,0E0,0E0,0E0,0E0,0E0,0E0,0E0,0E0,0E0,0E0,0E0,0E0,0E0,0E0,0E0,0E0,0E0],"parents":[2147483647,0,0,1,1,2,2,3,3,4,4,5,5,6,6,7,7,8,8,9,9,10,10,11,11,12,12,13,13,14,14,15,15,18,18,19,19,20,20,21,21,22,22,23,23,24,24,25,25,26,26,27,27,28,28,29,29,30,30,31,31,32,32,33,33,34,34,35,35,36,36,37,37,38,38,39,39,40,40,41,41,42,42,44,44,45,45,46,46,47,47,48,48,49,49,50,50,51,51,52,52,53,53,54,54,56,56,57,57,58,58],"right_children":[2,4,6,8,10,12,14,16,18,20,22,24,26,28,30,32,-1,-1,34,36,38,40,42,44,46,48,50,52,54,56,58,60,62,64,66,68,70,72,74,76,78,80,82,-1,84,86,88,90,92,94,96,98,100,102,104,-1,106,108,110,-1,-1,-1,-1,-1,-1,-1,-1,-1,-1,-1,-1,-1,-1,-1,-1,-1,-1,-1,-1,-1,-1,-1,-1,-1,-1,-1,-1,-1,-1,-1,-1,-1,-1,-1,-1,-1,-1,-1,-1,-1,-1,-1,-1,-1,-1,-1,-1,-1,-1,-1,-1],"split_conditions":[2.92402E0,1.3E1,4E0,-1.1633083E-1,1.8404E0,1E0,2.2E1,-1.1793319E-1,-3.3180285E-1,1.6E1,5E0,1.4E1,4E0,-2.427823E-1,-1.3790967E-1,5.0203985E-1,3.064158E-1,1.16443194E-1,2.6266596E-1,-1.4723617E-1,3.2456732E-1,3E0,-3.0838E-1,-1.6156706E-1,-7.046841E-2,2.943E1,1.7E1,5.6465524E-1,3.4630114E-1,-1.1653725E-2,-2.4352176E-2,2.7551562E-1,-1.8423411E-1,-7.3051E0,-4.393728E-2,4.587432E-1,4.165073E2,-2.5404455E-2,-1.99859E-1,-2.6686224E-1,-1.1604469E-1,1.2752636E-2,2.288834E-2,2.5654435E-1,2.6065826E-2,4E0,-2.880649E-1,2E0,2E0,3.383E0,3.543997E2,2.3841283E-1,8.306982E-2,-2.3055418E-1,4.2671546E-2,4.5937172E-1,-3.627927E-2,4E0,1.0651182E-1,-2.538911E-1,-2.47891E-2,-2.3391269E-1,5.5156684E-1,4.8805375E-2,-2.9122186E-1,-2.7335614E-1,4.3522102E-1,-1.3623236E-1,3.4017774E-1,-2.6250872E-1,-1.2680206E-1,-7.9999834E-2,6.35004E-1,-2.521009E-1,1.09033085E-1,3.106563E-1,-7.7429995E-2,-5.102204E-2,8.391517E-1,-2.3391269E-1,4.040556E-1,1.09033085E-1,-3.2293868E-1,-3.0942747E-1,2.5654435E-1,3.3762687E-1,-1.2907065E-1,-3.1895542E-1,2.307527E-1,6.049306E-1,-6.1845086E-3,-3.5095803E-2,1.104055E0,-2.8792134E-1,-3.8478166E-2,5.979112E-1,9.140817E-3,8.2010955E-1,4.5537144E-2,-2.3391269E-1,1.09033085E-1,1.946625E-2,-2.2587046E-1,3.3438116E-1,-1.4291671E-1,-1.2208134E-1,3.450622E-1,-3.3587334E-1,1.16443194E-1,-1.7951164E-1,3.0718726E-1],"split_indices":[0,106,107,81,0,104,106,81,59,103,107,106,105,16,23,67,0,0,21,79,5,104,75,51,37,2,106,89,100,49,66,34,6,0,15,17,1,52,9,18,10,4,47,0,70,103,86,105,103,0,1,83,4,14,25,0,16,104,53,0,0,0,0,0,0,0,0,0,0,0,0,0,0,0,0,0,0,0,0,0,0,0,0,0,0,0,0,0,0,0,0,0,0,0,0,0,0,0,0,0,0,0,0,0,0,0,0,0,0,0,0],"split_type":[0,0,0,0,0,0,0,0,0,0,0,0,0,0,0,0,0,0,0,0,0,0,0,0,0,0,0,0,0,0,0,0,0,0,0,0,0,0,0,0,0,0,0,0,0,0,0,0,0,0,0,0,0,0,0,0,0,0,0,0,0,0,0,0,0,0,0,0,0,0,0,0,0,0,0,0,0,0,0,0,0,0,0,0,0,0,0,0,0,0,0,0,0,0,0,0,0,0,0,0,0,0,0,0,0,0,0,0,0,0,0],"sum_hessian":[9.083649E2,6.138958E2,2.9446915E2,3.124858E2,3.0140997E2,1.1696066E2,1.7750847E2,8.8458885E1,2.2402692E2,1.832679E2,1.1814208E2,6.2615303E1,5.4345356E1,7.472487E1,1.0278361E2,8.712978E1,1.3290985E0,1.6244535E0,2.2240247E2,1.7632706E2,6.9408474E0,7.885984E1,3.928224E1,2.3480738E1,3.9134563E1,3.012623E1,2.4219126E1,1.0485109E1,6.423975E1,4.312186E1,5.966175E1,8.432391E1,2.8058743E0,2.1811981E2,4.2826505E0,1.964112E1,1.5668593E2,3.69194E0,3.248907E0,7.2509705E1,6.3501368E0,2.8058743E0,3.6476368E1,1.0337431E0,2.2446995E1,3.0716942E1,8.4176235E0,1.1814208E1,1.8312023E1,4.725683E0,1.9493443E1,7.6792355E0,2.8058743E0,3.9725273E1,2.4514482E1,1.6244535E0,4.1497406E1,3.2784428E1,2.6877323E1,7.457719E1,9.746721E0,1.7721312E0,1.0337431E0,1.3290985E0,2.1679071E2,2.953552E0,1.3290985E0,1.7573635E1,2.0674863E0,1.2729809E2,2.9387842E1,1.3290985E0,2.3628416E0,2.215164E0,1.0337431E0,1.8164345E1,5.4345356E1,2.0674863E0,4.2826505E0,1.7721312E0,1.0337431E0,1.0337431E0,3.5442623E1,2.1413252E1,1.0337431E0,2.5105192E1,5.6117487E0,6.7931695E0,1.6244535E0,6.7931695E0,5.0210385E0,1.9198089E0,1.6392214E1,3.69194E0,1.0337431E0,1.1518853E1,7.9745903E0,4.8733606E0,2.8058743E0,1.7721312E0,1.0337431E0,1.2404919E1,2.7320356E1,1.5801503E1,8.712978E0,3.987295E1,1.6244535E0,3.1159973E1,1.6244535E0,2.5105192E1,1.7721312E0],"tree_param":{"num_deleted":"0","num_feature":"108","num_nodes":"111","size_leaf_vector":"1"}},{"base_weights":[-3.302456E-1,-7.213214E-1,-7.018654E-2,-8.104665E-1,-5.8987015E-1,6.1419743E-1,-3.3715004E-1,-9.9214065E-1,-6.886495E-1,-3.8795894E-1,-8.185751E-1,1.5033959E-1,1.2978337E0,-5.580217E-1,-1.423631E-1,-3.3835968E-1,-1.0339111E0,2.5822273E-1,-7.467018E-1,-4.6486747E-1,1.1238741E0,-8.5815E-1,1.5484422E-1,-2.4782641E-1,5.6927544E-1,1.5410665E0,-2.6648352E-1,-6.0257983E-1,3.1623918E-1,4.7088394E-1,-3.1892332E-1,-2.6112598E-1,4.063602E-1,-1.0808742E0,-4.477017E-1,5.275472E-1,-4.796695E-1,-7.9056275E-1,1.6523793E-1,-6.821539E-1,4.791907E-2,-1.2210406E-2,6.208375E-1,-8.984731E-1,1.5509409E-1,7.4812186E-1,-4.5483482E-1,-1.0662624E-1,1.0598873E0,1.7220366E0,-3.4693485E-1,3.6998454E-1,-6.498238E-1,-6.642585E-1,-6.3806355E-2,3.993211E-1,-1.2467577E-1,1.1178358E0,-4.4582855E-2,4.172595E-2,-4.818532E-1,4.164343E-1,-1.9859423E-1,-3.3282548E-1,-3.4721203E-2,2.1591485E-1,-2.8775102E-1,-2.6875207E-1,9.3607105E-2,-2.5840777E-1,-3.0665757E-2,-2.5019342E-1,3.254637E-1,-2.6806954E-1,-4.264921E-2,-2.0766686E-1,1.9147308E-1,-2.3713015E-2,-2.891581E-1,3.7877572E-1,-2.2771475E-1,-1.9791013E-1,1.3127817E-1,-1.7158756E-1,1.4713517E-1,5.2176875E-1,1.07738644E-1,-2.1244793E-1,5.45562E-1,1.8922554E-1,-2.3710291E-1,-3.034714E-1,2.3057307E-1,1.987138E-1,-2.055384E-1,-2.5451925E-1,2.176884E-1,-2.730857E-1,1.7296767E-1,6.008319E-2,6.167134E-1,-1.814265E-1,1.7922449E-1,-5.6221444E-2,4.032489E-1,-2.1246871E-1,-2.6656618E-2],"categories":[],"categories_nodes":[],"categories_segments":[],"categories_sizes":[],"default_left":[0,0,0,0,0,0,0,0,0,0,0,0,0,0,0,0,0,0,0,0,0,0,0,0,0,0,0,0,0,0,0,0,0,0,0,0,0,0,0,0,0,0,0,0,0,0,0,0,0,0,0,0,0,0,0,0,0,0,0,0,0,0,0,0,0,0,0,0,0,0,0,0,0,0,0,0,0,0,0,0,0,0,0,0,0,0,0,0,0,0,0,0,0,0,0,0,0,0,0,0,0,0,0,0,0,0,0],"id":1,"left_children":[1,3,5,7,9,11,13,15,17,19,21,23,25,27,29,31,33,35,37,39,41,43,-1,45,47,49,51,53,55,57,59,-1,61,63,65,-1,67,69,71,73,75,-1,-1,77,-1,79,81,83,85,87,89,-1,91,93,95,-1,97,99,101,103,105,-1,-1,-1,-1,-1,-1,-1,-1,-1,-1,-1,-1,-1,-1,-1,-1,-1,-1,-1,-1,-1,-1,-1,-1,-1,-1,-1,-1,-1,-1,-1,-1,-1,-1,-1,-1,-1,-1,-1,-1,-1,-1,-1,-1,-1,-1],"loss_changes":[8.524151E1,3.4456635E0,9.2437004E1,3.6733398E0,6.1005363E0,4.4837585E1,1.5571922E1,1.7459869E0,6.84993E0,9.326395E0,3.8376694E0,1.4442253E1,2.2203186E1,6.8183594E0,2.1226238E1,2.7688828E0,1.4886322E0,9.411101E0,4.7052383E0,8.139711E0,4.442784E0,3.946331E0,0E0,9.546578E0,1.4067404E1,1.7583527E1,5.7225575E0,5.3487015E0,4.1512766E0,1.4695768E1,8.936127E0,0E0,4.298051E0,1.679596E0,4.8828077E0,0E0,2.247634E0,5.238106E0,6.487614E0,5.714594E0,1.0311648E1,0E0,0E0,3.2120018E0,0E0,7.2097464E0,7.161499E0,5.4503093E0,1.1026442E1,1.1966522E1,2.7444558E0,0E0,4.6114416E0,4.4810867E0,1.1622517E1,0E0,4.44908E0,1.638081E1,9.49753E0,1.4617613E1,9.242559E0,0E0,0E0,0E0,0E0,0E0,0E0,0E0,0E0,0E0,0E0,0E0,0E0,0E0,0E0,0E0,0E0,0E0,0E0,0E0,0E0,0E0,0E0,0E0,0E0,0E0,0E0,0E0,0E0,0E0,0E0,0E0,0E0,0E0,0E0,0E0,0E0,0E0,0E0,0E0,0E0,0E0,0E0,0E0,0E0,0E0,0E0],"parents":[2147483647,0,0,1,1,2,2,3,3,4,4,5,5,6,6,7,7,8,8,9,9,10,10,11,11,12,12,13,13,14,14,15,15,16,16,17,17,18,18,19,19,20,20,21,21,23,23,24,24,25,25,26,26,27,27,28,28,29,29,30,30,32,32,33,33,34,34,36,36,37,37,38,38,39,39,40,40,43,43,45,45,46,46,47,47,48,48,49,49,50,50,52,52,53,53,54,54,56,56,57,57,58,58,59,59,60,60],"right_children":[2,4,6,8,10,12,14,16,18,20,22,24,26,28,30,32,34,36,38,40,42,44,-1,46,48,50,52,54,56,58,60,-1,62,64,66,-1,68,70,72,74,76,-1,-1,78,-1,80,82,84,86,88,90,-1,92,94,96,-1,98,100,102,104,106,-1,-1,-1,-1,-1,-1,-1,-1,-1,-1,-1,-1,-1,-1,-1,-1,-1,-1,-1,-1,-1,-1,-1,-1,-1,-1,-1,-1,-1,-1,-1,-1,-1,-1,-1,-1,-1,-1,-1,-1,-1,-1,-1,-1,-1,-1],"split_conditions":[1.4E1,-5.7408847E-3,4E0,-2.5117767E-1,-4.9473472E-2,3.692E1,2.27404E0,-7.4211136E-2,-3.3084148E-1,-1.5182917E-1,3.2314114E-2,-8.277898E-2,8E0,1.6E1,3E0,-1.4060882E-1,9.439416E-2,-4.7578806E-1,6.422076E-2,1.2E1,8.992576E-2,1.3465993E-1,1.5484422E-1,-2.6502863E-1,-2.1516033E-1,-2.8370082E-1,-2.1061468E-1,-6.1441816E-2,1.5145831E-2,1.6835535E-1,2.2E1,-2.6112598E-1,-2.6637087E-2,2.1675006E-1,1.2472604E-1,5.275472E-1,-1.7043032E-1,6E0,1.6148639E-1,-1.2651376E-1,-1.5344365E-1,-1.2210406E-2,6.208375E-1,5.928831E-2,1.5509409E-1,2.87226E2,4.1880567E-2,7.2719626E-2,-1.3106297E-1,1.9352E0,-1.6171856E-2,3.6998454E-1,1.9228278E-1,-3.5266745E-1,1.8871897E-1,3.993211E-1,2.716683E-1,1.3278637E-2,3.5988227E-1,2.3797813E-1,-1.906349E-1,4.164343E-1,-1.9859423E-1,-3.3282548E-1,-3.4721203E-2,2.1591485E-1,-2.8775102E-1,-2.6875207E-1,9.3607105E-2,-2.5840777E-1,-3.0665757E-2,-2.5019342E-1,3.254637E-1,-2.6806954E-1,-4.264921E-2,-2.0766686E-1,1.9147308E-1,-2.3713015E-2,-2.891581E-1,3.7877572E-1,-2.2771475E-1,-1.9791013E-1,1.3127817E-1,-1.7158756E-1,1.4713517E-1,5.2176875E-1,1.07738644E-1,-2.1244793E-1,5.45562E-1,1.8922554E-1,-2.3710291E-1,-3.034714E-1,2.3057307E-1,1.987138E-1,-2.055384E-1,-2.5451925E-1,2.176884E-1,-2.730857E-1,1.7296767E-1,6.008319E-2,6.167134E-1,-1.814265E-1,1.7922449E-1,-5.6221444E-2,4.032489E-1,-2.1246871E-1,-2.6656618E-2],"split_indices":[106,25,105,92,102,2,0,20,25,96,16,71,107,103,107,6,81,31,71,106,4,81,0,75,9,98,37,85,99,83,106,0,15,88,81,0,6,105,83,85,21,0,0,49,0,1,81,99,23,0,82,0,20,23,69,0,17,79,67,54,80,0,0,0,0,0,0,0,0,0,0,0,0,0,0,0,0,0,0,0,0,0,0,0,0,0,0,0,0,0,0,0,0,0,0,0,0,0,0,0,0,0,0,0,0,0,0],"split_type":[0,0,0,0,0,0,0,0,0,0,0,0,0,0,0,0,0,0,0,0,0,0,0,0,0,0,0,0,0,0,0,0,0,0,0,0,0,0,0,0,0,0,0,0,0,0,0,0,0,0,0,0,0,0,0,0,0,0,0,0,0,0,0,0,0,0,0,0,0,0,0,0,0,0,0,0,0,0,0,0,0,0,0,0,0,0,0,0,0,0,0,0,0,0,0,0,0,0,0,0,0,0,0,0,0,0,0],"sum_hessian":[8.376409E2,3.3384E2,5.0380093E2,1.9585397E2,1.3798602E2,1.410097E2,3.6279123E2,7.574529E1,1.2010868E2,7.471793E1,6.3268093E1,8.473535E1,5.627435E1,1.691382E2,1.9365303E2,5.0953074E0,7.064999E1,6.73923E0,1.1336945E2,7.175994E1,2.9579904E0,6.1792973E1,1.4751225E0,4.3654026E1,4.108132E1,4.8714657E1,7.559692E0,1.6123154E2,7.9066634E0,4.2918186E1,1.5073485E2,2.8735387E0,2.2217689E0,6.4628555E1,6.0214314E0,1.7658377E0,4.9733925E0,1.0829401E2,5.075446E0,5.0170555E1,2.1589384E1,1.7543277E0,1.2036628E0,6.036938E1,1.4235909E0,7.0622964E0,3.659173E1,1.7607141E1,2.347418E1,4.453387E1,4.1807885E0,1.0875616E0,6.4721303E0,1.444608E2,1.6770739E1,1.7832856E0,6.123378E0,1.8513582E1,2.4404606E1,4.7137882E1,1.0359696E2,1.0018235E0,1.2199453E0,6.2626865E1,2.001686E0,1.7103744E0,4.3110566E0,3.1735811E0,1.7998117E0,9.796673E1,1.0327276E1,2.4771268E0,2.5983195E0,3.5584213E1,1.4586343E1,9.502565E0,1.2086819E1,4.624477E0,5.5744904E1,5.3860736E0,1.6762228E0,2.997212E1,6.619608E0,9.918905E0,7.688237E0,1.1166769E1,1.2307412E1,1.4588242E0,4.3075047E1,1.1726537E0,3.0081348E0,5.3854527E0,1.0866779E0,1.7612661E0,1.4269954E2,8.373711E0,8.397028E0,2.7473443E0,3.3760338E0,9.97157E0,8.542012E0,1.3063832E1,1.1340774E1,4.0813835E1,6.3240476E0,6.52242E1,3.837276E1],"tree_param":{"num_deleted":"0","num_feature":"108","num_nodes":"107","size_leaf_vector":"1"}},{"base_weights":[-2.7051973E-1,-6.179785E-1,-6.47442E-2,-4.7216028E-1,-7.1487576E-1,3.8951287E-1,-2.6578555E-1,-6.517332E-1,-1.5963943E-1,-1.275983E-1,-7.5765103E-1,6.187957E-1,-3.2014182E-1,-3.0839974E-1,5.088657E-1,-4.0379822E-1,-8.974503E-1,8.745556E-1,-3.403405E-1,-5.3867894E-1,1.0099778E0,-3.0021024E-1,-8.2180524E-1,-7.1650434E-1,7.460754E-1,5.287437E-1,-5.333227E-1,-6.01927E-1,-2.0000945E-1,-3.912717E-1,1.4623387E0,-6.4230967E-1,6.1793065E-1,-9.6405065E-1,2.3996355E-2,-6.3681775E-1,2.4171453E0,-4.9402046E-1,6.36299E-1,-7.932861E-1,2.3879527E-1,-1.9135053E-1,6.339412E-1,4.2270508E-1,-6.582261E-1,-8.405718E-1,2.0546335E-1,-9.7520614E-1,1.7325675E-1,3.4980232E-1,1.0386716E0,1.5639112E0,-4.1235965E-1,-8.6892384E-1,1.0050611E-1,2.957426E-1,-7.0245034E-1,-4.1346008E-1,2.8648444E-3,-7.1874785E-1,2.7987885E-1,2.181234E0,-5.002237E-1,-2.779567E-1,-5.5335924E-2,-2.2189444E-1,3.4057337E-1,-3.045671E-1,4.316084E-2,-2.0378926E-1,2.501175E-1,-2.1013003E-2,-2.3734248E-1,9.3019694E-1,1.9136429E-1,1.2943956E-1,-2.0600909E-1,-1.00523084E-1,5.3707623E-1,-2.9849315E-1,1.1959574E-1,4.2714885E-1,-1.499951E-1,1.605948E-1,-2.6821974E-1,-2.6369876E-1,-7.927233E-2,-3.4980506E-1,4.999017E-2,2.943068E-1,-9.01464E-3,4.0872264E-1,1.4528751E-1,5.516991E-1,1.5405318E-1,1.400798E-1,-2.6417923E-1,-3.1332028E-1,3.7048638E-2,-2.1676297E-1,2.9524556E-1,4.8222455E-1,-5.0291363E-2,-2.2967161E-1,6.617937E-2,-1.5638646E-1,4.662622E-2,1.09594576E-1,-1.1926771E-1,6.503737E-2,-3.0776522E-1,1.6646153E-1,8.987283E-1,-2.7443394E-2,-1.9316807E-1],"categories":[],"categories_nodes":[],"categories_segments":[],"categories_sizes":[],"default_left":[0,0,0,0,0,0,0,0,0,0,0,0,0,0,0,0,0,0,0,0,0,0,0,0,0,0,0,0,0,0,0,0,0,0,0,0,0,0,0,0,0,0,0,0,0,0,0,0,0,0,0,0,0,0,0,0,0,0,0,0,0,0,0,0,0,0,0,0,0,0,0,0,0,0,0,0,0,0,0,0,0,0,0,0,0,0,0,0,0,0,0,0,0,0,0,0,0,0,0,0,0,0,0,0,0,0,0,0,0,0,0,0,0,0,0],"id":2,"left_children":[1,3,5,7,9,11,13,15,17,19,21,23,25,27,29,31,33,35,37,39,41,43,45,47,49,51,53,55,57,59,61,63,65,67,69,71,73,75,77,79,-1,-1,-1,81,83,85,-1,87,-1,89,91,93,95,97,99,101,103,105,107,109,-1,111,113,-1,-1,-1,-1,-1,-1,-1,-1,-1,-1,-1,-1,-1,-1,-1,-1,-1,-1,-1,-1,-1,-1,-1,-1,-1,-1,-1,-1,-1,-1,-1,-1,-1,-1,-1,-1,-1,-1,-1,-1,-1,-1,-1,-1,-1,-1,-1,-1,-1,-1,-1,-1],"loss_changes":[5.5134438E1,3.7163544E0,4.4466633E1,6.4893456E0,4.1845627E0,2.4513433E1,1.1292797E1,4.1634674E0,8.557224E0,6.517137E0,4.409218E0,1.9788467E1,7.0050526E0,1.0072329E1,1.5992381E1,9.851221E0,2.262701E0,1.751875E1,6.069281E0,4.0413537E0,8.143371E0,5.736432E0,4.493599E0,4.0343447E0,1.1685802E1,8.398735E0,6.5095253E0,7.959137E0,1.0197856E1,5.020362E0,1.3698763E1,3.9858942E0,6.354183E0,2.0769978E0,2.5228462E0,3.166237E-1,2.4008389E0,6.3043976E0,6.9333973E0,2.542943E0,0E0,0E0,0E0,7.7265754E0,4.558803E0,2.8083878E0,0E0,2.1580524E0,0E0,1.0974245E1,9.977844E0,2.111187E-1,2.4534469E0,3.5846653E0,8.964473E0,5.9550824E0,4.687065E0,7.1199703E0,1.7810715E1,2.6954865E0,0E0,7.248909E0,1.2955588E-1,0E0,0E0,0E0,0E0,0E0,0E0,0E0,0E0,0E0,0E0,0E0,0E0,0E0,0E0,0E0,0E0,0E0,0E0,0E0,0E0,0E0,0E0,0E0,0E0,0E0,0E0,0E0,0E0,0E0,0E0,0E0,0E0,0E0,0E0,0E0,0E0,0E0,0E0,0E0,0E0,0E0,0E0,0E0,0E0,0E0,0E0,0E0,0E0,0E0,0E0,0E0,0E0],"parents":[2147483647,0,0,1,1,2,2,3,3,4,4,5,5,6,6,7,7,8,8,9,9,10,10,11,11,12,12,13,13,14,14,15,15,16,16,17,17,18,18,19,19,20,20,21,21,22,22,23,23,24,24,25,25,26,26,27,27,28,28,29,29,30,30,31,31,32,32,33,33,34,34,35,35,36,36,37,37,38,38,39,39,43,43,44,44,45,45,47,47,49,49,50,50,51,51,52,52,53,53,54,54,55,55,56,56,57,57,58,58,59,59,61,61,62,62],"right_children":[2,4,6,8,10,12,14,16,18,20,22,24,26,28,30,32,34,36,38,40,42,44,46,48,50,52,54,56,58,60,62,64,66,68,70,72,74,76,78,80,-1,-1,-1,82,84,86,-1,88,-1,90,92,94,96,98,100,102,104,106,108,110,-1,112,114,-1,-1,-1,-1,-1,-1,-1,-1,-1,-1,-1,-1,-1,-1,-1,-1,-1,-1,-1,-1,-1,-1,-1,-1,-1,-1,-1,-1,-1,-1,-1,-1,-1,-1,-1,-1,-1,-1,-1,-1,-1,-1,-1,-1,-1,-1,-1,-1,-1,-1,-1,-1],"split_conditions":[1.4E1,-4.4155356E-1,4E0,1.8698858E-3,-1.8282093E-1,6E0,2.751402E-1,-8.6679384E-2,-1.6007774E-1,2.0796E0,-1.5290476E-1,-2.0106226E-1,-1.9255294E-1,-1.262929E-1,-1.3870196E-2,-1.0276802E-1,8.544378E-2,4.8408616E-2,-6.269017E-2,-2.0583836E-2,1.2362863E-1,-1.2229967E-1,2.9764327E-1,-1.8697102E-2,2.943E1,1.908218E-1,1.3037685E-1,-3.2139033E-1,2.509E0,-1.1843584E-1,3.8537644E-2,1.642441E2,4.0387392E-2,1.2449136E-1,-1.07543245E-2,-1.1899268E-1,-9.0224005E-2,-1.999014E-1,3.2117584E-1,5.186511E-2,2.3879527E-1,-1.9135053E-1,6.339412E-1,-1.7135082E-1,2.2775203E-2,1.2946391E-1,2.0546335E-1,3.1230912E-1,1.7325675E-1,9.065633E-3,-1.337218E-1,-1.4324732E-1,-7.9627E-2,1.3058333E-1,4.9456816E-2,-1.839986E-1,1.9559874E-1,1.6463E2,3.564106E2,-1.8860276E-1,2.7987885E-1,2.0253734E-1,3.3484158E-1,-2.779567E-1,-5.5335924E-2,-2.2189444E-1,3.4057337E-1,-3.045671E-1,4.316084E-2,-2.0378926E-1,2.501175E-1,-2.1013003E-2,-2.3734248E-1,9.3019694E-1,1.9136429E-1,1.2943956E-1,-2.0600909E-1,-1.00523084E-1,5.3707623E-1,-2.9849315E-1,1.1959574E-1,4.2714885E-1,-1.499951E-1,1.605948E-1,-2.6821974E-1,-2.6369876E-1,-7.927233E-2,-3.4980506E-1,4.999017E-2,2.943068E-1,-9.01464E-3,4.0872264E-1,1.4528751E-1,5.516991E-1,1.5405318E-1,1.400798E-1,-2.6417923E-1,-3.1332028E-1,3.7048638E-2,-2.1676297E-1,2.9524556E-1,4.8222455E-1,-5.0291363E-2,-2.2967161E-1,6.617937E-2,-1.5638646E-1,4.662622E-2,1.09594576E-1,-1.1926771E-1,6.503737E-2,-3.0776522E-1,1.6646153E-1,8.987283E-1,-2.7443394E-2,-1.9316807E-1],"split_indices":[106,98,105,3,51,107,99,60,74,0,81,71,37,71,56,60,81,94,37,75,62,37,50,74,2,33,94,14,0,80,7,1,4,74,12,61,60,59,67,71,0,0,0,65,17,11,0,40,0,53,37,95,55,27,4,25,84,2,1,59,0,36,17,0,0,0,0,0,0,0,0,0,0,0,0,0,0,0,0,0,0,0,0,0,0,0,0,0,0,0,0,0,0,0,0,0,0,0,0,0,0,0,0,0,0,0,0,0,0,0,0,0,0,0,0],"split_type":[0,0,0,0,0,0,0,0,0,0,0,0,0,0,0,0,0,0,0,0,0,0,0,0,0,0,0,0,0,0,0,0,0,0,0,0,0,0,0,0,0,0,0,0,0,0,0,0,0,0,0,0,0,0,0,0,0,0,0,0,0,0,0,0,0,0,0,0,0,0,0,0,0,0,0,0,0,0,0,0,0,0,0,0,0,0,0,0,0,0,0,0,0,0,0,0,0,0,0,0,0,0,0,0,0,0,0,0,0,0,0,0,0,0,0],"sum_hessian":[7.706865E2,2.8591183E2,4.8477472E2,1.164867E2,1.6942513E2,1.4843816E2,3.3633655E2,7.3289505E1,4.3197193E1,1.1772945E1,1.5765218E2,1.12287224E2,3.615093E1,3.1936966E2,1.6966898E1,3.7795853E1,3.5493652E1,5.8539367E0,3.7343258E1,9.0346155E0,2.7383296E0,2.0089172E1,1.37563E2,9.368827E0,1.02918396E2,6.959192E0,2.9191736E1,8.490057E1,2.3446909E2,9.030851E0,7.936046E0,3.094373E1,6.8521256E0,3.3058044E1,2.4356058E0,3.2534757E0,2.6004608E0,3.269299E1,4.6502705E0,7.9278812E0,1.1067349E0,1.2672387E0,1.4710909E0,6.5939E0,1.3495272E1,1.3630733E2,1.2556821E0,8.013206E0,1.3556209E0,4.4646984E1,5.8271416E1,2.998835E0,3.9603565E0,1.8843515E1,1.0348221E1,8.354372E0,7.65462E1,1.1375049E2,1.207186E2,7.6068835E0,1.4239675E0,5.7268534E0,2.2091928E0,1.846071E1,1.2483018E1,1.7720294E0,5.0800962E0,3.1678535E1,1.3795092E0,1.389676E0,1.0459298E0,1.00743E0,2.2460458E0,1.3421912E0,1.2582695E0,5.4199486E0,2.7273039E1,2.9101732E0,1.7400973E0,6.9218597E0,1.0060214E0,2.9020371E0,3.6918633E0,2.017127E0,1.1478145E1,1.2729537E2,9.011954E0,6.847722E0,1.1654835E0,1.6178911E1,2.8468073E1,3.5868195E1,2.2403221E1,1.7815212E0,1.217314E0,1.3771074E0,2.5832493E0,1.5967757E1,2.8757586E0,5.452212E0,4.8960085E0,1.5364151E0,6.817957E0,7.1806404E1,4.7398E0,9.5695595E1,1.8054897E1,6.3409817E1,5.730878E1,1.9527984E0,5.654085E0,2.472081E0,3.2547722E0,1.0002291E0,1.2089635E0],"tree_param":{"num_deleted":"0","num_feature":"108","num_nodes":"115","size_leaf_vector":"1"}},{"base_weights":[-2.1746808E-1,-5.2262884E-1,-5.4569207E-2,-4.2474705E-1,-6.9129294E-1,2.6458517E-1,-2.059841E-1,-3.5240906E-1,-9.548437E-1,-8.0579853E-1,-1.131852E-1,4.1379812E-1,-2.5608602E-1,-1.2209493E-1,-5.390945E-1,-4.7754166E-1,1.5392849E-1,-3.1645766E-1,-1.4938694E-2,1.7157315E-1,-8.4358543E-1,-6.516065E-1,4.0953985E-1,6.4165634E-1,2.7939472E-2,4.3588006E-1,-4.4469276E-1,7.362002E-2,-3.4712613E-1,-6.1008954E-1,8.7184274E-1,-3.5340068E-1,-8.39129E-1,1.4025555E0,-5.989524E-2,-2.031166E-1,3.5205474E-1,-1.6838099E-1,-9.062256E-1,1.1576198E-1,-8.512835E-1,9.188906E-1,-5.712631E-1,-1.05116904E-1,8.2951874E-1,-2.9539832E-1,6.3149095E-1,-3.7930965E-1,1.2265896E0,7.074815E-1,-5.998951E-1,3.50736E-1,-2.2011943E-1,-5.3336173E-1,2.9311439E-2,2.2992985E-1,-6.594394E-1,5.4201376E-1,-8.429363E-2,2.9188186E-2,-1.52642E-1,-2.760802E-1,3.0002102E-2,-6.1639782E-2,6.121754E-1,1.1763987E-1,-2.0093726E-1,2.9773968E-1,-2.2146298E-1,8.6937495E-2,-2.797995E-1,-2.8636554E-1,-3.118673E-2,-1.409166E-1,5.33807E-1,-2.7900927E-2,-2.1637082E-1,7.822573E-2,-2.377524E-1,-6.287938E-2,2.8528E-1,-2.815344E-1,8.401599E-2,-2.585084E-1,2.6407045E-1,-2.694921E-1,2.0150004E-1,4.0059905E-2,4.720993E-1,-8.501041E-2,4.2764357E-1,-2.1494198E-1,1.1186152E-1,2.3741822E-1,-1.18010705E-2,-2.1807756E-1,4.3981295E-2,2.8390884E-1,-1.718081E-1,-1.5764558E-1,1.4661492E-1,2.1498801E-1,-2.1317975E-1],"categories":[],"categories_nodes":[],"categories_segments":[],"categories_sizes":[],"default_left":[0,0,0,0,0,0,0,0,0,0,0,0,0,0,0,0,0,0,0,0,0,0,0,0,0,0,0,0,0,0,0,0,0,0,0,0,0,0,0,0,0,0,0,0,0,0,0,0,0,0,0,0,0,0,0,0,0,0,0,0,0,0,0,0,0,0,0,0,0,0,0,0,0,0,0,0,0,0,0,0,0,0,0,0,0,0,0,0,0,0,0,0,0,0,0,0,0,0,0,0,0,0,0],"id":3,"left_children":[1,3,5,7,9,11,13,15,17,19,21,23,25,27,29,31,33,-1,-1,35,37,39,41,43,45,47,49,51,53,55,57,59,61,63,65,-1,-1,67,69,-1,71,73,75,77,79,81,83,85,87,89,91,93,95,97,99,-1,101,-1,-1,-1,-1,-1,-1,-1,-1,-1,-1,-1,-1,-1,-1,-1,-1,-1,-1,-1,-1,-1,-1,-1,-1,-1,-1,-1,-1,-1,-1,-1,-1,-1,-1,-1,-1,-1,-1,-1,-1,-1,-1,-1,-1,-1,-1],"loss_changes":[3.5480904E1,3.8087463E0,2.261422E1,5.7924633E0,5.8438454E0,1.1810206E1,8.797699E0,9.084822E0,1.6317616E0,2.9025078E0,4.7660685E0,1.031077E1,4.653925E0,1.1241652E1,6.8942966E0,4.8334904E0,7.8105187E0,0E0,0E0,3.8644402E0,2.8952522E0,2.0397868E0,4.883853E0,1.0442753E1,8.902347E0,5.5088964E0,5.315103E0,1.1231549E1,8.332805E0,4.65341E0,4.2307596E0,6.1293488E0,2.2622986E0,4.80241E0,7.3389306E0,0E0,0E0,5.5918756E0,2.34832E0,0E0,4.5946693E-1,8.155787E0,1.9106817E-1,4.161263E0,7.654415E0,1.1276518E1,6.6635695E0,3.1214612E0,1.3863368E0,3.040213E0,3.0618792E0,1.2217443E1,1.2584114E1,5.1643696E0,1.0506612E1,0E0,4.696993E0,0E0,0E0,0E0,0E0,0E0,0E0,0E0,0E0,0E0,0E0,0E0,0E0,0E0,0E0,0E0,0E0,0E0,0E0,0E0,0E0,0E0,0E0,0E0,0E0,0E0,0E0,0E0,0E0,0E0,0E0,0E0,0E0,0E0,0E0,0E0,0E0,0E0,0E0,0E0,0E0,0E0,0E0,0E0,0E0,0E0,0E0],"parents":[2147483647,0,0,1,1,2,2,3,3,4,4,5,5,6,6,7,7,8,8,9,9,10,10,11,11,12,12,13,13,14,14,15,15,16,16,19,19,20,20,21,21,22,22,23,23,24,24,25,25,26,26,27,27,28,28,29,29,30,30,31,31,32,32,33,33,34,34,37,37,38,38,40,40,41,41,42,42,43,43,44,44,45,45,46,46,47,47,48,48,49,49,50,50,51,51,52,52,53,53,54,54,56,56],"right_children":[2,4,6,8,10,12,14,16,18,20,22,24,26,28,30,32,34,-1,-1,36,38,40,42,44,46,48,50,52,54,56,58,60,62,64,66,-1,-1,68,70,-1,72,74,76,78,80,82,84,86,88,90,92,94,96,98,100,-1,102,-1,-1,-1,-1,-1,-1,-1,-1,-1,-1,-1,-1,-1,-1,-1,-1,-1,-1,-1,-1,-1,-1,-1,-1,-1,-1,-1,-1,-1,-1,-1,-1,-1,-1,-1,-1,-1,-1,-1,-1,-1,-1,-1,-1,-1,-1],"split_conditions":[1.4E1,-1.2623815E-1,4E0,1.1595437E-1,-1.5693295E-1,6E0,-2.2289273E-1,2.2571607E-1,4E0,-6.049537E-1,-2.3496862E-1,-2.89655E-2,-1.9255294E-1,5.673311E-1,2.220043E-1,2.0204274E-1,2.902333E-1,-3.1645766E-1,-1.4938694E-2,3.0940773E-2,-1.6622925E-1,6.48E0,2.2990935E-1,-2.0313519E-1,-3.696453E-2,2.4400161E-1,-5.848189E-2,-4.8840955E-2,1.6165148E-2,-5.3826183E-1,5E0,2.0798666E-2,-1.5581432E-1,2.4175568E-2,-5.2001238E-2,-2.031166E-1,3.5205474E-1,1.8440822E-2,-4.4263875E-1,1.1576198E-1,6.5022307E-3,1.3884401E-1,-3.90977E-2,1.4306515E-1,9.72E0,3.2459E0,6.2810937E-3,3.1504315E-1,-8.496274E-2,5.640702E-2,2.9523924E-1,-1.5685897E-1,1.00333855E-1,-3.4244663E-1,-1.1369697E-1,2.2992985E-1,3.24E0,5.4201376E-1,-8.429363E-2,2.9188186E-2,-1.52642E-1,-2.760802E-1,3.0002102E-2,-6.1639782E-2,6.121754E-1,1.1763987E-1,-2.0093726E-1,2.9773968E-1,-2.2146298E-1,8.6937495E-2,-2.797995E-1,-2.8636554E-1,-3.118673E-2,-1.409166E-1,5.33807E-1,-2.7900927E-2,-2.1637082E-1,7.822573E-2,-2.377524E-1,-6.287938E-2,2.8528E-1,-2.815344E-1,8.401599E-2,-2.585084E-1,2.6407045E-1,-2.694921E-1,2.0150004E-1,4.0059905E-2,4.720993E-1,-8.501041E-2,4.2764357E-1,-2.1494198E-1,1.1186152E-1,2.3741822E-1,-1.18010705E-2,-2.1807756E-1,4.3981295E-2,2.8390884E-1,-1.718081E-1,-1.5764558E-1,1.4661492E-1,2.1498801E-1,-2.1317975E-1],"split_indices":[106,59,105,53,101,107,44,62,103,98,6,76,37,89,63,83,67,0,0,88,53,2,87,23,10,47,99,42,90,96,107,3,96,77,56,0,0,66,35,0,72,38,3,54,2,0,24,36,71,4,24,92,50,65,23,0,2,0,0,0,0,0,0,0,0,0,0,0,0,0,0,0,0,0,0,0,0,0,0,0,0,0,0,0,0,0,0,0,0,0,0,0,0,0,0,0,0,0,0,0,0,0,0],"split_type":[0,0,0,0,0,0,0,0,0,0,0,0,0,0,0,0,0,0,0,0,0,0,0,0,0,0,0,0,0,0,0,0,0,0,0,0,0,0,0,0,0,0,0,0,0,0,0,0,0,0,0,0,0,0,0,0,0,0,0,0,0,0,0,0,0,0,0,0,0,0,0,0,0,0,0,0,0,0,0,0,0,0,0,0,0,0,0,0,0,0,0,0,0,0,0,0,0,0,0,0,0,0,0],"sum_hessian":[7.133266E2,2.4749062E2,4.65836E2,1.5883263E2,8.8657974E1,1.4965137E2,3.1618463E2,1.4122554E2,1.76071E1,7.367194E1,1.4986033E1,1.164769E2,3.317447E1,2.5366835E2,6.2516273E1,1.13285774E2,2.7939756E1,1.5705937E1,1.9011617E0,2.6104767E0,7.106147E1,7.260727E0,7.725307E0,7.281505E1,4.366185E1,6.8247113E0,2.6349758E1,1.3603145E2,1.1763691E2,6.006171E1,2.454562E0,8.580453E1,2.748125E1,3.2722137E0,2.4667543E1,1.5889338E0,1.0215428E0,6.3459487E0,6.4715515E1,1.0213772E0,6.2393494E0,5.1262603E0,2.5990462E0,1.4724408E1,5.809064E1,2.8763227E1,1.48986225E1,3.6165183E0,3.2081933E0,2.7056205E0,2.3644136E1,6.9896515E1,6.6134926E1,7.842213E1,3.9214787E1,1.5758451E0,5.8485867E1,1.0421948E0,1.4123672E0,2.2096409E1,6.370812E1,2.5314272E1,2.1669788E0,1.1221167E0,2.150097E0,1.43723955E1,1.0295147E1,1.8452151E0,4.500734E0,1.1842394E0,6.353128E1,5.238227E0,1.0011227E0,2.1349704E0,2.99129E0,1.0072106E0,1.5918357E0,1.001468E1,4.7097287E0,6.001445E0,5.20892E1,1.3285871E1,1.5477358E1,1.775611E0,1.3123012E1,2.5182238E0,1.0982946E0,1.1069064E0,2.1012866E0,1.3911468E0,1.3144739E0,2.1349092E1,2.2950444E0,3.2337082E1,3.7559433E1,2.7352308E1,3.878262E1,1.4334283E0,7.69887E1,1.7698046E1,2.151674E1,1.6301944E0,5.685567E1],"tree_param":{"num_deleted":"0","num_feature":"108","num_nodes":"103","size_leaf_vector":"1"}},{"base_weights":[-1.745354E-1,-4.3303683E-1,-2.8025536E-2,-5.169312E-1,6.824137E-2,-3.5948107E-1,6.3140154E-2,-4.0452558E-1,-8.266918E-1,-2.920425E-1,2.708258E-1,-5.303466E-1,5.734818E-2,2.1097903E-1,-2.3403901E-1,-5.5754477E-1,-1.18235976E-1,-9.1017133E-1,-5.778417E-2,1.265564E0,-5.9118634E-3,3.491042E-2,-6.3168025E-1,5.789942E-1,-5.216279E-1,-9.656345E-2,4.7896835E-1,-7.7503604E-1,-7.796296E-2,-2.1058865E-1,-7.4836653E-1,2.6452583E-1,-5.5026656E-1,8.855262E-2,-9.459259E-1,-5.207346E-1,3.007807E-1,1.953566E0,-1.5095025E-1,-3.358033E-1,6.7618704E-1,8.3815175E-1,-4.9387333E-1,4.7436293E-2,-7.0079887E-1,-3.0977464E-1,1.3352242E0,4.6727648E-1,-7.9344577E-1,-5.1956093E-1,6.822884E-2,5.985576E-1,-4.8428833E-1,-9.1594243E-1,1.7378233E-1,-2.4792586E-1,3.5687017E-1,-1.0456139E-1,2.447222E-1,6.1033227E-2,-2.53955E-1,5.351345E-3,6.8311065E-1,2.6401657E-1,-2.0276532E-1,-2.941699E-1,8.994581E-2,-2.535878E-1,1.0344075E-1,8.423389E-1,-5.5625692E-2,-1.7969346E-1,1.1664047E-1,3.4661677E-1,-1.5422916E-1,-2.0837835E-4,6.3376975E-1,4.096398E-1,-1.680773E-1,1.6002251E-1,-2.523331E-1,2.5787303E-1,-2.4818224E-1,-2.9200795E-1,-1.24373995E-1,1.5805852E-1,-2.059133E-1,7.0195E-1,9.116359E-2,-1.8844531E-1,3.8441375E-1,-1.3852839E-2,-3.0102158E-1,1.418847E-1,-2.0753765E-1,-2.268593E-2,2.9755613E-1,2.2715761E-1,-5.2389875E-2,-2.700609E-1,8.940181E-2,1.0094073E-1,-2.9834864E-1,-5.204295E-3,-2.279834E-1,2.870914E-1,-1.273837E-1],"categories":[],"categories_nodes":[],"categories_segments":[],"categories_sizes":[],"default_left":[0,0,0,0,0,0,0,0,0,0,0,0,0,0,0,0,0,0,0,0,0,0,0,0,0,0,0,0,0,0,0,0,0,0,0,0,0,0,0,0,0,0,0,0,0,0,0,0,0,0,0,0,0,0,0,0,0,0,0,0,0,0,0,0,0,0,0,0,0,0,0,0,0,0,0,0,0,0,0,0,0,0,0,0,0,0,0,0,0,0,0,0,0,0,0,0,0,0,0,0,0,0,0,0,0,0,0],"id":4,"left_children":[1,3,5,7,9,11,13,15,17,-1,19,21,23,25,27,29,31,33,35,37,39,41,43,45,47,49,51,53,55,57,59,61,63,-1,65,67,-1,69,71,73,75,77,79,81,83,85,87,89,91,93,95,97,99,101,-1,103,105,-1,-1,-1,-1,-1,-1,-1,-1,-1,-1,-1,-1,-1,-1,-1,-1,-1,-1,-1,-1,-1,-1,-1,-1,-1,-1,-1,-1,-1,-1,-1,-1,-1,-1,-1,-1,-1,-1,-1,-1,-1,-1,-1,-1,-1,-1,-1,-1,-1,-1],"loss_changes":[2.5374296E1,1.022961E1,1.29828E1,6.899952E0,7.784252E0,6.630434E0,1.4865327E1,6.6983852E0,3.4368553E0,0E0,8.435787E0,3.7924118E0,8.711706E0,1.8649931E1,9.43903E0,6.4866695E0,9.249306E0,2.3897018E0,3.6599052E0,6.793747E0,5.8409576E0,5.066564E0,2.6557503E0,1.0576992E1,4.0595894E0,7.420003E0,1.4203806E1,5.3162403E0,6.623636E0,5.5230246E0,6.184273E0,1.478674E1,5.299837E0,0E0,2.3566246E0,1.7262467E0,0E0,8.852882E0,9.845471E-1,5.242446E0,8.231274E0,4.2450075E0,3.0293667E0,5.042769E0,3.55731E0,2.8076744E0,7.948945E0,4.0047812E0,1.7007189E0,5.4240704E0,1.0321446E1,1.3365856E1,4.7883754E0,2.60742E0,0E0,7.5622854E0,1.2252407E1,0E0,0E0,0E0,0E0,0E0,0E0,0E0,0E0,0E0,0E0,0E0,0E0,0E0,0E0,0E0,0E0,0E0,0E0,0E0,0E0,0E0,0E0,0E0,0E0,0E0,0E0,0E0,0E0,0E0,0E0,0E0,0E0,0E0,0E0,0E0,0E0,0E0,0E0,0E0,0E0,0E0,0E0,0E0,0E0,0E0,0E0,0E0,0E0,0E0,0E0],"parents":[2147483647,0,0,1,1,2,2,3,3,4,4,5,5,6,6,7,7,8,8,10,10,11,11,12,12,13,13,14,14,15,15,16,16,17,17,18,18,19,19,20,20,21,21,22,22,23,23,24,24,25,25,26,26,27,27,28,28,29,29,30,30,31,31,32,32,34,34,35,35,37,37,38,38,39,39,40,40,41,41,42,42,43,43,44,44,45,45,46,46,47,47,48,48,49,49,50,50,51,51,52,52,53,53,55,55,56,56],"right_children":[2,4,6,8,10,12,14,16,18,-1,20,22,24,26,28,30,32,34,36,38,40,42,44,46,48,50,52,54,56,58,60,62,64,-1,66,68,-1,70,72,74,76,78,80,82,84,86,88,90,92,94,96,98,100,102,-1,104,106,-1,-1,-1,-1,-1,-1,-1,-1,-1,-1,-1,-1,-1,-1,-1,-1,-1,-1,-1,-1,-1,-1,-1,-1,-1,-1,-1,-1,-1,-1,-1,-1,-1,-1,-1,-1,-1,-1,-1,-1,-1,-1,-1,-1,-1,-1,-1,-1,-1,-1],"split_conditions":[1.8404E0,3.937321E2,-1.4009707E-1,-1.7614311E-1,-1.7598036E-1,-3.4537852E-1,5E0,-2.4201931E-1,6.024751E-2,-2.920425E-1,2.9E1,-4.6415873E-2,-1.1187824E-1,3.692E1,2.94022E0,-1.14484236E-1,-4.943202E-2,-1.6127335E-1,3.42812E-1,-2.0871071E-2,-4.634016E-2,-1.0358423E-1,-1.9130793E-1,-2.5668105E-2,9.72E0,1.2E1,-1.3117646E-1,7.243262E-1,-1.2886547E-1,2.914906E-1,-9.2973985E-2,-5.5212475E-2,-1.3639498E-1,8.855262E-2,2.904725E-1,-7.243622E-2,3.007807E-1,1.3901874E-1,1.7576854E-1,-2.2143777E-1,-1.04756296E-1,-3.329355E-2,7.619719E-2,1.2164151E-1,-1.2681353E-2,6.0908467E-2,5.9756406E-2,1.1E1,-1.502091E-1,-1.7884165E-1,4.7602782E-1,7E0,3.3098334E-1,2.478784E-1,1.7378233E-1,2.8362002E-3,-8.168403E-2,-1.0456139E-1,2.447222E-1,6.1033227E-2,-2.53955E-1,5.351345E-3,6.8311065E-1,2.6401657E-1,-2.0276532E-1,-2.941699E-1,8.994581E-2,-2.535878E-1,1.0344075E-1,8.423389E-1,-5.5625692E-2,-1.7969346E-1,1.1664047E-1,3.4661677E-1,-1.5422916E-1,-2.0837835E-4,6.3376975E-1,4.096398E-1,-1.680773E-1,1.6002251E-1,-2.523331E-1,2.5787303E-1,-2.4818224E-1,-2.9200795E-1,-1.24373995E-1,1.5805852E-1,-2.059133E-1,7.0195E-1,9.116359E-2,-1.8844531E-1,3.8441375E-1,-1.3852839E-2,-3.0102158E-1,1.418847E-1,-2.0753765E-1,-2.268593E-2,2.9755613E-1,2.2715761E-1,-5.2389875E-2,-2.700609E-1,8.940181E-2,1.0094073E-1,-2.9834864E-1,-5.204295E-3,-2.279834E-1,2.870914E-1,-1.273837E-1],"split_indices":[0,1,71,31,41,86,107,31,90,0,106,94,59,2,0,79,74,12,69,66,74,42,95,56,2,106,75,89,6,34,76,74,76,0,57,41,0,57,49,55,85,74,82,50,90,57,54,106,11,15,93,105,5,93,0,91,102,0,0,0,0,0,0,0,0,0,0,0,0,0,0,0,0,0,0,0,0,0,0,0,0,0,0,0,0,0,0,0,0,0,0,0,0,0,0,0,0,0,0,0,0,0,0,0,0,0,0],"split_type":[0,0,0,0,0,0,0,0,0,0,0,0,0,0,0,0,0,0,0,0,0,0,0,0,0,0,0,0,0,0,0,0,0,0,0,0,0,0,0,0,0,0,0,0,0,0,0,0,0,0,0,0,0,0,0,0,0,0,0,0,0,0,0,0,0,0,0,0,0,0,0,0,0,0,0,0,0,0,0,0,0,0,0,0,0,0,0,0,0,0,0,0,0,0,0,0,0,0,0,0,0,0,0,0,0,0,0],"sum_hessian":[6.69304E2,2.4140834E2,4.278957E2,2.0677164E2,3.4636703E1,9.166859E1,3.362271E2,1.5340875E2,5.3362885E1,5.0196595E0,2.9617043E1,6.482384E1,2.6844748E1,2.2472324E2,1.1150388E2,9.935626E1,5.4052498E1,4.7971004E1,5.391881E0,5.6684723E0,2.394857E1,9.954026E0,5.4869812E1,1.4121511E1,1.2723235E1,1.0493747E2,1.1978576E2,2.4078E1,8.742588E1,3.6001385E1,6.3354874E1,2.8866049E1,2.5186451E1,1.17296E0,4.6798042E1,4.1075153E0,1.2843657E0,3.5601623E0,2.1083097E0,1.6483942E1,7.4646297E0,3.7192686E0,6.234757E0,5.097605E0,4.977221E1,6.7632666E0,7.358245E0,2.5881546E0,1.0135081E1,2.8816624E1,7.612084E1,1.0689345E2,1.2892314E1,2.2102116E1,1.9758838E0,6.316605E1,2.425983E1,3.2317924E1,3.6834607E0,5.822118E0,5.7532757E1,2.661279E1,2.2532606E0,1.5485367E0,2.3637913E1,4.5739048E1,1.0589962E0,3.004341E0,1.1031747E0,2.3206894E0,1.239473E0,1.0920831E0,1.0162266E0,1.1751461E0,1.5308795E1,5.7530627E0,1.7115668E0,2.717941E0,1.0013275E0,1.4396071E0,4.79515E0,2.652316E0,2.445289E0,2.4264666E1,2.5507544E1,1.975544E0,4.7877226E0,3.084747E0,4.2734976E0,1.2008059E0,1.3873487E0,2.4906178E0,7.644463E0,4.0029526E0,2.4813671E1,6.66575E1,9.4633465E0,8.871301E1,1.8180433E1,8.318812E0,4.5735016E0,1.1106775E0,2.0991438E1,4.4265694E1,1.8900356E1,1.3595372E1,1.0664459E1],"tree_param":{"num_deleted":"0","num_feature":"108","num_nodes":"107","size_leaf_vector":"1"}},{"base_weights":[-1.4117303E-1,-2.775348E-1,4.1770425E-2,-6.162057E-1,-2.115423E-1,9.0901345E-2,-6.97644E-1,-1.5808405E-1,-7.28712E-1,-4.5606646E-1,-1.1045066E-1,1.630026E-1,-3.079494E-1,-9.748844E-1,1.293975E-1,-5.557481E-1,8.363346E-1,-7.902307E-1,3.4912252E-1,2.5425E-1,-5.816544E-1,-5.148377E-1,-3.878903E-2,4.048161E-2,4.7821358E-1,-5.1575965E-1,6.535724E-1,-1.0441082E0,-4.4078358E-2,4.9513268E-1,-2.5132936E-1,-7.911317E-1,1.8066622E-1,-7.90774E-2,4.7256914E-1,4.9330857E-1,-8.643401E-1,-8.399685E-2,2.604718E-1,-4.071142E-1,1.0821208E0,4.9682912E-1,-6.4639133E-1,1.4163046E-1,-7.014052E-1,-2.3692246E-1,2.2040275E-1,4.8703736E-1,-5.668118E-2,6.456844E-1,-5.322677E-1,-6.544032E-1,7.153705E-1,-3.5578763E-1,1.316966E0,-3.3186948E-1,-6.042744E-2,-2.961774E-1,3.190132E-2,-1.6420272E-1,3.799086E-1,-2.7493933E-1,2.001324E-2,-2.4255201E-1,1.4699936E-1,-8.039903E-2,5.050997E-1,-2.0024593E-1,3.7129292E-1,8.225943E-2,-2.1979848E-1,-8.748103E-2,3.9412293E-1,-2.408448E-1,2.2607209E-1,9.960391E-2,-1.0576121E-1,-2.1844138E-1,1.0593478E-1,-1.3310595E-1,2.413324E-1,-2.1359701E-1,1.23375505E-2,2.333019E-1,-1.14207596E-1,-2.4010736E-1,1.4780568E-1,8.2121946E-2,-2.5717232E-1,-1.8870033E-1,4.8294112E-1,1.0828587E-1,-2.264076E-1,-4.169961E-2,5.263553E-1],"categories":[],"categories_nodes":[],"categories_segments":[],"categories_sizes":[],"default_left":[0,0,0,0,0,0,0,0,0,0,0,0,0,0,0,0,0,0,0,0,0,0,0,0,0,0,0,0,0,0,0,0,0,0,0,0,0,0,0,0,0,0,0,0,0,0,0,0,0,0,0,0,0,0,0,0,0,0,0,0,0,0,0,0,0,0,0,0,0,0,0,0,0,0,0,0,0,0,0,0,0,0,0,0,0,0,0,0,0,0,0,0,0,0,0],"id":5,"left_children":[1,3,5,7,9,11,13,15,17,19,21,23,25,27,29,31,33,35,37,39,41,43,45,47,49,51,53,55,-1,-1,-1,57,-1,-1,-1,59,61,-1,-1,63,65,67,69,71,73,75,77,79,81,83,85,87,89,91,93,-1,-1,-1,-1,-1,-1,-1,-1,-1,-1,-1,-1,-1,-1,-1,-1,-1,-1,-1,-1,-1,-1,-1,-1,-1,-1,-1,-1,-1,-1,-1,-1,-1,-1,-1,-1,-1,-1,-1,-1],"loss_changes":[1.5819466E1,7.986801E0,9.925894E0,2.910595E0,7.5009384E0,7.3964233E0,4.031004E0,5.5468955E0,3.3826523E0,8.090275E0,6.2814884E0,8.361093E0,8.220785E0,5.843296E-1,8.971228E0,3.1424654E0,3.7233808E0,4.671774E0,1.2958195E0,8.145491E0,5.624542E0,4.0984173E0,9.593734E0,6.8549223E0,1.0606422E1,6.1012363E0,5.4590645E0,3.9045715E-1,0E0,0E0,0E0,1.6118722E0,0E0,0E0,0E0,3.1652079E0,2.1264935E0,0E0,0E0,3.474786E0,5.748789E0,5.023942E0,5.926546E0,4.4749537E0,4.381386E0,7.0752063E0,1.0455399E1,8.694508E0,8.369718E0,7.4048386E0,2.9140923E0,5.917199E0,5.60366E0,1.3425856E0,3.2443542E0,0E0,0E0,0E0,0E0,0E0,0E0,0E0,0E0,0E0,0E0,0E0,0E0,0E0,0E0,0E0,0E0,0E0,0E0,0E0,0E0,0E0,0E0,0E0,0E0,0E0,0E0,0E0,0E0,0E0,0E0,0E0,0E0,0E0,0E0,0E0,0E0,0E0,0E0,0E0,0E0],"parents":[2147483647,0,0,1,1,2,2,3,3,4,4,5,5,6,6,7,7,8,8,9,9,10,10,11,11,12,12,13,13,14,14,15,15,16,16,17,17,18,18,19,19,20,20,21,21,22,22,23,23,24,24,25,25,26,26,27,27,31,31,35,35,36,36,39,39,40,40,41,41,42,42,43,43,44,44,45,45,46,46,47,47,48,48,49,49,50,50,51,51,52,52,53,53,54,54],"right_children":[2,4,6,8,10,12,14,16,18,20,22,24,26,28,30,32,34,36,38,40,42,44,46,48,50,52,54,56,-1,-1,-1,58,-1,-1,-1,60,62,-1,-1,64,66,68,70,72,74,76,78,80,82,84,86,88,90,92,94,-1,-1,-1,-1,-1,-1,-1,-1,-1,-1,-1,-1,-1,-1,-1,-1,-1,-1,-1,-1,-1,-1,-1,-1,-1,-1,-1,-1,-1,-1,-1,-1,-1,-1,-1,-1,-1,-1,-1,-1],"split_conditions":[2.9058E0,-3.0373538E-1,2.2904053E-1,-1.0015422E-1,-2.1023208E-1,9E0,-2.5792187E-1,-1.3160442E-1,8.7816074E-2,-2.5823754E-1,-1.5978783E-1,2.3626187E-1,-6.354092E-2,1.1854865E-1,-3.8850194E-1,-1.01400234E-1,1.5575169E-1,-6.228764E-1,-2.982447E-1,1.3543388E-1,-2.6402533E-1,-2.0112038E-2,-1.9909276E-1,-2.481848E-1,-1.0561903E-1,-8.358651E-2,-1.5557614E-1,2.7271122E-2,-4.4078358E-2,4.9513268E-1,-2.5132936E-1,5.6365233E-2,1.8066622E-1,-7.90774E-2,4.7256914E-1,2.4899855E-1,3E1,-8.399685E-2,2.604718E-1,2.3222E0,-6.1441816E-2,-1.2682596E-1,-5.023218E-1,-3.6385722E-2,2.3910384E-1,-1.1263178E-1,1.4380229E-1,1.8855533E-1,-2.0313519E-1,-2.0740658E-1,2.751402E-1,-2.7258348E-1,-1.0336683E-1,-1.502474E-1,-3.665233E-1,-3.3186948E-1,-6.042744E-2,-2.961774E-1,3.190132E-2,-1.6420272E-1,3.799086E-1,-2.7493933E-1,2.001324E-2,-2.4255201E-1,1.4699936E-1,-8.039903E-2,5.050997E-1,-2.0024593E-1,3.7129292E-1,8.225943E-2,-2.1979848E-1,-8.748103E-2,3.9412293E-1,-2.408448E-1,2.2607209E-1,9.960391E-2,-1.0576121E-1,-2.1844138E-1,1.0593478E-1,-1.3310595E-1,2.413324E-1,-2.1359701E-1,1.23375505E-2,2.333019E-1,-1.14207596E-1,-2.4010736E-1,1.4780568E-1,8.2121946E-2,-2.5717232E-1,-1.8870033E-1,4.8294112E-1,1.0828587E-1,-2.264076E-1,-4.169961E-2,5.263553E-1],"split_indices":[0,92,3,10,65,107,48,10,91,26,41,34,16,63,72,72,49,98,16,40,59,30,72,16,59,75,60,18,0,0,0,21,0,0,0,73,106,0,0,0,85,102,98,26,19,79,47,97,23,96,99,9,68,10,101,0,0,0,0,0,0,0,0,0,0,0,0,0,0,0,0,0,0,0,0,0,0,0,0,0,0,0,0,0,0,0,0,0,0,0,0,0,0,0,0],"split_type":[0,0,0,0,0,0,0,0,0,0,0,0,0,0,0,0,0,0,0,0,0,0,0,0,0,0,0,0,0,0,0,0,0,0,0,0,0,0,0,0,0,0,0,0,0,0,0,0,0,0,0,0,0,0,0,0,0,0,0,0,0,0,0,0,0,0,0,0,0,0,0,0,0,0,0,0,0,0,0,0,0,0,0,0,0,0,0,0,0,0,0,0,0,0,0],"sum_hessian":[6.3267114E2,3.6218777E2,2.7048334E2,5.7705906E1,3.0448187E2,2.5445308E2,1.6030254E1,1.1851624E1,4.5854282E1,8.8033005E1,2.1644887E2,2.1599791E2,3.8455166E1,1.1871826E1,4.158428E0,8.781193E0,3.0704312E0,4.3630833E1,2.2234473E0,1.3072337E1,7.496066E1,3.1652025E1,1.8479684E2,1.5635277E2,5.964514E1,3.200224E1,6.4529295E0,1.0714909E1,1.1569177E0,1.3417668E0,2.8166611E0,7.5610332E0,1.2201589E0,1.492278E0,1.5781533E0,2.0728898E0,4.1557945E1,1.2134829E0,1.0099645E0,7.5494885E0,5.522848E0,3.8668196E0,7.109384E1,7.0580373E0,2.4593988E1,1.0478341E2,8.001344E1,2.722327E1,1.291295E2,5.147501E1,8.170134E0,2.9184124E1,2.8181129E0,2.743045E0,3.7098844E0,9.687955E0,1.0269537E0,6.1229286E0,1.4381049E0,1.0079732E0,1.0649166E0,3.9369534E1,2.1884115E0,5.2840347E0,2.265454E0,1.8731667E0,3.6496816E0,1.542111E0,2.3247085E0,5.90485E0,6.5188995E1,5.701774E0,1.3562629E0,2.3410522E1,1.1834644E0,1.738093E1,8.740247E1,9.270176E0,7.074327E1,6.8218093E0,2.040146E1,1.5954401E1,1.131751E2,4.582445E1,5.6505566E0,6.6498938E0,1.5202402E0,5.1713896E0,2.4012735E1,1.2444345E0,1.5736785E0,1.0148069E0,1.7282382E0,1.0149472E0,2.6949372E0],"tree_param":{"num_deleted":"0","num_feature":"108","num_nodes":"95","size_leaf_vector":"1"}},{"base_weights":[-1.12288974E-1,-3.8211066E-1,-3.946225E-2,-1.141544E-1,-5.0288576E-1,-8.037172E-3,-6.699633E-1,-3.7972674E-1,3.5621297E-1,-3.5494167E-1,-8.830599E-1,1.6992357E-1,-1.0248779E-1,-8.230637E-1,2.9851577E-1,-1.4214382E-2,-9.025865E-1,1.2831359E0,-2.380545E-1,-2.854403E-1,-2.5515917E-1,-9.542844E-1,7.916856E-2,8.783186E-2,7.4356925E-1,-3.600732E-1,-2.1889344E-2,-8.971884E-1,8.520892E-2,3.437289E-1,-2.0416121E-1,3.6675406E-1,-7.555377E-1,-1.2813044E-2,-2.95635E-1,-1.3449678E-1,2.0959656E0,-7.099895E-1,8.762567E-1,2.741309E-1,-4.246118E-1,-9.9277645E-1,-4.121492E-2,3.9788327E-1,-3.9813336E-2,-2.4731924E-1,9.789144E-1,-4.0183595E-1,3.1020132E-1,5.283859E-1,-4.240696E-2,-3.7182653E-1,-1.0041015E0,2.5301966E-1,-2.4603711E-1,-2.6154128E-1,-2.681082E-2,1.2804778E-1,-1.760226E-1,9.8008496E-1,9.794211E-2,-2.7769327E-1,6.950951E-2,4.6763298E-1,-5.1804673E-2,3.3267683E-1,-7.51528E-2,2.3475845E-1,-1.5083079E-1,-3.0789667E-1,-4.713606E-2,-2.7892524E-1,1.4976418E-1,-1.2245689E-1,4.1544408E-2,-2.4317326E-1,3.6291355E-1,-2.5031933E-1,-7.818495E-2,3.782187E-2,-6.390021E-2,-2.4438374E-1,1.9027357E-1,-4.19494E-2,-3.1986493E-1],"categories":[],"categories_nodes":[],"categories_segments":[],"categories_sizes":[],"default_left":[0,0,0,0,0,0,0,0,0,0,0,0,0,0,0,0,0,0,0,0,0,0,0,0,0,0,0,0,0,0,0,0,0,0,0,0,0,0,0,0,0,0,0,0,0,0,0,0,0,0,0,0,0,0,0,0,0,0,0,0,0,0,0,0,0,0,0,0,0,0,0,0,0,0,0,0,0,0,0,0,0,0,0,0,0],"id":6,"left_children":[1,3,5,7,9,11,13,15,17,19,21,23,25,27,29,31,33,35,37,-1,39,41,-1,43,45,47,49,51,-1,-1,-1,53,55,-1,-1,57,59,61,63,65,67,69,-1,71,73,-1,75,77,-1,-1,79,81,83,-1,-1,-1,-1,-1,-1,-1,-1,-1,-1,-1,-1,-1,-1,-1,-1,-1,-1,-1,-1,-1,-1,-1,-1,-1,-1,-1,-1,-1,-1,-1,-1],"loss_changes":[1.191979E1,4.1165295E0,9.493047E0,5.3024197E0,4.6703835E0,7.7097206E0,3.6185007E0,5.13226E0,8.812059E0,3.6535463E0,2.224722E0,7.4246354E0,6.211964E0,1.8885498E0,3.9641106E0,5.039032E0,7.460165E-1,7.413947E0,6.014284E0,0E0,5.2686405E0,5.854149E-1,0E0,5.56737E0,8.105214E0,4.5687466E0,8.462389E0,6.8818474E-1,0E0,0E0,0E0,7.37325E0,3.9070964E-1,0E0,0E0,1.0615727E0,7.209524E0,1.7894194E0,2.7736025E0,6.6452737E0,4.5358787E0,4.4878387E-1,0E0,5.979702E0,6.642502E0,0E0,8.271694E0,4.057456E0,0E0,0E0,6.5691667E0,2.6477277E0,6.623697E-1,0E0,0E0,0E0,0E0,0E0,0E0,0E0,0E0,0E0,0E0,0E0,0E0,0E0,0E0,0E0,0E0,0E0,0E0,0E0,0E0,0E0,0E0,0E0,0E0,0E0,0E0,0E0,0E0,0E0,0E0,0E0,0E0],"parents":[2147483647,0,0,1,1,2,2,3,3,4,4,5,5,6,6,7,7,8,8,9,9,10,10,11,11,12,12,13,13,14,14,15,15,16,16,17,17,18,18,20,20,21,21,23,23,24,24,25,25,26,26,27,27,31,31,32,32,35,35,36,36,37,37,38,38,39,39,40,40,41,41,43,43,44,44,46,46,47,47,50,50,51,51,52,52],"right_children":[2,4,6,8,10,12,14,16,18,20,22,24,26,28,30,32,34,36,38,-1,40,42,-1,44,46,48,50,52,-1,-1,-1,54,56,-1,-1,58,60,62,64,66,68,70,-1,72,74,-1,76,78,-1,-1,80,82,84,-1,-1,-1,-1,-1,-1,-1,-1,-1,-1,-1,-1,-1,-1,-1,-1,-1,-1,-1,-1,-1,-1,-1,-1,-1,-1,-1,-1,-1,-1,-1,-1],"split_conditions":[1.2E1,-1.1633083E-1,2.2904053E-1,3.8215342E-1,-1.8118034E-1,4E0,4.3864012E-1,2.0628226E-1,3.72044E-2,-7.6491736E-2,3.2705754E-1,2.7308935E-1,1.7E1,2.0286421E-1,2.925018E-1,1.8067753E-2,3.7450243E-2,2.9111567E-1,-3.694283E-2,-2.854403E-1,-1.3363872E-1,9.119E1,7.916856E-2,-2.4377361E-1,-1.0986077E-1,2.0618698E-1,2.322353E2,-2.7233273E-1,8.520892E-2,3.437289E-1,-2.0416121E-1,9.018558E-2,-1.2204253E-1,-1.2813044E-2,-2.95635E-1,-1.4211217E-2,-1.6536884E-1,4.8385677E-1,3.5200036E-1,2.0423964E-1,-4.4130194E-1,1.7712478E-1,-4.121492E-2,-2.9643932E-1,-1.7766003E-1,-2.4731924E-1,-1.2577815E-1,-2.4258536E-1,3.1020132E-1,5.283859E-1,5E0,4.332175E-2,-4.1615315E-2,2.5301966E-1,-2.4603711E-1,-2.6154128E-1,-2.681082E-2,1.2804778E-1,-1.760226E-1,9.8008496E-1,9.794211E-2,-2.7769327E-1,6.950951E-2,4.6763298E-1,-5.1804673E-2,3.3267683E-1,-7.51528E-2,2.3475845E-1,-1.5083079E-1,-3.0789667E-1,-4.713606E-2,-2.7892524E-1,1.4976418E-1,-1.2245689E-1,4.1544408E-2,-2.4317326E-1,3.6291355E-1,-2.5031933E-1,-7.818495E-2,3.782187E-2,-6.390021E-2,-2.4438374E-1,1.9027357E-1,-4.19494E-2,-3.1986493E-1],"split_indices":[106,81,3,67,31,105,28,69,4,77,38,34,106,13,34,10,57,69,102,0,79,2,0,75,58,95,1,59,0,0,0,41,31,0,0,4,65,67,29,24,64,55,0,43,48,0,76,72,0,0,107,69,82,0,0,0,0,0,0,0,0,0,0,0,0,0,0,0,0,0,0,0,0,0,0,0,0,0,0,0,0,0,0,0,0],"split_type":[0,0,0,0,0,0,0,0,0,0,0,0,0,0,0,0,0,0,0,0,0,0,0,0,0,0,0,0,0,0,0,0,0,0,0,0,0,0,0,0,0,0,0,0,0,0,0,0,0,0,0,0,0,0,0,0,0,0,0,0,0,0,0,0,0,0,0,0,0,0,0,0,0,0,0,0,0,0,0,0,0,0,0,0,0],"sum_hessian":[6.063654E2,1.2797469E2,4.7839075E2,4.036486E1,8.760983E1,4.5664374E2,2.1747032E1,2.5921898E1,1.4442962E1,6.445926E1,2.3150574E1,1.580507E2,2.9859302E2,1.8908123E1,2.8389108E0,1.5861137E1,1.00607605E1,5.189432E0,9.25353E0,8.014008E0,5.6445248E1,2.195517E1,1.1954046E0,1.392731E2,1.8777601E1,7.0336464E1,2.2825655E2,1.7899286E1,1.0088359E0,1.4306163E0,1.4082946E0,1.0810736E1,5.050401E0,1.0175054E0,9.043255E0,2.195266E0,2.9941664E0,6.7553406E0,2.498189E0,1.3538772E1,4.2906475E1,2.0761597E1,1.1935735E0,3.9998722E1,9.927438E1,2.1239612E0,1.6653639E1,6.898172E1,1.3547485E0,1.6313816E0,2.2662517E2,3.7838068E0,1.4115479E1,7.919641E0,2.8910954E0,4.0371175E0,1.0132841E0,1.0045877E0,1.1906782E0,1.2925444E0,1.701622E0,5.51044E0,1.2449008E0,1.218978E0,1.279211E0,4.7951655E0,8.743607E0,2.061074E0,4.08454E1,1.974097E1,1.0206254E0,2.2566512E0,3.774207E1,3.1957432E1,6.7316956E1,1.615529E0,1.5038111E1,1.5769744E1,5.321197E1,1.141503E2,1.1247487E2,2.7595813E0,1.0242256E0,1.1644478E0,1.2951032E1],"tree_param":{"num_deleted":"0","num_feature":"108","num_nodes":"85","size_leaf_vector":"1"}},{"base_weights":[-8.9718744E-2,-3.1740218E-1,-3.261608E-2,-8.6990386E-2,-4.5157734E-1,4.6426742E-4,-6.152692E-1,-3.8483453E-1,3.5063034E-1,-2.8442255E-1,-8.525437E-1,-2.9233593E-1,4.6149455E-2,-7.693429E-1,6.293011E-1,1.0678067E-1,-7.351412E-1,-6.8014777E-1,6.4955306E-1,-3.6176527E-1,6.0687494E-1,-9.265666E-1,7.17298E-2,-5.108792E-1,1.058801E-1,-3.9689353E-1,8.5650645E-2,-8.9399266E-1,1.6341786E-1,3.2600093E-1,-5.9701998E-2,9.1532177E-1,-3.6770898E-1,-8.807216E-1,1.6802305E-1,-2.3716329E-1,-4.270555E-2,1.102927E0,-2.7436376E-1,-4.4802155E-2,-6.807828E-1,-1.9069454E-1,1.354306E0,-3.0474347E-1,4.6483323E-2,-5.6848235E-2,-8.726373E-1,-6.898909E-1,3.7845606E-1,-5.671756E-1,9.835725E-1,-1.6258802E-1,1.6226542E-1,7.961914E-2,-1.0778419E0,-6.155184E-2,4.138635E-1,1.503129E-1,-2.2401984E-1,-2.944489E-1,-2.2817738E-2,4.2836913E-1,-1.807473E-1,1.808584E-1,-2.4453545E-1,-8.824555E-2,2.7563938E-1,-2.5448108E-1,1.445628E-1,5.6868833E-1,7.497703E-2,-2.2401115E-1,9.423907E-2,-2.8167093E-1,3.4477185E-2,1.1568581E-1,-2.9491022E-1,-5.3915907E-2,3.5280102E-1,-2.0634906E-1,1.5979E-1,-8.024056E-2,5.0711745E-1,-9.469017E-2,1.3863793E-1,1.2075115E-1,1.39102E-2,2.3667596E-1,-2.092556E-1,-8.63055E-2,-3.3266717E-1],"categories":[],"categories_nodes":[],"categories_segments":[],"categories_sizes":[],"default_left":[0,0,0,0,0,0,0,0,0,0,0,0,0,0,0,0,0,0,0,0,0,0,0,0,0,0,0,0,0,0,0,0,0,0,0,0,0,0,0,0,0,0,0,0,0,0,0,0,0,0,0,0,0,0,0,0,0,0,0,0,0,0,0,0,0,0,0,0,0,0,0,0,0,0,0,0,0,0,0,0,0,0,0,0,0,0,0,0,0,0,0],"id":7,"left_children":[1,3,5,7,9,11,13,15,17,19,21,23,25,27,29,31,33,35,37,39,41,43,-1,45,47,49,51,53,-1,-1,-1,55,57,59,-1,-1,-1,61,63,65,67,-1,69,-1,-1,71,73,75,77,79,81,83,85,87,89,-1,-1,-1,-1,-1,-1,-1,-1,-1,-1,-1,-1,-1,-1,-1,-1,-1,-1,-1,-1,-1,-1,-1,-1,-1,-1,-1,-1,-1,-1,-1,-1,-1,-1,-1,-1],"loss_changes":[7.5983524E0,3.5849257E0,9.039882E0,5.919718E0,4.7070684E0,5.9633913E0,5.3159275E0,4.7084904E0,6.140998E0,3.9159184E0,1.9368429E0,5.290577E0,6.7827563E0,4.233341E0,1.4762126E0,4.963087E0,3.4772825E0,1.6333699E-1,6.5229397E0,5.02189E0,5.183893E0,2.0959225E0,0E0,6.3596125E0,5.065437E0,8.020132E0,6.7758045E0,3.8928852E0,0E0,0E0,0E0,2.7519243E0,3.1114292E0,1.1104822E0,0E0,0E0,0E0,6.4915466E0,3.1900876E0,6.5495944E0,5.244279E0,0E0,1.4547987E0,0E0,0E0,4.9367366E0,1.5245628E0,2.2724354E0,7.843312E0,4.2004395E0,3.8579016E0,8.195883E0,7.5459375E0,2.9257956E0,1.2158966E-1,0E0,0E0,0E0,0E0,0E0,0E0,0E0,0E0,0E0,0E0,0E0,0E0,0E0,0E0,0E0,0E0,0E0,0E0,0E0,0E0,0E0,0E0,0E0,0E0,0E0,0E0,0E0,0E0,0E0,0E0,0E0,0E0,0E0,0E0,0E0,0E0],"parents":[2147483647,0,0,1,1,2,2,3,3,4,4,5,5,6,6,7,7,8,8,9,9,10,10,11,11,12,12,13,13,14,14,15,15,16,16,17,17,18,18,19,19,20,20,21,21,23,23,24,24,25,25,26,26,27,27,31,31,32,32,33,33,37,37,38,38,39,39,40,40,42,42,45,45,46,46,47,47,48,48,49,49,50,50,51,51,52,52,53,53,54,54],"right_children":[2,4,6,8,10,12,14,16,18,20,22,24,26,28,30,32,34,36,38,40,42,44,-1,46,48,50,52,54,-1,-1,-1,56,58,60,-1,-1,-1,62,64,66,68,-1,70,-1,-1,72,74,76,78,80,82,84,86,88,90,-1,-1,-1,-1,-1,-1,-1,-1,-1,-1,-1,-1,-1,-1,-1,-1,-1,-1,-1,-1,-1,-1,-1,-1,-1,-1,-1,-1,-1,-1,-1,-1,-1,-1,-1,-1],"split_conditions":[1.2E1,1.9581154E-1,-5.0218523E-2,-2.3913814E-1,-2.0148277E-1,-1.8632263E-1,4.0876767E-1,-1.2714651E-1,1.05585635E-1,-2.0938975E-1,1.965143E-2,-5.9377234E-2,3.062732E-2,2.7049643E-1,2.0819381E-1,3.360834E-2,4.8385677E-1,4.254181E-1,8.6275585E-2,2.603237E-1,-3.0753866E-1,2.9261586E-1,7.17298E-2,-1.9179712E-1,1.2752636E-2,2.1309029E-1,-4.6599662E-1,-6.023775E-1,1.6341786E-1,3.2600093E-1,-5.9701998E-2,-1.5503559E-1,1.7052947E-1,-5.0463915E-2,1.6802305E-1,-2.3716329E-1,-4.270555E-2,1.2049314E-1,1.2611E2,2.336982E-1,7.524E1,-1.9069454E-1,-1.44791575E-2,-3.0474347E-1,4.6483323E-2,3.5924798E-1,-5.753979E-2,1.0217819E-1,5.204E1,4.2007416E-1,-2.614848E-2,4.2421E0,1.387915E-1,2.0618698E-1,-1.744751E-1,-6.155184E-2,4.138635E-1,1.503129E-1,-2.2401984E-1,-2.944489E-1,-2.2817738E-2,4.2836913E-1,-1.807473E-1,1.808584E-1,-2.4453545E-1,-8.824555E-2,2.7563938E-1,-2.5448108E-1,1.445628E-1,5.6868833E-1,7.497703E-2,-2.2401115E-1,9.423907E-2,-2.8167093E-1,3.4477185E-2,1.1568581E-1,-2.9491022E-1,-5.3915907E-2,3.5280102E-1,-2.0634906E-1,1.5979E-1,-8.024056E-2,5.0711745E-1,-9.469017E-2,1.3863793E-1,1.2075115E-1,1.39102E-2,2.3667596E-1,-2.092556E-1,-8.63055E-2,-3.3266717E-1],"split_indices":[106,17,35,92,9,21,100,15,17,9,85,55,57,62,33,4,67,100,63,67,101,62,0,14,4,81,86,44,0,0,0,41,28,70,0,0,0,3,1,67,2,0,79,0,0,100,48,38,2,33,82,0,83,95,42,0,0,0,0,0,0,0,0,0,0,0,0,0,0,0,0,0,0,0,0,0,0,0,0,0,0,0,0,0,0,0,0,0,0,0,0],"split_type":[0,0,0,0,0,0,0,0,0,0,0,0,0,0,0,0,0,0,0,0,0,0,0,0,0,0,0,0,0,0,0,0,0,0,0,0,0,0,0,0,0,0,0,0,0,0,0,0,0,0,0,0,0,0,0,0,0,0,0,0,0,0,0,0,0,0,0,0,0,0,0,0,0,0,0,0,0,0,0,0,0,0,0,0,0,0,0,0,0,0,0],"sum_hessian":[5.8422504E2,1.1622937E2,4.679957E2,4.338131E1,7.284806E1,4.437981E2,2.4197598E1,2.5884779E1,1.7496529E1,5.2620834E1,2.0227224E1,5.9170498E1,3.846276E2,2.1871782E1,2.3258145E0,1.1059384E1,1.4825396E1,3.6465988E0,1.3849931E1,4.896591E1,3.6549242E0,1.9084356E1,1.1428674E0,3.802128E1,2.1149218E1,3.0745071E1,3.5388254E2,2.0268805E1,1.6029785E0,1.2974713E0,1.0283432E0,3.7463882E0,7.312996E0,1.3615101E1,1.2102948E0,2.6356025E0,1.0109965E0,9.160864E0,4.6890664E0,2.5134102E1,2.3831808E1,1.4289707E0,2.2259533E0,1.7685703E1,1.3986543E0,1.73735E1,2.0647778E1,5.0053525E0,1.6143866E1,2.7893515E1,2.851556E0,8.3196465E1,2.7068607E2,3.309514E0,1.695929E1,1.2609253E0,2.485463E0,2.123603E0,5.189393E0,1.1904445E1,1.7106562E0,7.8313227E0,1.3295418E0,1.7444019E0,2.9446642E0,2.0519129E1,4.6149745E0,2.1067345E1,2.7644634E0,1.0129759E0,1.2129774E0,5.7214127E0,1.1652087E1,1.9395597E1,1.2521818E0,1.0044972E0,4.0008554E0,9.952862E0,6.191004E0,2.5473534E1,2.4199817E0,1.253861E0,1.5976952E0,6.722266E1,1.5973808E1,8.728505E1,1.8340102E2,1.7223493E0,1.5871648E0,1.0293366E0,1.5929954E1],"tree_param":{"num_deleted":"0","num_feature":"108","num_nodes":"91","size_leaf_vector":"1"}},{"base_weights":[-7.3179014E-2,2.858399E-3,-2.2653769E-1,-1.2776224E-1,1.58076E-1,-9.077425E-2,-5.0993985E-1,-3.885968E-1,2.4721745E-2,1.1964126E0,7.993154E-2,-4.4423655E-1,4.054133E-2,-3.1093488E-2,-6.698873E-1,-6.617689E-1,-4.0124465E-2,-9.4806254E-2,4.4189596E-1,1.5144377E0,-2.0926644E-1,-4.044003E-1,1.8418427E-1,-8.160858E-1,-1.4088146E-1,1.0158731E0,-4.7947757E-2,-7.083691E-1,5.158002E-1,-5.478098E-2,-8.0382127E-1,-8.3948326E-1,7.726802E-3,-8.4488285E-1,2.5334826E-1,-4.6284696E-1,7.167845E-2,-3.7231275E-1,7.3701173E-1,-1.1784253E-2,1.9045969E0,3.4686455E-1,-6.1605537E-1,-1.4293031E-1,3.5218433E-1,-9.1273826E-1,6.333449E-2,-5.711893E-1,4.9367282E-1,2.0879886E0,1.1790973E-1,1.4889897E-1,-3.8559464E-1,-8.734232E-1,3.500137E-2,-2.3211414E-1,9.965967E-1,-8.491026E-1,9.192848E-1,3.4291903E-3,-9.270209E-1,-2.7233908E-1,7.870169E-2,-1.9144145E-1,1.6946076E-1,-3.0246425E-1,5.103621E-2,-9.206003E-2,2.996986E-1,-1.8303192E-1,1.7339621E-1,1.3164887E-1,-6.266246E-2,3.0526938E-2,-2.6883736E-1,5.709255E-1,1.26449E-1,-1.7651068E-1,1.7977995E-1,1.8894501E-2,6.584424E-1,-1.3994631E-1,3.66934E-1,9.956671E-2,-2.5862196E-1,-1.5593036E-1,1.16440624E-1,1.2813379E-2,1.9428575E-1,-1.3735524E-1,-3.4470657E-1,-2.3674668E-1,6.4868726E-2,3.3986813E-1,-1.8741421E-1,1.7873946E-1,7.624194E-1,3.1996873E-1,-1.8506539E-1,-9.022182E-2,1.0484736E-1,7.735178E-2,-1.6499366E-1,-7.852518E-2,-2.8883824E-1,-1.7053999E-1,4.006314E-1,-6.2140908E-2,-2.8319135E-1,4.9407315E-1,-9.613111E-2,-2.174839E-1,1.4741635E-1,-3.2099617E-1,-1.5505867E-1],"categories":[],"categories_nodes":[],"categories_segments":[],"categories_sizes":[],"default_left":[0,0,0,0,0,0,0,0,0,0,0,0,0,0,0,0,0,0,0,0,0,0,0,0,0,0,0,0,0,0,0,0,0,0,0,0,0,0,0,0,0,0,0,0,0,0,0,0,0,0,0,0,0,0,0,0,0,0,0,0,0,0,0,0,0,0,0,0,0,0,0,0,0,0,0,0,0,0,0,0,0,0,0,0,0,0,0,0,0,0,0,0,0,0,0,0,0,0,0,0,0,0,0,0,0,0,0,0,0,0,0,0,0,0,0],"id":8,"left_children":[1,3,5,7,9,11,13,15,17,19,21,23,25,27,29,31,33,35,37,39,-1,41,43,45,47,49,51,53,55,57,59,61,63,65,67,69,71,73,75,77,79,81,83,85,87,89,-1,91,93,95,97,99,101,103,-1,-1,105,107,109,111,113,-1,-1,-1,-1,-1,-1,-1,-1,-1,-1,-1,-1,-1,-1,-1,-1,-1,-1,-1,-1,-1,-1,-1,-1,-1,-1,-1,-1,-1,-1,-1,-1,-1,-1,-1,-1,-1,-1,-1,-1,-1,-1,-1,-1,-1,-1,-1,-1,-1,-1,-1,-1,-1,-1],"loss_changes":[6.651034E0,7.770339E0,7.227607E0,8.28755E0,1.4114386E1,6.0072536E0,4.652359E0,7.2884626E0,6.6381593E0,8.396387E0,8.352447E0,3.8372588E0,8.247778E0,6.4126062E0,3.7200012E0,5.1239624E0,8.440605E0,6.3839846E0,7.3959002E0,6.4233437E0,0E0,4.8808026E0,7.5018234E0,1.7347937E0,5.8807087E0,7.404729E0,5.9098005E0,1.1525133E0,6.729989E0,7.931834E0,3.727335E0,2.7971897E0,3.9635913E0,1.7528672E0,1.1290063E1,5.321182E0,7.5318537E0,2.2140841E0,7.324586E0,1.4737945E0,4.44046E0,5.624562E0,5.710582E0,9.551546E0,8.189263E0,1.0200176E0,0E0,2.3472714E0,7.014591E0,8.96122E-1,4.4114337E0,5.187122E0,3.601252E0,1.0587263E-1,0E0,0E0,4.703573E0,1.461873E-1,4.705838E0,2.4725764E0,1.3522491E0,0E0,0E0,0E0,0E0,0E0,0E0,0E0,0E0,0E0,0E0,0E0,0E0,0E0,0E0,0E0,0E0,0E0,0E0,0E0,0E0,0E0,0E0,0E0,0E0,0E0,0E0,0E0,0E0,0E0,0E0,0E0,0E0,0E0,0E0,0E0,0E0,0E0,0E0,0E0,0E0,0E0,0E0,0E0,0E0,0E0,0E0,0E0,0E0,0E0,0E0,0E0,0E0,0E0,0E0],"parents":[2147483647,0,0,1,1,2,2,3,3,4,4,5,5,6,6,7,7,8,8,9,9,10,10,11,11,12,12,13,13,14,14,15,15,16,16,17,17,18,18,19,19,21,21,22,22,23,23,24,24,25,25,26,26,27,27,28,28,29,29,30,30,31,31,32,32,33,33,34,34,35,35,36,36,37,37,38,38,39,39,40,40,41,41,42,42,43,43,44,44,45,45,47,47,48,48,49,49,50,50,51,51,52,52,53,53,56,56,57,57,58,58,59,59,60,60],"right_children":[2,4,6,8,10,12,14,16,18,20,22,24,26,28,30,32,34,36,38,40,-1,42,44,46,48,50,52,54,56,58,60,62,64,66,68,70,72,74,76,78,80,82,84,86,88,90,-1,92,94,96,98,100,102,104,-1,-1,106,108,110,112,114,-1,-1,-1,-1,-1,-1,-1,-1,-1,-1,-1,-1,-1,-1,-1,-1,-1,-1,-1,-1,-1,-1,-1,-1,-1,-1,-1,-1,-1,-1,-1,-1,-1,-1,-1,-1,-1,-1,-1,-1,-1,-1,-1,-1,-1,-1,-1,-1,-1,-1,-1,-1,-1,-1],"split_conditions":[1.6005257E-1,-2.0634894E-1,-1.4826797E-1,-1.9308999E-1,-2.0246838E-1,-1.9960815E-1,-1.3545342E-1,-4.079309E-2,1.8302883E-1,1.1967287E-2,-2.6930112E-1,-1.3895078E-1,-1.0126149E-1,-1.7857635E-1,-3.67556E-2,1.6604398E-1,6.1918456E-2,-6.978684E-3,-1.00233685E-2,-9.5537625E-2,-2.0926644E-1,1.667906E-1,-5.4412868E-2,4.0618187E-1,1.3488616E-1,-1.4188334E-1,2.8484884E-1,9.779E1,2.578884E-1,-1.0820011E-2,-8.3868146E-2,1.7731564E-1,1.9259368E-1,2.751402E-1,-2.201557E-1,-7.166278E-2,-2.754507E-1,-4.6072453E-1,1.4499126E-1,-1.8399228E-1,1.776317E-1,1.4232326E-1,4.6295968E-1,9.3409814E-2,-1.1004263E-1,5.3275675E-2,6.333449E-2,3.5957408E-1,-7.3860005E-2,-9.643154E-2,-3.1893232E-1,-2.1738811E-1,2E0,-1.3797077E-2,3.500137E-2,-2.3211414E-1,1.5619543E-1,1.511626E2,-4.408959E-2,7.300889E-2,-1.9029897E-1,-2.7233908E-1,7.870169E-2,-1.9144145E-1,1.6946076E-1,-3.0246425E-1,5.103621E-2,-9.206003E-2,2.996986E-1,-1.8303192E-1,1.7339621E-1,1.3164887E-1,-6.266246E-2,3.0526938E-2,-2.6883736E-1,5.709255E-1,1.26449E-1,-1.7651068E-1,1.7977995E-1,1.8894501E-2,6.584424E-1,-1.3994631E-1,3.66934E-1,9.956671E-2,-2.5862196E-1,-1.5593036E-1,1.16440624E-1,1.2813379E-2,1.9428575E-1,-1.3735524E-1,-3.4470657E-1,-2.3674668E-1,6.4868726E-2,3.3986813E-1,-1.8741421E-1,1.7873946E-1,7.624194E-1,3.1996873E-1,-1.8506539E-1,-9.022182E-2,1.0484736E-1,7.735178E-2,-1.6499366E-1,-7.852518E-2,-2.8883824E-1,-1.7053999E-1,4.006314E-1,-6.2140908E-2,-2.8319135E-1,4.9407315E-1,-9.613111E-2,-2.174839E-1,1.4741635E-1,-3.2099617E-1,-1.5505867E-1],"split_indices":[40,43,85,65,43,18,15,22,57,66,92,22,52,70,94,50,12,24,90,55,0,87,66,82,24,60,40,2,73,66,76,21,83,99,75,85,96,86,62,31,47,87,89,88,60,88,0,28,37,13,32,6,107,58,0,0,24,1,84,94,9,0,0,0,0,0,0,0,0,0,0,0,0,0,0,0,0,0,0,0,0,0,0,0,0,0,0,0,0,0,0,0,0,0,0,0,0,0,0,0,0,0,0,0,0,0,0,0,0,0,0,0,0,0,0],"split_type":[0,0,0,0,0,0,0,0,0,0,0,0,0,0,0,0,0,0,0,0,0,0,0,0,0,0,0,0,0,0,0,0,0,0,0,0,0,0,0,0,0,0,0,0,0,0,0,0,0,0,0,0,0,0,0,0,0,0,0,0,0,0,0,0,0,0,0,0,0,0,0,0,0,0,0,0,0,0,0,0,0,0,0,0,0,0,0,0,0,0,0,0,0,0,0,0,0,0,0,0,0,0,0,0,0,0,0,0,0,0,0,0,0,0,0],"sum_hessian":[5.6931024E2,3.812583E2,1.8805193E2,2.0712923E2,1.7412906E2,1.2803651E2,6.001542E1,7.584411E1,1.3128511E2,1.1185998E1,1.6294307E2,3.403676E1,9.399975E1,1.5326313E1,4.4689106E1,4.2011597E1,3.383251E1,1.0264749E2,2.8637629E1,9.7493305E0,1.4366683E0,2.8351255E1,1.3459181E2,1.4532627E1,1.9504133E1,6.947192E0,8.705256E1,6.7150745E0,8.6112385E0,8.242687E0,3.644642E1,3.2998425E1,9.013172E0,8.53874E0,2.5293774E1,3.1416418E1,7.123107E1,7.548935E0,2.1088694E1,2.182325E0,7.567005E0,6.091346E0,2.225991E1,4.5719723E1,8.8872086E1,1.3384656E1,1.1479716E0,1.1682073E1,7.82206E0,2.5624857E0,4.384706E0,5.5345417E1,3.170714E1,5.546768E0,1.1683066E0,2.173255E0,6.4379835E0,4.6109147E0,3.6317732E0,4.954544E0,3.1491875E1,3.123776E1,1.7606645E0,4.1068945E0,4.906277E0,7.3609304E0,1.1778094E0,1.47787485E1,1.0515025E1,2.788502E1,3.5313993E0,3.060939E1,4.062168E1,4.385569E0,3.1633656E0,3.4194598E0,1.7669233E1,1.1419271E0,1.0403978E0,1.1957915E0,6.371214E0,3.4015694E0,2.6897764E0,4.5147667E0,1.7745144E1,2.6755577E1,1.8964144E1,4.3963806E1,4.4908283E1,5.579963E0,7.8046923E0,9.147683E0,2.5343893E0,4.9690166E0,2.853043E0,1.1364427E0,1.4260432E0,1.7167687E0,2.6679375E0,1.6919708E1,3.842571E1,6.336449E0,2.5370691E1,1.2079722E0,4.3387957E0,1.0251715E0,5.4128118E0,1.0035298E0,3.6073847E0,2.0815845E0,1.5501887E0,1.7927847E0,3.1617594E0,2.2159258E1,9.332618E0],"tree_param":{"num_deleted":"0","num_feature":"108","num_nodes":"115","size_leaf_vector":"1"}},{"base_weights":[-6.381897E-2,-2.766058E-2,-3.5792637E-1,-1.4110491E-2,-8.557435E-1,-5.949743E-1,1.11829236E-1,2.2667332E-3,-6.560174E-1,-1.6376605E-2,-2.899721E-1,-6.5084165E-1,2.2170617E-1,4.4216165E-1,-8.0788845E-1,-6.498743E-1,1.8512715E-2,-8.5929215E-1,2.3411228E-1,-2.0967397E-1,-8.1396186E-1,-2.969513E-1,9.8660654E-1,-2.7494982E-2,-2.8060046E-1,-8.52102E-1,8.332333E-2,4.526517E-1,1.1168343E-2,-2.9700963E-2,-2.893164E-1,-6.5465605E-1,4.4782054E-1,-2.5000328E-1,-1.0082326E0,2.272379E-1,-6.76122E-1,1.3109848E0,-9.628125E-2,-2.97066E-1,5.2801266E-2,2.3457397E-2,-3.988039E-2,-2.89633E-1,6.685636E-2,-2.1330963E-1,3.7268665E-1,-1.8181492E-1,1.9244987E-1,-2.2956787E-2,-3.1604284E-1,7.308346E-2,-2.712393E-1,4.8433968E-1,-1.0492883E-2,9.997043E-2,-1.3721667E-1],"categories":[],"categories_nodes":[],"categories_segments":[],"categories_sizes":[],"default_left":[0,0,0,0,0,0,0,0,0,0,0,0,0,0,0,0,0,0,0,0,0,0,0,0,0,0,0,0,0,0,0,0,0,0,0,0,0,0,0,0,0,0,0,0,0,0,0,0,0,0,0,0,0,0,0,0,0],"id":9,"left_children":[1,3,5,7,9,11,13,15,17,-1,-1,19,-1,21,23,25,27,29,-1,31,33,35,37,-1,-1,39,-1,-1,41,-1,-1,43,45,47,49,-1,51,53,55,-1,-1,-1,-1,-1,-1,-1,-1,-1,-1,-1,-1,-1,-1,-1,-1,-1,-1],"loss_changes":[5.882459E0,5.536551E0,6.812248E0,5.1270256E0,6.526561E-1,3.4933577E0,6.7854853E0,5.0596046E0,4.213261E0,0E0,0E0,2.6594353E0,0E0,6.8174534E0,4.56949E-1,2.4141798E0,5.0817633E0,7.918472E-1,0E0,3.7931693E0,2.8555336E0,3.569009E0,3.4870186E0,0E0,0E0,1.5624747E0,0E0,0E0,4.4970293E0,0E0,0E0,2.2716124E0,5.8754125E0,3.1176355E0,7.94796E-1,0E0,1.5103867E0,3.0917215E0,6.389648E-1,0E0,0E0,0E0,0E0,0E0,0E0,0E0,0E0,0E0,0E0,0E0,0E0,0E0,0E0,0E0,0E0,0E0,0E0],"parents":[2147483647,0,0,1,1,2,2,3,3,4,4,5,5,6,6,7,7,8,8,11,11,13,13,14,14,15,15,16,16,17,17,19,19,20,20,21,21,22,22,25,25,28,28,31,31,32,32,33,33,34,34,36,36,37,37,38,38],"right_children":[2,4,6,8,10,12,14,16,18,-1,-1,20,-1,22,24,26,28,30,-1,32,34,36,38,-1,-1,40,-1,-1,42,-1,-1,44,46,48,50,-1,52,54,56,-1,-1,-1,-1,-1,-1,-1,-1,-1,-1,-1,-1,-1,-1,-1,-1,-1,-1],"split_conditions":[3.710241E-1,2.822549E-1,-8.0987215E-2,-1.3508314E-2,-1.2250438E-1,1.7549971E-1,-7.567985E-2,-7.4435845E-2,1.4523855E-1,-1.6376605E-2,-2.899721E-1,-1.2516968E-1,2.2170617E-1,-2.0680897E-1,-6.9573626E-2,-1.2355625E-1,-6.6905305E-2,-3.5118827E-1,2.3411228E-1,-2.9738697E-1,3E0,-1.7971143E-1,8.0431715E-2,-2.7494982E-2,-2.8060046E-1,3.0932477E-1,8.332333E-2,4.526517E-1,5E0,-2.9700963E-2,-2.893164E-1,-1.6031349E-1,-2.4593933E-2,-4.593141E-2,-6.3855864E-2,2.272379E-1,5.092982E-1,5.895621E-1,2.6642326E-1,-2.97066E-1,5.2801266E-2,2.3457397E-2,-3.988039E-2,-2.89633E-1,6.685636E-2,-2.1330963E-1,3.7268665E-1,-1.8181492E-1,1.9244987E-1,-2.2956787E-2,-3.1604284E-1,7.308346E-2,-2.712393E-1,4.8433968E-1,-1.0492883E-2,9.997043E-2,-1.3721667E-1],"split_indices":[36,27,14,32,38,53,68,82,66,0,0,61,0,64,26,32,82,26,0,86,105,12,84,0,0,19,0,0,107,0,0,14,3,68,20,0,89,89,83,0,0,0,0,0,0,0,0,0,0,0,0,0,0,0,0,0,0],"split_type":[0,0,0,0,0,0,0,0,0,0,0,0,0,0,0,0,0,0,0,0,0,0,0,0,0,0,0,0,0,0,0,0,0,0,0,0,0,0,0,0,0,0,0,0,0,0,0,0,0,0,0,0,0,0,0,0,0],"sum_hessian":[5.530822E2,4.9350357E2,5.9578663E1,4.8655893E2,6.944623E0,3.942E1,2.0158667E1,4.754257E2,1.1133253E1,1.025337E0,5.919286E0,3.8326984E1,1.0930139E0,1.521366E1,4.945006E0,1.060782E1,4.6481787E2,1.010499E1,1.0282637E0,1.0962818E1,2.7364164E1,6.645975E0,8.567685E0,1.0066783E0,3.9383276E0,8.775997E0,1.831822E0,1.27685E0,4.6354102E2,1.4630381E0,8.641952E0,6.5405755E0,4.422243E0,7.5970836E0,1.9767082E1,1.4939296E0,5.1520452E0,6.4307275E0,2.136958E0,7.769126E0,1.0068713E0,3.1669983E2,1.4684119E2,4.755955E0,1.78462E0,1.8413604E0,2.5808825E0,5.6577125E0,1.9393715E0,1.0400677E0,1.8727015E1,1.0099044E0,4.142141E0,5.084753E0,1.3459743E0,1.0112836E0,1.1256742E0],"tree_param":{"num_deleted":"0","num_feature":"108","num_nodes":"57","size_leaf_vector":"1"}},{"base_weights":[-5.0070886E-2,-1.9134682E-1,1.6326968E-2,-7.2001183E-1,-1.1127594E-1,1.0249025E-1,-1.5337798E-1,-8.54011E-1,1.6464628E-1,-1.6354445E-1,6.774567E-1,3.431839E-2,9.55531E-1,-7.9304075E-1,-4.316863E-2,4.6349283E-2,-9.341435E-1,-3.1548765E-1,6.7785636E-2,-4.1279337E-1,1.2052017E0,-1.01066135E-1,2.5853613E-1,1.3374784E0,-4.151935E-1,-9.150438E-1,1.556814E-1,9.112998E-1,-1.2147954E-1,-9.7940737E-1,-1.46941105E-2,-4.502092E-1,4.8088536E-2,3.8793436E-1,-4.6827355E-1,8.243764E-2,-2.2444688E-1,-2.82242E-1,1.9854273E0,1.2304914E-1,-2.7164176E-1,-1.563471E-1,4.8380616E-1,1.5256598E0,-1.6846237E-1,-2.706054E-1,1.8288076E-1,-2.001847E-1,-1.073833E0,1.3587353E0,-5.863976E-2,1.3665038E-1,-3.4317544E-1,-6.216706E-2,-3.0414522E-1,-2.4654754E-1,-6.056575E-2,1.0239768E-1,-2.0530233E-1,-2.0323381E-1,1.6202247E-1,-1.9936766E-1,1.9324599E-1,-1.8550019E-1,6.834987E-2,5.4542482E-2,7.496752E-1,-1.8209865E-2,1.6910237E-1,-1.7899254E-2,-1.6700521E-1,8.891884E-2,-1.6083115E-1,-9.0056755E-2,1.9986558E-1,1.07858025E-1,5.634643E-1,-2.407754E-1,2.3290901E-1,-3.412867E-1,-4.1186184E-2,6.5345414E-2,4.6936163E-1,2.1648946E-1,-2.4422538E-1,1.3167003E-1,-1.01133265E-1,-1.7009993E-1,3.335778E-2],"categories":[],"categories_nodes":[],"categories_segments":[],"categories_sizes":[],"default_left":[0,0,0,0,0,0,0,0,0,0,0,0,0,0,0,0,0,0,0,0,0,0,0,0,0,0,0,0,0,0,0,0,0,0,0,0,0,0,0,0,0,0,0,0,0,0,0,0,0,0,0,0,0,0,0,0,0,0,0,0,0,0,0,0,0,0,0,0,0,0,0,0,0,0,0,0,0,0,0,0,0,0,0,0,0,0,0,0,0],"id":10,"left_children":[1,3,5,7,9,11,13,15,-1,17,19,21,23,25,27,-1,29,31,33,35,37,39,41,43,45,47,-1,49,51,53,-1,55,57,59,61,-1,-1,63,65,67,69,71,73,75,-1,-1,-1,77,79,81,83,85,87,-1,-1,-1,-1,-1,-1,-1,-1,-1,-1,-1,-1,-1,-1,-1,-1,-1,-1,-1,-1,-1,-1,-1,-1,-1,-1,-1,-1,-1,-1,-1,-1,-1,-1,-1,-1],"loss_changes":[5.1075144E0,7.287809E0,5.4420295E0,4.330244E0,6.3913317E0,1.4315403E1,8.803745E0,1.8360672E0,0E0,5.071663E0,6.057183E0,6.993012E0,1.0095003E1,3.4148922E0,8.183147E0,0E0,7.347069E-1,4.2780514E0,1.0098429E1,1.104104E0,8.412761E0,5.5315166E0,8.17752E0,6.0339375E0,2.9116247E0,1.7336798E0,0E0,3.6846695E0,5.8091655E0,2.8231812E-1,0E0,5.6939697E0,5.473583E0,6.3184505E0,5.244786E0,0E0,0E0,6.900645E-1,3.7712975E0,5.122361E0,4.920052E0,5.533694E0,8.269559E0,4.854471E0,0E0,0E0,0E0,3.1816657E0,6.6930485E-1,1.0036669E0,2.698228E0,6.912256E0,5.600941E0,0E0,0E0,0E0,0E0,0E0,0E0,0E0,0E0,0E0,0E0,0E0,0E0,0E0,0E0,0E0,0E0,0E0,0E0,0E0,0E0,0E0,0E0,0E0,0E0,0E0,0E0,0E0,0E0,0E0,0E0,0E0,0E0,0E0,0E0,0E0,0E0],"parents":[2147483647,0,0,1,1,2,2,3,3,4,4,5,5,6,6,7,7,9,9,10,10,11,11,12,12,13,13,14,14,16,16,17,17,18,18,19,19,20,20,21,21,22,22,23,23,24,24,25,25,27,27,28,28,29,29,31,31,32,32,33,33,34,34,37,37,38,38,39,39,40,40,41,41,42,42,43,43,47,47,48,48,49,49,50,50,51,51,52,52],"right_children":[2,4,6,8,10,12,14,16,-1,18,20,22,24,26,28,-1,30,32,34,36,38,40,42,44,46,48,-1,50,52,54,-1,56,58,60,62,-1,-1,64,66,68,70,72,74,76,-1,-1,-1,78,80,82,84,86,88,-1,-1,-1,-1,-1,-1,-1,-1,-1,-1,-1,-1,-1,-1,-1,-1,-1,-1,-1,-1,-1,-1,-1,-1,-1,-1,-1,-1,-1,-1,-1,-1,-1,-1,-1,-1],"split_conditions":[1.8404E0,-1.7822704E-1,2.2E1,9.808935E-3,4E1,6.997E1,3.362E1,-2.3636003E-1,1.6464628E-1,-1.2651376E-1,-1.8511653E-1,3.3209231E-1,3.060019E-1,3.2E1,1E0,4.6349283E-2,-5.5175293E-2,-3.0569283E-3,-9.789436E-5,5.129775E-2,-1.8997462E-1,-2.1249568E-1,-1.9089012E-1,6E0,-1.6506353E-1,-7.5203516E-2,1.556814E-1,-7.5848974E-2,-1.3790967E-1,3.24E0,-1.46941105E-2,-1.17694765E-1,-1.0773535E-1,-1.1777906E-1,-8.0987215E-2,8.243764E-2,-2.2444688E-1,-4.4773627E-2,-2.0680885E-1,-1.2604539E-1,-1.9244142E-1,-2.4329333E-1,-3.363514E-2,2.8937274E-1,-1.6846237E-1,-2.706054E-1,1.8288076E-1,2.9857317E-1,3.2302132E-1,-2.1869674E-2,4E0,-1.811452E-1,2.73401E-1,-6.216706E-2,-3.0414522E-1,-2.4654754E-1,-6.056575E-2,1.0239768E-1,-2.0530233E-1,-2.0323381E-1,1.6202247E-1,-1.9936766E-1,1.9324599E-1,-1.8550019E-1,6.834987E-2,5.4542482E-2,7.496752E-1,-1.8209865E-2,1.6910237E-1,-1.7899254E-2,-1.6700521E-1,8.891884E-2,-1.6083115E-1,-9.0056755E-2,1.9986558E-1,1.07858025E-1,5.634643E-1,-2.407754E-1,2.3290901E-1,-3.412867E-1,-4.1186184E-2,6.5345414E-2,4.6936163E-1,2.1648946E-1,-2.4422538E-1,1.3167003E-1,-1.01133265E-1,-1.7009993E-1,3.335778E-2],"split_indices":[0,41,106,75,106,2,2,71,0,85,65,5,69,106,107,0,6,42,66,54,39,70,65,107,43,91,0,60,23,2,0,21,65,56,14,0,0,51,16,60,35,65,99,67,0,0,0,5,28,7,105,6,28,0,0,0,0,0,0,0,0,0,0,0,0,0,0,0,0,0,0,0,0,0,0,0,0,0,0,0,0,0,0,0,0,0,0,0,0],"split_type":[0,0,0,0,0,0,0,0,0,0,0,0,0,0,0,0,0,0,0,0,0,0,0,0,0,0,0,0,0,0,0,0,0,0,0,0,0,0,0,0,0,0,0,0,0,0,0,0,0,0,0,0,0,0,0,0,0,0,0,0,0,0,0,0,0,0,0,0,0,0,0,0,0,0,0,0,0,0,0,0,0,0,0,0,0,0,0,0,0],"sum_hessian":[5.431538E2,1.730565E2,3.7009732E2,2.1711954E1,1.5134454E2,2.4573024E2,1.2436707E2,1.993372E1,1.7782332E0,1.4268182E2,8.662729E0,2.285089E2,1.7221352E1,1.7367739E1,1.0699934E2,1.398967E0,1.8534754E1,8.589808E1,5.678374E1,2.8965874E0,5.766142E0,1.428214E2,8.568749E1,1.3487393E1,3.7339587E0,1.6166899E1,1.2008396E0,7.306717E0,9.969262E1,1.7531773E1,1.00298E0,6.250051E1,2.3397568E1,3.572447E1,2.1059275E1,1.0088277E0,1.8877598E0,2.2035291E0,3.562613E0,6.1844284E1,8.097711E1,3.026111E1,5.5426388E1,1.2450255E1,1.0371385E0,2.6126425E0,1.1213162E0,3.349291E0,1.2817609E1,4.7258334E0,2.5808835E0,4.6238632E1,5.3453987E1,1.047493E0,1.648428E1,2.411016E1,3.839035E1,1.7089542E1,6.308024E0,4.0326486E0,3.1691818E1,1.824295E1,2.8163235E0,1.2003611E0,1.0031679E0,1.0895753E0,2.4730377E0,4.425246E1,1.7591825E1,4.7134144E1,3.384297E1,1.390417E1,1.635694E1,1.0340031E1,4.5086353E1,3.3591332E0,9.091122E0,2.1816468E0,1.1676441E0,1.1799248E1,1.0183609E0,1.036751E0,3.6890824E0,1.2915983E0,1.2892852E0,2.8274E1,1.7964632E1,3.5646454E1,1.7807533E1],"tree_param":{"num_deleted":"0","num_feature":"108","num_nodes":"89","size_leaf_vector":"1"}},{"base_weights":[-4.382868E-2,-5.606756E-1,-2.8412567E-2,-8.039283E-1,2.4943587E-1,-8.3758734E-2,1.01495236E-1,-9.165085E-1,6.2253486E-2,4.0518814E-1,-5.1526713E-1,-4.6378557E-2,-4.2286423E-1,-6.8944323E-1,1.559641E-1,-5.9743363E-2,-2.9498345E-1,-4.3468498E-2,-1.8455365E-1,-1.5738423E-1,8.025346E-2,-5.8257437E-1,4.6789688E-1,7.823905E-2,-8.267538E-1,4.014316E-1,9.590838E-3,-4.5947725E-1,-4.7187287E-2,3.3535478E-1,-6.524291E-2,-6.585112E-1,1.6350912E-1,9.657542E-1,-1.9348039E-1,7.991935E-2,-3.0031985E-1,6.085937E-1,-2.1125306E-1,-1.311678E-1,4.3027315E-1,-2.1572296E-1,1.3379799E-1,6.922854E-2,-8.695687E-2,-8.36442E-2,1.4741397E-1,-1.7315593E-1,1.2026222E-2,5.0526705E-2,-2.3728137E-1,-6.369211E-2,4.4857773E-1,2.1731816E-1,-1.9334644E-1,-3.0608073E-1,7.8226686E-2,-6.271443E-2,2.6255187E-1,2.4664679E-1,-9.6656695E-2],"categories":[],"categories_nodes":[],"categories_segments":[],"categories_sizes":[],"default_left":[0,0,0,0,0,0,0,0,0,0,0,0,0,0,0,0,0,0,0,0,0,0,0,0,0,0,0,0,0,0,0,0,0,0,0,0,0,0,0,0,0,0,0,0,0,0,0,0,0,0,0,0,0,0,0,0,0,0,0,0,0],"id":11,"left_children":[1,3,5,7,9,11,13,15,-1,-1,17,19,21,23,25,-1,-1,-1,-1,27,29,31,33,-1,35,37,39,41,43,45,47,49,-1,51,-1,-1,-1,53,55,57,59,-1,-1,-1,-1,-1,-1,-1,-1,-1,-1,-1,-1,-1,-1,-1,-1,-1,-1,-1,-1],"loss_changes":[4.205791E0,3.214161E0,3.7153027E0,1.5563827E0,4.3124866E0,4.5700226E0,6.762721E0,3.3015442E-1,0E0,0E0,3.1442225E-2,4.6127605E0,5.369388E0,1.5383272E0,5.2182555E0,0E0,0E0,0E0,0E0,5.7947955E0,5.720288E0,2.9983492E0,3.9478796E0,0E0,2.0001736E0,7.016575E0,5.5085273E0,1.12710705E1,8.777153E0,5.4959745E0,5.3401947E0,3.3454037E0,0E0,3.1537523E0,0E0,0E0,0E0,6.3891544E0,5.7858844E0,5.6500177E0,7.1406193E0,0E0,0E0,0E0,0E0,0E0,0E0,0E0,0E0,0E0,0E0,0E0,0E0,0E0,0E0,0E0,0E0,0E0,0E0,0E0,0E0],"parents":[2147483647,0,0,1,1,2,2,3,3,4,4,5,5,6,6,7,7,10,10,11,11,12,12,13,13,14,14,19,19,20,20,21,21,22,22,24,24,25,25,26,26,27,27,28,28,29,29,30,30,31,31,33,33,37,37,38,38,39,39,40,40],"right_children":[2,4,6,8,10,12,14,16,-1,-1,18,20,22,24,26,-1,-1,-1,-1,28,30,32,34,-1,36,38,40,42,44,46,48,50,-1,52,-1,-1,-1,54,56,58,60,-1,-1,-1,-1,-1,-1,-1,-1,-1,-1,-1,-1,-1,-1,-1,-1,-1,-1,-1,-1],"split_conditions":[-8.250233E-2,5E0,-1.4324053E-1,1.7467818E-1,8E0,9E0,6.190936E-2,-4.348114E-1,6.2253486E-2,4.0518814E-1,1.2332E2,-6.161591E-2,-8.358651E-2,-8.0357686E-2,4.4735253E-2,-5.9743363E-2,-2.9498345E-1,-4.3468498E-2,-1.8455365E-1,-1.483219E-1,-8.367593E-2,1.168733E-1,3.220577E-1,7.823905E-2,-2.1580656E-1,-1.1570274E-1,1.9055283E-1,3.1119528E-1,-1.4883813E-1,1.4188673E-1,1.3946438E-1,-1.9201891E-2,1.6350912E-1,-6.8509765E-2,-1.9348039E-1,7.991935E-2,-3.0031985E-1,3.42812E-1,1.6819404E-1,1.2535146E-2,8.1346005E-2,-2.1572296E-1,1.3379799E-1,6.922854E-2,-8.695687E-2,-8.36442E-2,1.4741397E-1,-1.7315593E-1,1.2026222E-2,5.0526705E-2,-2.3728137E-1,-6.369211E-2,4.4857773E-1,2.1731816E-1,-1.9334644E-1,-3.0608073E-1,7.8226686E-2,-6.271443E-2,2.6255187E-1,2.4664679E-1,-9.6656695E-2],"split_indices":[38,103,6,11,105,107,5,39,0,0,2,55,75,11,78,0,0,0,0,21,10,10,36,0,84,39,12,97,85,34,47,20,0,61,0,0,0,69,73,23,25,0,0,0,0,0,0,0,0,0,0,0,0,0,0,0,0,0,0,0,0],"split_type":[0,0,0,0,0,0,0,0,0,0,0,0,0,0,0,0,0,0,0,0,0,0,0,0,0,0,0,0,0,0,0,0,0,0,0,0,0,0,0,0,0,0,0,0,0,0,0,0,0,0,0,0,0,0,0,0,0,0,0,0,0],"sum_hessian":[5.288497E2,1.4292833E1,5.145568E2,1.099807E1,3.2947643E0,3.610778E2,1.5347903E2,9.980976E0,1.0170934E0,1.0362818E0,2.2584827E0,3.262513E2,3.4826477E1,9.137436E0,1.443416E2,1.1890067E0,8.791969E0,1.0003649E0,1.2581177E0,1.7372289E2,1.5252841E2,2.9824955E1,5.0015225E0,1.0401175E0,8.097319E0,5.3268303E1,9.107329E1,4.558552E1,1.2813737E2,5.4924114E1,9.76043E1,2.8332926E1,1.4920291E0,3.5468857E0,1.4546369E0,1.0409577E0,7.0563607E0,3.9813248E1,1.3455053E1,6.8756004E1,2.2317286E1,3.5588203E1,9.997318E0,5.9749886E1,6.838748E1,1.0967047E1,4.3957066E1,1.5890575E1,8.171373E1,3.8734546E0,2.445947E1,1.285626E0,2.2612598E0,3.683148E1,2.9817708E0,4.5296874E0,8.925366E0,6.455258E1,4.2034283E0,1.4613791E1,7.703494E0],"tree_param":{"num_deleted":"0","num_feature":"108","num_nodes":"61","size_leaf_vector":"1"}},{"base_weights":[-3.795491E-2,-6.3030496E-2,2.9444128E-1,-2.6250556E-1,-1.6324949E-2,-1.0594734E-1,6.937357E-1,-1.13798216E-1,-6.1091715E-1,-1.1158623E-1,1.1552171E-1,4.4516832E-1,-5.840183E-1,1.3689895E0,-8.649104E-2,-3.6128992E-1,1.5809461E-1,8.1951596E-2,-8.267552E-1,9.478762E-2,-2.0338818E-1,-9.1266155E-2,3.4880006E-1,-2.5957036E-1,1.4300015E0,4.2557597E-1,-9.072734E-1,1.9451001E0,-1.0493482E-1,-6.6680914E-1,8.7223625E-1,-5.6904006E-1,3.2591683E-1,-2.3607887E-1,7.5586617E-1,-6.414687E-1,7.965309E-1,8.853836E-2,-8.9944077E-1,2.1711624E-1,-6.833949E-1,7.491912E-2,-3.4431928E-1,4.444634E-2,-6.128604E-1,-1.8408898E-1,5.02594E-1,-7.0022047E-1,4.5618698E-1,-4.6893883E-2,6.269561E-1,2.6267132E-1,-7.604931E-2,-2.9139885E-1,-6.553294E-2,2.2775266E-2,2.3166049E0,2.1978424E-1,-2.1035047E-1,9.714597E-2,-2.801053E-1,4.253871E-1,-7.19208E-2,-2.275124E-1,1.1394464E-1,3.6607713E-1,-1.3887289E-1,2.0016442E-1,-1.994021E-1,-5.2763715E-2,3.455553E-1,9.976007E-3,-2.634037E-1,3.252799E-1,-1.627983E-2,-2.941855E-1,2.8688692E-2,1.5309222E-1,-3.9167747E-2,1.5347953E-1,-2.6438147E-1,-1.1768938E-2,3.1382608E-1,-2.0362207E-1,-6.2625855E-2,3.774232E-2,-2.1281043E-1,3.5221584E-2,-2.8286058E-1,-1.3011447E-1,1.8054758E-1,1.8100324E-1,-2.2668272E-1,-5.291168E-2,-2.4130838E-1,2.4645399E-1,-3.843257E-2,1.6606188E-1,8.07264E-1],"categories":[],"categories_nodes":[],"categories_segments":[],"categories_sizes":[],"default_left":[0,0,0,0,0,0,0,0,0,0,0,0,0,0,0,0,0,0,0,0,0,0,0,0,0,0,0,0,0,0,0,0,0,0,0,0,0,0,0,0,0,0,0,0,0,0,0,0,0,0,0,0,0,0,0,0,0,0,0,0,0,0,0,0,0,0,0,0,0,0,0,0,0,0,0,0,0,0,0,0,0,0,0,0,0,0,0,0,0,0,0,0,0,0,0,0,0,0,0],"id":12,"left_children":[1,3,5,7,9,11,13,15,17,19,21,23,25,27,29,31,33,35,37,39,41,43,45,47,49,51,53,55,57,59,61,63,65,67,69,71,73,-1,75,77,79,81,83,85,87,89,91,93,95,-1,-1,-1,-1,-1,-1,-1,97,-1,-1,-1,-1,-1,-1,-1,-1,-1,-1,-1,-1,-1,-1,-1,-1,-1,-1,-1,-1,-1,-1,-1,-1,-1,-1,-1,-1,-1,-1,-1,-1,-1,-1,-1,-1,-1,-1,-1,-1,-1,-1],"loss_changes":[4.360528E0,4.516239E0,5.9437203E0,4.696526E0,4.964294E0,5.3190284E0,9.87391E0,4.478159E0,4.1486607E0,4.3648844E0,8.032293E0,6.9554777E0,3.8829067E0,8.683205E0,5.8844333E0,5.139167E0,7.719019E0,4.331873E0,1.9694834E0,6.9358397E0,6.264959E0,6.306699E0,6.49654E0,2.3304455E0,4.6294403E0,1.2240484E0,1.6001844E-1,4.8450546E0,2.3888261E0,2.0218472E0,2.7836943E0,5.1399517E0,6.695745E0,8.204783E0,4.9823875E0,7.0381534E-1,1.0783291E0,0E0,1.6990242E0,6.4247866E0,2.798193E0,6.060064E0,4.653859E0,4.4637766E0,4.5409393E0,3.8380103E0,8.176816E0,9.494996E-2,7.5311804E-1,0E0,0E0,0E0,0E0,0E0,0E0,0E0,2.4682693E0,0E0,0E0,0E0,0E0,0E0,0E0,0E0,0E0,0E0,0E0,0E0,0E0,0E0,0E0,0E0,0E0,0E0,0E0,0E0,0E0,0E0,0E0,0E0,0E0,0E0,0E0,0E0,0E0,0E0,0E0,0E0,0E0,0E0,0E0,0E0,0E0,0E0,0E0,0E0,0E0,0E0,0E0],"parents":[2147483647,0,0,1,1,2,2,3,3,4,4,5,5,6,6,7,7,8,8,9,9,10,10,11,11,12,12,13,13,14,14,15,15,16,16,17,17,18,18,19,19,20,20,21,21,22,22,23,23,24,24,25,25,26,26,27,27,28,28,29,29,30,30,31,31,32,32,33,33,34,34,35,35,36,36,38,38,39,39,40,40,41,41,42,42,43,43,44,44,45,45,46,46,47,47,48,48,56,56],"right_children":[2,4,6,8,10,12,14,16,18,20,22,24,26,28,30,32,34,36,38,40,42,44,46,48,50,52,54,56,58,60,62,64,66,68,70,72,74,-1,76,78,80,82,84,86,88,90,92,94,96,-1,-1,-1,-1,-1,-1,-1,98,-1,-1,-1,-1,-1,-1,-1,-1,-1,-1,-1,-1,-1,-1,-1,-1,-1,-1,-1,-1,-1,-1,-1,-1,-1,-1,-1,-1,-1,-1,-1,-1,-1,-1,-1,-1,-1,-1,-1,-1,-1,-1],"split_conditions":[4E0,-2.4352035E-1,-4.75E-2,2.8680578E-1,2.4400161E-1,-8.275667E-2,4.706823E2,-7.834089E-2,-1.9128E-1,-3.8845288E-3,-7.576403E-3,-1.2754259E-1,-7.3051E0,1.6808017E-1,1.5656179E-1,2.8424424E-1,3.4891E0,-8.7983266E-2,-1.2189E0,3.710241E-1,9.292253E-2,2.612488E-1,1.762151E2,2.5377256E-1,1.5498325E-1,-2.642259E-2,3.150447E-2,9.779E1,2E0,-2.824441E-1,1.9605598E-1,2.1308525E-2,-1.7944776E-1,2.2176847E-2,-2.614848E-2,-4.8720518E-1,4.694E1,8.853836E-2,3.0545148E-1,1.3684255E-1,-3.2863167E-1,7.107698E-2,-4.2584967E-2,8E0,2.8377008E-1,-1.5794142E-1,9E0,-1.0647836E-1,-5.988018E-2,-4.6893883E-2,6.269561E-1,2.6267132E-1,-7.604931E-2,-2.9139885E-1,-6.553294E-2,2.2775266E-2,-1.4706628E-1,2.1978424E-1,-2.1035047E-1,9.714597E-2,-2.801053E-1,4.253871E-1,-7.19208E-2,-2.275124E-1,1.1394464E-1,3.6607713E-1,-1.3887289E-1,2.0016442E-1,-1.994021E-1,-5.2763715E-2,3.455553E-1,9.976007E-3,-2.634037E-1,3.252799E-1,-1.627983E-2,-2.941855E-1,2.8688692E-2,1.5309222E-1,-3.9167747E-2,1.5347953E-1,-2.6438147E-1,-1.1768938E-2,3.1382608E-1,-2.0362207E-1,-6.2625855E-2,3.774232E-2,-2.1281043E-1,3.5221584E-2,-2.8286058E-1,-1.3011447E-1,1.8054758E-1,1.8100324E-1,-2.2668272E-1,-5.291168E-2,-2.4130838E-1,2.4645399E-1,-3.843257E-2,1.6606188E-1,8.07264E-1],"split_indices":[104,70,0,5,47,10,1,68,37,3,79,10,0,62,62,17,0,85,0,36,38,69,1,47,54,10,11,2,107,80,83,79,65,38,82,86,2,0,28,12,9,53,52,105,47,18,107,76,79,0,0,0,0,0,0,0,25,0,0,0,0,0,0,0,0,0,0,0,0,0,0,0,0,0,0,0,0,0,0,0,0,0,0,0,0,0,0,0,0,0,0,0,0,0,0,0,0,0,0],"split_type":[0,0,0,0,0,0,0,0,0,0,0,0,0,0,0,0,0,0,0,0,0,0,0,0,0,0,0,0,0,0,0,0,0,0,0,0,0,0,0,0,0,0,0,0,0,0,0,0,0,0,0,0,0,0,0,0,0,0,0,0,0,0,0,0,0,0,0,0,0,0,0,0,0,0,0,0,0,0,0,0,0,0,0,0,0,0,0,0,0,0,0,0,0,0,0,0,0,0,0],"sum_hessian":[5.1993024E2,4.8421222E2,3.5718037E1,9.098848E1,3.9322375E2,1.8201412E1,1.7516626E1,6.470011E1,2.6288366E1,2.2837376E2,1.6484998E2,8.486769E0,9.7146435E0,8.985471E0,8.531156E0,3.369777E1,3.1002346E1,6.3914084E0,1.9896957E1,7.0301384E1,1.5807239E2,8.77094E1,7.714057E1,5.3761044E0,3.1106646E0,2.2793179E0,7.4353256E0,6.230493E0,2.7549775E0,5.5040417E0,3.0271137E0,2.6007399E1,7.69037E0,1.904744E1,1.19549055E1,3.2268984E0,3.1645098E0,1.0244524E0,1.8872505E1,6.137445E1,8.926936E0,5.329504E1,1.0477734E2,7.032617E1,1.738323E1,1.7232782E1,5.9907795E1,3.3409705E0,2.035134E0,1.1379911E0,1.9726735E0,1.1968513E0,1.0824665E0,6.427501E0,1.007824E0,1.2326934E0,4.9977994E0,1.0505283E0,1.7044493E0,1.1228173E0,4.381224E0,1.8459883E0,1.1811254E0,2.18485E1,4.1589E0,3.3478186E0,4.342551E0,5.950208E0,1.3097232E1,3.7312298E0,8.223676E0,1.0607145E0,2.166184E0,2.159698E0,1.0048118E0,1.7462446E1,1.4100586E0,3.3042377E1,2.8332071E1,1.0429615E0,7.8839746E0,4.8548378E1,4.7466626E0,2.9066992E1,7.571035E1,6.422706E1,6.099109E0,5.611014E0,1.1772216E1,1.3418783E1,3.8139992E0,5.594823E1,3.9595623E0,1.000725E0,2.3402455E0,1.0024012E0,1.0327328E0,1.3092749E0,3.6885245E0],"tree_param":{"num_deleted":"0","num_feature":"108","num_nodes":"99","size_leaf_vector":"1"}},{"base_weights":[-3.334518E-2,-2.0878665E-2,-6.1405855E-1,-1.8964964E-1,1.8894378E-2,-4.081795E-2,-8.6427176E-1,1.5261307E-1,-4.0509728E-1,3.4561377E-2,-5.667132E-1,1.9566874E-1,-4.887325E-1,-2.7626982E-1,-7.575526E-2,-4.0885833E-1,3.9719695E-1,1.2933103E-3,-6.841202E-1,1.7432697E-2,6.432793E-1,2.5914505E-2,-2.833819E-1,-1.7492129E-1,-4.2514857E-2,-8.35944E-1,1.7031507E-1,-5.7287134E-2,9.642042E-1,-7.156921E-1,2.1571754E-1,-7.786359E-1,2.327754E-1,5.0046995E-2,-2.9030836E-1,-3.40629E-1,9.396903E-1,2.8262213E-1,-4.7259492E-1,-4.2363472E-2,-2.801518E-1,2.3657238E-1,-1.18802115E-1,-1.23972215E-1,1.6599691E-1,-3.669043E-2,3.8371295E-1,-1.3691502E-2,-2.5281185E-1,1.4047605E-1,-1.6674747E-1,-2.5263646E-1,1.21533915E-1,-1.9374898E-1,2.5185585E-1,-1.4362474E-1,2.1971213E-2,-2.9436642E-1,-2.3261579E-2,3.4133967E-2,-1.7878461E-1,-1.0723849E-1,3.7339956E-1,3.09087E-2,-2.2391306E-1],"categories":[],"categories_nodes":[],"categories_segments":[],"categories_sizes":[],"default_left":[0,0,0,0,0,0,0,0,0,0,0,0,0,0,0,0,0,0,0,0,0,0,0,0,0,0,0,0,0,0,0,0,0,0,0,0,0,0,0,0,0,0,0,0,0,0,0,0,0,0,0,0,0,0,0,0,0,0,0,0,0,0,0,0,0],"id":13,"left_children":[1,3,5,7,9,11,13,15,17,19,21,-1,23,-1,-1,25,27,29,31,33,35,37,-1,-1,-1,39,41,43,45,47,49,51,53,55,57,59,61,-1,63,-1,-1,-1,-1,-1,-1,-1,-1,-1,-1,-1,-1,-1,-1,-1,-1,-1,-1,-1,-1,-1,-1,-1,-1,-1,-1],"loss_changes":[3.67515E0,3.3582006E0,1.4953027E0,7.09678E0,3.7385702E0,1.6511351E0,2.3082733E-2,5.323289E0,6.6707907E0,4.1149E0,2.402704E0,0E0,2.1432161E-2,0E0,0E0,3.0849557E0,6.9318404E0,3.9891891E0,3.203806E0,3.8880074E0,3.4706454E0,2.7782097E0,0E0,0E0,0E0,3.4531832E-1,2.370999E0,3.6532378E0,4.236969E0,4.699633E-1,4.1511865E0,2.7346172E0,2.6900916E0,4.3246636E0,5.381997E0,4.4312516E-1,3.834373E0,0E0,7.031951E-1,0E0,0E0,0E0,0E0,0E0,0E0,0E0,0E0,0E0,0E0,0E0,0E0,0E0,0E0,0E0,0E0,0E0,0E0,0E0,0E0,0E0,0E0,0E0,0E0,0E0,0E0],"parents":[2147483647,0,0,1,1,2,2,3,3,4,4,5,5,6,6,7,7,8,8,9,9,10,10,12,12,15,15,16,16,17,17,18,18,19,19,20,20,21,21,25,25,26,26,27,27,28,28,29,29,30,30,31,31,32,32,33,33,34,34,35,35,36,36,38,38],"right_children":[2,4,6,8,10,12,14,16,18,20,22,-1,24,-1,-1,26,28,30,32,34,36,38,-1,-1,-1,40,42,44,46,48,50,52,54,56,58,60,62,-1,64,-1,-1,-1,-1,-1,-1,-1,-1,-1,-1,-1,-1,-1,-1,-1,-1,-1,-1,-1,-1,-1,-1,-1,-1,-1,-1],"split_conditions":[3.1523645E-2,-1.6083445E-1,-1.8869266E-1,-1.7041558E-1,2.343254E-1,-3.1644136E-1,-5.7982128E-2,-1.6349758E-1,-2.0023604E-1,3.4008604E-2,-5.298745E-1,1.9566874E-1,-1.1580827E-1,-2.7626982E-1,-7.575526E-2,5.9947748E-2,-3.5240763E-1,1.8404E0,5.407E0,4.1160833E-2,-1.7928818E-1,-2.6733026E-1,-2.833819E-1,-1.7492129E-1,-4.2514857E-2,-3.8563976E-1,3E0,1.8233016E-1,-1.4001058E-1,-1.6242956E-1,1.5121424E-1,1.1326076E-1,3.338107E-1,-7.474007E-2,-8.109416E-2,-3.146142E-1,-1.0115799E-1,2.8262213E-1,4.7932662E-2,-4.2363472E-2,-2.801518E-1,2.3657238E-1,-1.18802115E-1,-1.23972215E-1,1.6599691E-1,-3.669043E-2,3.8371295E-1,-1.3691502E-2,-2.5281185E-1,1.4047605E-1,-1.6674747E-1,-2.5263646E-1,1.21533915E-1,-1.9374898E-1,2.5185585E-1,-1.4362474E-1,2.1971213E-2,-2.9436642E-1,-2.3261579E-2,3.4133967E-2,-1.7878461E-1,-1.0723849E-1,3.7339956E-1,3.09087E-2,-2.2391306E-1],"split_indices":[80,41,15,26,78,92,74,59,72,22,98,0,102,0,0,58,101,0,0,91,8,6,0,0,0,14,105,69,11,59,40,55,100,78,10,16,76,0,20,0,0,0,0,0,0,0,0,0,0,0,0,0,0,0,0,0,0,0,0,0,0,0,0,0,0],"split_type":[0,0,0,0,0,0,0,0,0,0,0,0,0,0,0,0,0,0,0,0,0,0,0,0,0,0,0,0,0,0,0,0,0,0,0,0,0,0,0,0,0,0,0,0,0,0,0,0,0,0,0,0,0,0,0,0,0,0,0,0,0,0,0,0,0],"sum_hessian":[5.0842523E2,4.9875415E2,9.671097E0,9.440258E1,4.0435156E2,3.2920697E0,6.3790274E0,3.6581078E1,5.78215E1,3.9473212E2,9.619447E0,1.1133164E0,2.1787534E0,5.3760467E0,1.0029804E0,1.0896111E1,2.5684969E1,2.3943579E1,3.387792E1,3.8492926E2,9.802863E0,4.108208E0,5.5112386E0,1.1782093E0,1.0005441E0,6.0163107E0,4.8798003E0,1.4756154E1,1.0928815E1,4.973983E0,1.8969595E1,3.084875E1,3.0291705E0,3.488008E2,3.612843E1,2.2349565E0,7.567907E0,1.1341286E0,2.9740796E0,1.0447223E0,4.971588E0,2.1453028E0,2.7344975E0,9.526146E0,5.230008E0,2.5927627E0,8.336052E0,1.0092213E0,3.9647615E0,1.4587884E1,4.381712E0,2.9552423E1,1.2963266E0,1.2110589E0,1.8181117E0,1.3828715E1,3.349721E2,7.6559887E0,2.8472439E1,1.0034374E0,1.231519E0,1.407838E0,6.160069E0,1.1596365E0,1.814443E0],"tree_param":{"num_deleted":"0","num_feature":"108","num_nodes":"65","size_leaf_vector":"1"}},{"base_weights":[-2.988813E-2,-7.074066E-1,-2.0477103E-2,-2.6649737E-1,-8.925833E-3,-5.3973615E-1,-9.428563E-3,-5.739538E-2,-8.1273997E-1,-3.5168952E-1,7.226836E-3,-1.6369069E-1,1.3417727E-1,-5.2896254E-2,-2.6887345E-1,-5.824535E-1,2.644828E-1,4.5793608E-1,-1.8879132E-2,-7.228236E-1,1.4927617E-1,-4.559785E-1,7.971771E-1,-2.8865778E-1,7.294022E-1,-3.0420536E-1,1.1750392E-2,-2.465083E-1,9.6187666E-2,-2.0976068E-1,2.3711072E-2,-6.318376E-2,3.8864684E-1,-1.6408587E-1,1.6985077E-1,3.7359715E-1,4.4961307E-2,6.103446E-2,-1.4330705E-1,-9.9835016E-2,1.0474594E-2],"categories":[],"categories_nodes":[],"categories_segments":[],"categories_sizes":[],"default_left":[0,0,0,0,0,0,0,0,0,0,0,0,0,0,0,0,0,0,0,0,0,0,0,0,0,0,0,0,0,0,0,0,0,0,0,0,0,0,0,0,0],"id":14,"left_children":[1,3,5,-1,-1,7,9,11,13,15,17,-1,-1,-1,-1,19,21,23,25,27,-1,29,31,33,35,37,39,-1,-1,-1,-1,-1,-1,-1,-1,-1,-1,-1,-1,-1,-1],"loss_changes":[3.1889145E0,8.1376934E-1,2.8436491E0,0E0,0E0,1.3132813E0,2.7799535E0,1.4288481E0,1.8841076E-1,3.3717558E0,5.4869137E0,0E0,0E0,0E0,0E0,2.9030004E0,2.9938004E0,5.385075E0,3.8581982E0,1.8371749E0,0E0,5.1714975E-1,2.4343429E0,1.9710283E0,5.4962597E0,3.8661354E0,3.1982126E0,0E0,0E0,0E0,0E0,0E0,0E0,0E0,0E0,0E0,0E0,0E0,0E0,0E0,0E0],"parents":[2147483647,0,0,1,1,2,2,5,5,6,6,7,7,8,8,9,9,10,10,15,15,16,16,17,17,18,18,19,19,21,21,22,22,23,23,24,24,25,25,26,26],"right_children":[2,4,6,-1,-1,8,10,12,14,16,18,-1,-1,-1,-1,20,22,24,26,28,-1,30,32,34,36,38,40,-1,-1,-1,-1,-1,-1,-1,-1,-1,-1,-1,-1,-1,-1],"split_conditions":[-2.51806E-1,2.7656442E-1,-7.4435845E-2,-2.6649737E-1,-8.925833E-3,-8.729148E-3,-2.3525207E-1,1.1938511E-1,-5.7760824E-2,3.85504E0,-1.9488968E-1,-1.6369069E-1,1.3417727E-1,-5.2896254E-2,-2.6887345E-1,2.1570604E-2,3.0349085E-1,-2.003831E-1,-1.8261267E-2,8.5577555E-4,1.4927617E-1,-4.045768E-2,1.3323544E-1,8E0,-1.0549538E-1,2E0,-2.776174E-1,-2.465083E-1,9.6187666E-2,-2.0976068E-1,2.3711072E-2,-6.318376E-2,3.8864684E-1,-1.6408587E-1,1.6985077E-1,3.7359715E-1,4.4961307E-2,6.103446E-2,-1.4330705E-1,-9.9835016E-2,1.0474594E-2],"split_indices":[102,67,82,0,0,69,21,88,41,0,10,0,0,0,0,55,36,43,4,8,0,37,62,107,39,107,48,0,0,0,0,0,0,0,0,0,0,0,0,0,0],"split_type":[0,0,0,0,0,0,0,0,0,0,0,0,0,0,0,0,0,0,0,0,0,0,0,0,0,0,0,0,0,0,0,0,0,0,0,0,0,0,0,0,0],"sum_hessian":[5.0140384E2,5.8531914E0,4.9555063E2,4.374436E0,1.4787558E0,9.327462E0,4.8622318E2,3.8086352E0,5.518827E0,2.1629572E1,4.645936E2,1.8945203E0,1.914115E0,1.0010422E0,4.5177846E0,1.5775993E1,5.8535776E0,2.4531172E1,4.4006244E2,1.4254161E1,1.521833E0,2.5494704E0,3.3041072E0,6.52436E0,1.8006813E1,4.1794865E1,3.9826758E2,1.3214554E1,1.039607E0,1.5417101E0,1.0077603E0,1.2842273E0,2.0198798E0,5.2869973E0,1.2373627E0,8.918427E0,9.088386E0,1.0601091E1,3.1193773E1,2.424871E1,3.7401886E2],"tree_param":{"num_deleted":"0","num_feature":"108","num_nodes":"41","size_leaf_vector":"1"}},{"base_weights":[-2.424603E-2,-4.426094E-1,-1.1844596E-2,-7.326816E-1,2.4812843E-1,5.6402244E-2,-9.0832345E-2,8.824229E-2,-2.8921515E-1,2.9271743E-1,-3.9346078E-1,-1.034528E-3,4.2533907E-1,-3.5692953E-2,-6.119725E-1,3.2996412E-2,-1.9630483E-1,-1.854207E-1,1.1723692E-1,7.4337006E-1,-6.92305E-2,-2.6458284E-1,-9.511694E-3,-7.573404E-1,4.6934298E-1,-1.0471964E-1,-7.644866E-1,2.620185E-1,-1.566326E-1,1.3372157E0,3.2379916E-1,-2.8358653E-1,7.658058E-1,2.8875336E-2,-5.885574E-1,-8.5826457E-1,6.3758776E-2,-6.2055152E-2,2.7828604E-1,-9.727512E-2,3.524936E-2,-2.7332494E-1,9.688891E-2,2.1899184E-2,2.9892486E-1,4.3477163E-2,-1.5148917E-1,4.7115937E-1,-2.9640034E-4,-3.0281588E-2,2.751804E-1,-1.5795735E-1,1.8460284E-1,-8.7208785E-3,3.5219997E-1,3.7720773E-2,-6.463841E-2,-2.750483E-1,5.869142E-2,-2.791654E-1,3.6095552E-2,-1.769323E-1,2.0922486E-1],"categories":[],"categories_nodes":[],"categories_segments":[],"categories_sizes":[],"default_left":[0,0,0,0,0,0,0,0,0,0,0,0,0,0,0,0,0,0,0,0,0,0,0,0,0,0,0,0,0,0,0,0,0,0,0,0,0,0,0,0,0,0,0,0,0,0,0,0,0,0,0,0,0,0,0,0,0,0,0,0,0,0,0],"id":15,"left_children":[1,3,5,7,9,11,13,-1,-1,-1,15,17,19,21,23,-1,-1,25,27,29,31,-1,33,35,37,39,41,43,45,47,49,51,53,55,57,59,61,-1,-1,-1,-1,-1,-1,-1,-1,-1,-1,-1,-1,-1,-1,-1,-1,-1,-1,-1,-1,-1,-1,-1,-1,-1,-1],"loss_changes":[2.5784602E0,3.0488424E0,2.6178522E0,2.7377748E0,2.7081609E0,5.523416E0,6.4448338E0,0E0,0E0,0E0,5.1308584E-1,4.961636E0,5.5742445E0,4.524087E0,3.7303715E0,0E0,0E0,4.0746613E0,5.537299E0,4.912876E0,2.8406863E0,0E0,4.450202E0,1.6548147E0,1.1716535E0,3.901296E0,2.0025697E0,1.2566814E1,5.1743035E0,2.6752548E0,3.5943494E0,3.0303721E0,1.0932281E0,4.4763455E0,3.3834682E0,1.3332205E0,1.672043E0,0E0,0E0,0E0,0E0,0E0,0E0,0E0,0E0,0E0,0E0,0E0,0E0,0E0,0E0,0E0,0E0,0E0,0E0,0E0,0E0,0E0,0E0,0E0,0E0,0E0,0E0],"parents":[2147483647,0,0,1,1,2,2,3,3,4,4,5,5,6,6,10,10,11,11,12,12,13,13,14,14,17,17,18,18,19,19,20,20,22,22,23,23,24,24,25,25,26,26,27,27,28,28,29,29,30,30,31,31,32,32,33,33,34,34,35,35,36,36],"right_children":[2,4,6,8,10,12,14,-1,-1,-1,16,18,20,22,24,-1,-1,26,28,30,32,-1,34,36,38,40,42,44,46,48,50,52,54,56,58,60,62,-1,-1,-1,-1,-1,-1,-1,-1,-1,-1,-1,-1,-1,-1,-1,-1,-1,-1,-1,-1,-1,-1,-1,-1,-1,-1],"split_conditions":[-1.20603524E-1,3.4891E0,2.2885187E-1,-1.3341346E-1,-1.8695663E-1,-8.5244566E-2,2.1642874E-1,8.824229E-2,-2.8921515E-1,2.9271743E-1,1.2216621E-1,-7.920947E-2,-5.9639785E-2,1.141457E2,3.3730224E-1,3.2996412E-2,-1.9630483E-1,2.081224E-1,-2.7114806E-1,-6.23347E-2,1.0212833E-1,-2.6458284E-1,4.1478762E-1,3E0,-1.21341355E-1,-1.6772382E-1,3.6960897E-1,1.9791375E-1,6.4165345E-3,2.7324185E-1,3.0749E0,-7.724031E-2,-2.5745007E-1,-2.092545E-3,-3.142965E-2,2.9944348E-1,1.8652505E-1,-6.2055152E-2,2.7828604E-1,-9.727512E-2,3.524936E-2,-2.7332494E-1,9.688891E-2,2.1899184E-2,2.9892486E-1,4.3477163E-2,-1.5148917E-1,4.7115937E-1,-2.9640034E-4,-3.0281588E-2,2.751804E-1,-1.5795735E-1,1.8460284E-1,-8.7208785E-3,3.5219997E-1,3.7720773E-2,-6.463841E-2,-2.750483E-1,5.869142E-2,-2.791654E-1,3.6095552E-2,-1.769323E-1,2.0922486E-1],"split_indices":[63,0,69,54,91,14,49,0,0,0,33,68,71,1,28,0,0,69,44,14,71,0,46,104,21,6,28,69,7,83,0,65,72,74,25,82,38,0,0,0,0,0,0,0,0,0,0,0,0,0,0,0,0,0,0,0,0,0,0,0,0,0,0],"split_type":[0,0,0,0,0,0,0,0,0,0,0,0,0,0,0,0,0,0,0,0,0,0,0,0,0,0,0,0,0,0,0,0,0,0,0,0,0,0,0,0,0,0,0,0,0,0,0,0,0,0,0,0,0,0,0,0,0,0,0,0,0,0,0],"sum_hessian":[4.969858E2,1.3309186E1,4.8367664E2,9.330262E0,3.9789243E0,2.5963406E2,2.2404257E2,1.6658511E0,7.664411E0,1.6204519E0,2.358472E0,2.2552162E2,3.411243E1,2.0357207E2,2.0470512E1,1.0024356E0,1.3560365E0,8.790665E1,1.3761497E2,2.0455523E1,1.3656909E1,5.128212E0,1.9844385E2,1.8308764E1,2.1617472E0,7.819053E1,9.716121E0,9.005207E1,4.75629E1,7.5634236E0,1.2892099E1,1.139275E1,2.264159E0,1.8699727E2,1.144659E1,1.6264389E1,2.0443757E0,1.0948771E0,1.0668702E0,3.910207E1,3.9088463E1,8.704827E0,1.0112936E0,7.249302E1,1.7559048E1,2.5806078E1,2.1756824E1,6.292684E0,1.2707396E0,7.9979725E0,4.8941264E0,9.295022E0,2.0977275E0,1.0833462E0,1.1808127E0,1.3425928E2,5.2737995E1,7.9496675E0,3.4969232E0,1.5191308E1,1.0730808E0,1.0404963E0,1.0038793E0],"tree_param":{"num_deleted":"0","num_feature":"108","num_nodes":"63","size_leaf_vector":"1"}},{"base_weights":[-2.0847837E-2,-7.1103714E-2,1.0289046E-1,-5.762876E-1,-4.40404E-2,2.1079269E-1,-2.3559693E-1,-8.4615E-1,1.225519E-1,-6.514629E-1,-1.9607859E-2,3.686461E-1,-1.5999052E-1,-5.4698205E-1,2.640629E-1,1.1232424E-1,-9.9368656E-1,-1.578131E-1,5.8073425E-1,-7.988478E-1,7.083673E-2,-3.6640476E-2,6.057576E-1,5.690448E-1,7.705188E-2,7.986621E-1,-3.0665147E-1,4.1483364E-1,-6.789893E-1,5.523729E-1,-4.8098734E-1,-3.4323072E-1,-3.1939298E-1,-3.576709E-2,2.9056117E-1,-9.389567E-1,6.1195217E-2,-3.4581247E-1,1.7532714E-3,-1.9490509E-1,9.4267404E-1,9.8973686E-1,3.2595944E-1,6.3694E-1,-1.6715086E-1,-1.7199375E-1,1.3402665E0,6.294671E-2,-5.4777986E-1,2.617862E-1,-7.175459E-2,-9.095073E-1,-1.14021316E-1,1.0285902E0,6.99261E-2,-2.3444249E-1,8.062422E-2,7.050747E-2,-1.9308092E-1,-3.0198765E-1,-5.1182777E-2,2.498648E-2,-1.9599378E-1,-4.3431893E-2,3.2400053E-2,3.7905428E-1,-1.1167721E-1,-9.943661E-2,3.5586688E-1,-7.707609E-2,1.806151E-1,2.6820686E-1,-1.124531E-1,-1.296088E-1,1.0336529E-1,5.3688216E-1,4.010673E-2,1.605542E-1,-2.0806395E-1,9.08915E-2,-2.168873E-1,-3.0256057E-1,1.705804E-2,-1.683458E-1,1.5836981E-1,5.024587E-1,8.675861E-2,1.4492357E-1,-1.6851692E-1],"categories":[],"categories_nodes":[],"categories_segments":[],"categories_sizes":[],"default_left":[0,0,0,0,0,0,0,0,0,0,0,0,0,0,0,0,0,0,0,0,0,0,0,0,0,0,0,0,0,0,0,0,0,0,0,0,0,0,0,0,0,0,0,0,0,0,0,0,0,0,0,0,0,0,0,0,0,0,0,0,0,0,0,0,0,0,0,0,0,0,0,0,0,0,0,0,0,0,0,0,0,0,0,0,0,0,0,0,0],"id":16,"left_children":[1,3,5,7,9,11,13,15,17,19,21,23,25,27,29,-1,31,-1,33,35,-1,37,39,41,43,45,47,49,51,53,55,-1,57,-1,-1,59,-1,61,63,-1,65,67,69,71,73,-1,75,77,79,-1,-1,81,83,85,87,-1,-1,-1,-1,-1,-1,-1,-1,-1,-1,-1,-1,-1,-1,-1,-1,-1,-1,-1,-1,-1,-1,-1,-1,-1,-1,-1,-1,-1,-1,-1,-1,-1,-1],"loss_changes":[3.0577626E0,4.7521996E0,5.2394342E0,3.4390173E0,4.925651E0,6.396217E0,5.5618773E0,2.6923838E0,2.0292091E0,1.8677955E0,3.440534E0,4.411586E0,4.888632E0,3.0465918E0,3.2821264E0,0E0,8.282757E-1,0E0,1.1671667E0,1.7702932E0,0E0,3.7202299E0,4.2356787E0,4.2826176E0,4.510838E0,4.231017E0,2.6518376E0,1.1814241E0,2.439519E0,2.3611665E0,1.2131008E0,0E0,7.864631E-1,0E0,0E0,3.5013103E-1,0E0,4.622452E0,4.3705606E0,0E0,3.4917002E0,4.5468693E0,4.9876833E0,2.9339018E0,3.2963488E0,0E0,1.7345557E0,4.8339605E0,2.8831964E0,0E0,0E0,1.3708601E0,2.248614E0,2.0274873E0,1.9242271E0,0E0,0E0,0E0,0E0,0E0,0E0,0E0,0E0,0E0,0E0,0E0,0E0,0E0,0E0,0E0,0E0,0E0,0E0,0E0,0E0,0E0,0E0,0E0,0E0,0E0,0E0,0E0,0E0,0E0,0E0,0E0,0E0,0E0,0E0],"parents":[2147483647,0,0,1,1,2,2,3,3,4,4,5,5,6,6,7,7,8,8,9,9,10,10,11,11,12,12,13,13,14,14,16,16,18,18,19,19,21,21,22,22,23,23,24,24,25,25,26,26,27,27,28,28,29,29,30,30,32,32,35,35,37,37,38,38,40,40,41,41,42,42,43,43,44,44,46,46,47,47,48,48,51,51,52,52,53,53,54,54],"right_children":[2,4,6,8,10,12,14,16,18,20,22,24,26,28,30,-1,32,-1,34,36,-1,38,40,42,44,46,48,50,52,54,56,-1,58,-1,-1,60,-1,62,64,-1,66,68,70,72,74,-1,76,78,80,-1,-1,82,84,86,88,-1,-1,-1,-1,-1,-1,-1,-1,-1,-1,-1,-1,-1,-1,-1,-1,-1,-1,-1,-1,-1,-1,-1,-1,-1,-1,-1,-1,-1,-1,-1,-1,-1,-1],"split_conditions":[-2.2257687E-1,4.8574656E-3,7.565427E-2,-3.0524211E-2,-3.371074E-1,-5.760414E-2,2.7172554E-1,-7.723853E-2,-5.4898087E-2,1E1,6.457042E-2,8.588048E-2,-9.059E-1,1.10040225E-1,-2.8935075E-3,1.1232424E-1,-1.6761956E-1,-1.578131E-1,2.943E1,1.8011914E-1,7.083673E-2,-3.0642465E-1,1.4057E0,-1.9767173E-1,-1.3031797E-1,-2.9463E0,-1.1514386E-1,-7.421104E-2,-3.2670826E-2,2.8100652E-1,1.922077E-1,-3.4323072E-1,-4.6187848E-2,-3.576709E-2,2.9056117E-1,1.5143895E-1,6.1195217E-2,-1.401914E-1,-5.4963987E-2,-1.9490509E-1,6E0,-2.8894675E-1,-2.5413E-1,3.464183E2,2.0038079E-1,-1.7199375E-1,-2.4043469E-2,7.993158E-2,-1.2754259E-1,2.617862E-1,-7.175459E-2,-8.8789225E-2,4.2051665E-2,-1.668598E-1,1.056438E-1,-2.3444249E-1,8.062422E-2,7.050747E-2,-1.9308092E-1,-3.0198765E-1,-5.1182777E-2,2.498648E-2,-1.9599378E-1,-4.3431893E-2,3.2400053E-2,3.7905428E-1,-1.1167721E-1,-9.943661E-2,3.5586688E-1,-7.707609E-2,1.806151E-1,2.6820686E-1,-1.124531E-1,-1.296088E-1,1.0336529E-1,5.3688216E-1,4.010673E-2,1.605542E-1,-2.0806395E-1,9.08915E-2,-2.168873E-1,-3.0256057E-1,1.705804E-2,-1.683458E-1,1.5836981E-1,5.024587E-1,8.675861E-2,1.4492357E-1,-1.6851692E-1],"split_indices":[101,45,25,39,80,102,73,88,102,105,64,7,0,73,74,0,31,0,2,94,0,32,0,101,60,0,81,60,51,97,12,0,102,0,0,53,0,48,42,0,105,18,75,1,50,0,42,40,10,0,0,37,79,85,30,0,0,0,0,0,0,0,0,0,0,0,0,0,0,0,0,0,0,0,0,0,0,0,0,0,0,0,0,0,0,0,0,0,0],"split_type":[0,0,0,0,0,0,0,0,0,0,0,0,0,0,0,0,0,0,0,0,0,0,0,0,0,0,0,0,0,0,0,0,0,0,0,0,0,0,0,0,0,0,0,0,0,0,0,0,0,0,0,0,0,0,0,0,0,0,0,0,0,0,0,0,0,0,0,0,0,0,0,0,0,0,0,0,0,0,0,0,0,0,0,0,0,0,0,0,0],"sum_hessian":[4.8953772E2,3.4844385E2,1.4109387E2,1.6685516E1,3.3175833E2,1.0727443E2,3.3819443E1,1.1885172E1,4.8003445E0,1.1836052E1,3.1992227E2,7.524582E1,3.202861E1,2.0776772E1,1.3042672E1,1.115868E0,1.0769303E1,1.9259256E0,2.874419E0,1.0236279E1,1.5997732E0,3.1235626E2,7.566007E0,4.4032734E1,3.1213087E1,3.6599073E0,2.8368702E1,2.2488635E0,1.8527908E1,9.590193E0,3.4524798E0,8.235463E0,2.5338411E0,1.2716833E0,1.6027356E0,9.037337E0,1.1989412E0,3.3619854E1,2.7873642E2,1.4044238E0,6.1615834E0,1.5000604E1,2.9032131E1,8.991004E0,2.2222084E1,1.0193014E0,2.640606E0,1.1492346E1,1.6876356E1,1.1262671E0,1.1225963E0,1.2725725E1,5.8021836E0,4.2565627E0,5.3336296E0,2.4344406E0,1.0180393E0,1.036482E0,1.497359E0,8.0208235E0,1.0165145E0,1.43392725E1,1.9280579E1,1.1700749E2,1.6172893E2,4.9844837E0,1.1770995E0,1.8531196E0,1.3147485E1,9.353845E0,1.9678288E1,7.26216E0,1.7288438E0,1.4745099E1,7.476985E0,1.5719775E0,1.0686284E0,7.255634E0,4.2367125E0,2.7570786E0,1.4119278E1,1.1503297E1,1.222428E0,3.4941485E0,2.308035E0,1.5962085E0,2.6603544E0,3.3667188E0,1.9669108E0],"tree_param":{"num_deleted":"0","num_feature":"108","num_nodes":"89","size_leaf_vector":"1"}},{"base_weights":[-1.921019E-2,-1.4737946E-1,2.3772802E-2,-3.149588E-1,4.9333252E-2,-2.3900825E-1,6.0243987E-2,-2.0804805E-1,-8.924262E-1,-1.0235855E-1,4.8833126E-1,-3.84376E-1,3.1946176E-1,1.2123928E-1,-1.08684994E-1,-4.3932495E-1,1.0159812E-1,-1.0572082E-2,-2.9531926E-1,1.680378E-1,-3.526153E-1,7.227547E-1,-1.914653E-1,-4.646817E-1,4.7751245E-1,-3.4504375E-1,8.197639E-1,1.5602686E-1,-3.4021038E-1,1.1110834E-1,-4.0542123E-1,-7.277355E-1,-1.00769475E-1,