tree
version=v4
num_class=1
num_tree_per_iteration=1
label_index=0
max_feature_idx=107
objective=binary sigmoid:1
feature_names=LogP MW PSA mol2vec_0 mol2vec_1 mol2vec_10 mol2vec_11 mol2vec_12 mol2vec_13 mol2vec_14 mol2vec_15 mol2vec_16 mol2vec_17 mol2vec_18 mol2vec_19 mol2vec_2 mol2vec_20 mol2vec_21 mol2vec_22 mol2vec_23 mol2vec_24 mol2vec_25 mol2vec_26 mol2vec_27 mol2vec_28 mol2vec_29 mol2vec_3 mol2vec_30 mol2vec_31 mol2vec_32 mol2vec_33 mol2vec_34 mol2vec_35 mol2vec_36 mol2vec_37 mol2vec_38 mol2vec_39 mol2vec_4 mol2vec_40 mol2vec_41 mol2vec_42 mol2vec_43 mol2vec_44 mol2vec_45 mol2vec_46 mol2vec_47 mol2vec_48 mol2vec_49 mol2vec_5 mol2vec_50 mol2vec_51 mol2vec_52 mol2vec_53 mol2vec_54 mol2vec_55 mol2vec_56 mol2vec_57 mol2vec_58 mol2vec_59 mol2vec_6 mol2vec_60 mol2vec_61 mol2vec_62 mol2vec_63 mol2vec_64 mol2vec_65 mol2vec_66 mol2vec_67 mol2vec_68 mol2vec_69 mol2vec_7 mol2vec_70 mol2vec_71 mol2vec_72 mol2vec_73 mol2vec_74 mol2vec_75 mol2vec_76 mol2vec_77 mol2vec_78 mol2vec_79 mol2vec_8 mol2vec_80 mol2vec_81 mol2vec_82 mol2vec_83 mol2vec_84 mol2vec_85 mol2vec_86 mol2vec_87 mol2vec_88 mol2vec_89 mol2vec_9 mol2vec_90 mol2vec_91 mol2vec_92 mol2vec_93 mol2vec_94 mol2vec_95 mol2vec_96 mol2vec_97 mol2vec_98 mol2vec_99 num_h_acceptors num_h_donors num_heteroatoms num_of_heavy_atoms num_rot_bonds
feature_infos=[-31.31240000000005:22.611800000000017] [32.041899999999998:1950.6781000000001] [0:1095.8500000000013] [-0.73240286111831665:0.46961164474487305] [-0.41099345684051514:0.52125829458236694] [-0.40917080640792847:0.81526458263397217] [-0.94831854104995728:0.22153928875923157] [-0.32341963052749634:0.51578187942504883] [-0.59050017595291138:0.28052306175231934] [-0.79788327217102051:0.33715733885765076] [-0.46323513984680176:1.2783458232879639] [-0.55932962894439697:0.41916230320930481] [-0.47305670380592346:0.60129106044769287] [-0.46487608551979065:0.43136301636695862] [-0.6815180778503418:0.26076942682266235] [-1.0415917634963989:0.35769873857498169] [-0.7769511342048645:0.24532565474510193] [-0.27718427777290344:0.71422350406646729] [-0.83220124244689941:0.25144392251968384] [-0.50604146718978882:0.50650310516357422] [-0.27555543184280396:0.83830505609512329] [-0.6343456506729126:0.50610637664794922] [-0.46047788858413696:0.47967728972434998] [-0.54626435041427612:0.67782896757125854] [-0.35994306206703186:0.80611854791641235] [-0.56546837091445923:0.58355855941772461] [-0.52221465110778809:0.59992533922195435] [-0.54854303598403931:0.51685255765914917] [-0.4432283341884613:0.55685752630233765] [-0.15773017704486847:0.76569211483001709] [-0.33530896902084351:0.76475018262863159] [-0.68471968173980713:0.23060348629951477] [-0.59663015604019165:0.27512240409851074] [-0.49552154541015625:0.66890883445739746] [-0.57743662595748901:0.64545595645904541] [-0.64837056398391724:0.38391983509063721] [-0.16180872917175293:0.81667518615722656] [-0.52014404535293579:0.41924476623535156] [-0.31007710099220276:0.57519626617431641] [-1.039483904838562:0.4762987494468689] [-0.26419618725776672:0.70864021778106689] [-0.73293721675872803:0.44719377160072327] [-0.38574567437171936:0.60566103458404541] [-0.88396775722503662:0.47054955363273621] [-0.77129077911376953:0.15268415212631226] [-0.27997207641601562:0.80185973644256592] [-0.10794591903686523:1.0507241487503052] [-0.4392036497592926:0.79624629020690918] [-0.69725275039672852:0.72263926267623901] [-0.41798168420791626:0.63244611024856567] [-0.47469273209571838:0.51371574401855469] [-0.79960024356842041:0.35143321752548218] [-0.37617611885070801:0.46703964471817017] [-0.45970144867897034:0.68753963708877563] [-0.27362975478172302:1.1802796125411987] [-0.48529583215713501:0.33057549595832825] [-0.59089577198028564:0.48983666300773621] [-0.31975075602531433:0.72327643632888794] [-0.40779215097427368:0.83889317512512207] [-0.39877796173095703:0.4597320556640625] [-0.78280532360076904:0.59441065788269043] [-0.82493364810943604:0.43745002150535583] [-0.45610490441322327:0.46192476153373718] [-0.44866737723350525:0.44456887245178223] [-0.86598646640777588:0.23806275427341461] [-0.65983819961547852:0.3319888710975647] [-0.49951893091201782:0.66007864475250244] [-0.28779810667037964:0.87566649913787842] [-0.50864553451538086:0.35519301891326904] [-0.54469692707061768:0.96487462520599365] [-0.52290081977844238:0.47094437479972839] [-0.52283281087875366:0.45625871419906616] [-0.47605463862419128:0.41783496737480164] [-0.24080461263656616:0.76932227611541748] [-0.54814904928207397:0.4029603898525238] [-0.58402085304260254:0.38949742913246155] [-0.36150661110877991:0.76167809963226318] [-0.54108637571334839:0.56004881858825684] [-0.42491626739501953:0.60472625494003296] [-0.72555452585220337:0.63063549995422363] [-0.7728385329246521:0.36648267507553101] [-0.52107888460159302:0.44938990473747253] [-0.33726972341537476:0.55209940671920776] [-0.36223509907722473:0.75115132331848145] [-0.50816041231155396:0.39102134108543396] [-0.50677520036697388:0.44123134016990662] [-0.75776112079620361:0.18381543457508087] [-0.4246751070022583:0.59073370695114136] [-0.30052092671394348:0.60447543859481812] [-0.1083824560046196:1.121929407119751] [-0.55851739645004272:0.31888827681541443] [-0.6730954647064209:0.30306100845336914] [-0.68082088232040405:0.22217053174972534] [-0.19573584198951721:0.80612009763717651] [-0.46292123198509216:0.53125631809234619] [-0.75717300176620483:0.43421408534049988] [-1.0344976186752319:0.21654130518436432] [-0.23132845759391785:0.77388191223144531] [-0.93497854471206665:0.013896912336349487] [-0.54300200939178467:0.60452389717102051] [-0.29542583227157593:0.61931538581848145] [-0.88592809438705444:0.11794415861368179] [-0.43153306841850281:0.39236250519752502] [0:67] [0:36] [0:91] [2:132] [0:47]
tree_sizes=3349 3357 3375 3362 3388 3374 3389 3391 3400 3393 3401 3396 3405 3413 3403 3403 3398 3414 3403 3413 3423 3415 3430 3430 3426 3434 3435 3418 3426 3426 3411 3416 3422 3420 3429 3417 3421 3429 3436 3426 3423 3409 3424 3422 3433 3435 3432 3435 3441 3435 3435 3417 3442 3432 3427 3450 3436 3433 3426 3420 3406 3435 3440 3438 3423 3437 3430 3442 3445 3441 3445 3422 3409 3428 3402 3434 3398 3430 3391 3438 3428 3421 3429 3435 3425 3430 3414 3433 3402 3422 3445 3426 3410 3414 3455 3435 3432 3426 3419 3415

Tree=0
num_leaves=31
num_cat=0
split_feature=0 2 107 106 104 2 107 0 104 0 107 98 107 107 103 34 55 105 12 102 93 105 30 3 14 91 57 95 54 104
split_gain=1542.45 1151.57 870.301 546.549 483.576 376.03 328.713 326.995 396.28 319.725 310.738 219.372 212.042 189.723 163.885 159.057 155.056 153.311 136.806 154.871 136.419 136.3 134.084 133.953 186.793 131.507 120.375 119.389 202.507 118.325
threshold=0.79640000000000011 26.505000000000006 4.5000000000000009 15.500000000000002 1.0000000180025095e-35 20.515000000000004 5.5000000000000009 1.846200000000001 1.5000000000000002 2.8708400000000016 10.500000000000002 -0.49246335029602045 1.0000000180025095e-35 1.0000000180025095e-35 3.5000000000000004 0.20839979499578479 -0.036434439942240708 4.5000000000000009 -0.05871103145182132 0.1244463473558426 0.29081551730632788 1.0000000180025095e-35 -0.052746398374438279 -0.0070191868580877772 -0.16194304823875424 -0.028207919560372826 0.18576325476169589 -0.10602883622050284 0.27841106057167059 1.0000000180025095e-35
decision_type=2 2 2 2 2 2 2 2 2 2 2 2 2 2 2 2 2 2 2 2 2 2 2 2 2 2 2 2 2 2
left_child=11 3 7 4 -2 12 21 8 16 15 14 25 -6 -10 -11 20 -3 -8 19 -9 -4 -5 -16 -15 -25 27 -24 28 -1 -20
right_child=1 2 9 6 5 -7 17 18 13 10 -12 -13 -14 23 22 -17 -18 -19 29 -21 -22 -23 26 24 -26 -27 -28 -29 -30 -31
leaf_value=-2.0797545406106468 -2.0140129348357947 -1.8844281555114422 -1.4497354535092222 -1.2087146220005822 -1.637369336610853 -1.3981880559449169 -2.0915870432070673 -2.0339179562232066 -1.1936126017388837 -1.7772000928610043 -1.899533287978771 -1.9647068622899881 -2.1399383852472593 -1.376685408423834 -1.9911587083616864 -2.0593843046396474 -1.5705630214318373 -1.546038308647111 -1.5041654991497135 -1.280990979343303 -1.8615117597402895 -1.5507095647318869 -1.4196732560173657 -1.5346697547282264 -2.1399383852472593 -2.0619391580855169 -1.7430521640212406 -1.4553393234273744 -1.5227010287296008 -1.3641027969672832
leaf_weight=12.610483482480047 108.48524084687233 41.584492772817612 10.99600340425968 14.670000225305555 16.611490875482559 28.649163693189621 15.696511134505274 7.1585012972354871 23.257819205522537 25.107270821928978 31.569521084427834 151.5889253616333 16.973152086138725 25.853330999612808 5.1011495292186728 28.264764726161957 25.325999528169632 7.667424961924552 78.786824807524681 4.4178920239210129 29.984277367591858 56.673542603850365 82.189034476876259 18.808525845408443 6.9949960112571707 9.7301910072565061 13.385780021548269 17.737620070576671 13.525463223457335 257.27507685124874
leaf_count=116 936 312 41 24 89 94 146 63 35 165 241 1243 165 80 43 255 121 35 331 10 219 261 285 84 68 88 84 67 59 768
internal_value=-2.02676 -1.60175 -1.5358 -1.77966 -1.88654 -1.66433 -1.587 -1.46079 -1.58876 -1.69783 -1.61903 -1.90322 -1.89136 -1.43078 -1.54863 -1.87689 -1.76563 -1.91255 -1.40858 -1.74658 -1.75102 -1.48039 -1.49163 -1.53756 -1.69875 -1.72934 -1.46496 -1.65558 -1.79148 -1.39694
internal_weight=0 981.488 716.061 265.427 170.719 62.2338 94.7075 489.463 141.825 226.598 157.353 205.193 33.5846 74.9147 125.783 69.245 66.9105 23.3639 347.638 11.5764 40.9803 71.3435 100.676 51.6569 25.8035 53.6038 95.5748 43.8736 26.1359 336.062
internal_count=6528 4955 3205 1750 1284 348 466 1872 700 1333 818 1573 254 267 577 515 433 181 1172 73 260 285 412 232 152 330 369 242 175 1099
is_linear=0
shrinkage=1


Tree=1
num_leaves=31
num_cat=0
split_feature=0 106 107 103 104 1 0 3 2 0 1 0 68 49 107 87 95 88 2 2 51 88 88 35 14 30 30 71 32 5
split_gain=586.423 429.621 380.202 385.298 213.323 385.088 175.184 170.608 109.657 154.068 128.948 100.519 105.953 100.318 97.8353 97.4198 88.7118 109.288 87.1712 98.3512 86.217 101.033 86.2363 82.6335 100.5 100.866 125.235 114.687 94.0539 81.3971
threshold=0.74405500000000002 7.5000000000000009 4.5000000000000009 3.5000000000000004 1.0000000180025095e-35 172.05745000000005 1.4213000000000002 0.067448813468217864 63.640000000000008 -1.8867999999999951 182.19980000000001 6.3942600000000089 -0.036470407620072358 0.29109168052673345 8.5000000000000018 0.22604721784591678 -0.12329550459980963 0.076202370226383223 20.515000000000004 16.600000000000005 0.0030801424290984873 0.12510944157838824 0.14334046840667727 -0.28083132207393641 -0.12181003764271735 0.046219713985919959 0.059803724288940437 -0.02265011332929134 -0.25489470362663263 0.48710177838802343
decision_type=2 2 2 2 2 2 2 2 2 2 2 2 2 2 2 2 2 2 2 2 2 2 2 2 2 2 2 2 2 2
left_child=8 -2 4 20 5 -3 -5 -7 10 29 -1 12 16 -9 23 -12 -8 -18 19 -6 21 -4 -23 -11 25 28 -27 -28 -25 -10
right_child=1 2 3 6 18 7 11 13 9 14 15 -13 -14 -15 -16 -17 17 -19 -20 -21 -22 22 -24 24 -26 26 27 -29 -30 -31
leaf_value=-0.086236804227649039 -0.091110453387410001 0.0061025397171614853 0.034995698533245738 -0.064770258988966101 0.40231792123737692 0.34160229785616714 0.44328343854525332 0.2153797785775122 -0.089890301518906576 0.39503094882226009 -0.043346940818883059 0.0061820543987820137 0.1818686250854904 -0.1179117016046437 -0.11469922131433961 0.35801674406473771 0.15446344425623387 0.36766004573138478 0.35216079668972317 0.072690928019532378 -0.092765609376485772 0.46481467832242979 0.0049437197707956322 0.32526847706905559 -0.11445454861503319 0.60304742530612188 -0.11483934000343493 0.43162917439619691 -0.033275668375355658 0.35194838528035993
leaf_weight=54.038684546947479 31.874165363609791 56.328738734126091 60.195120133459568 15.27029127627611 14.54968313872814 181.97759565711021 56.433484122157097 33.750612258911133 30.949178606271744 25.200550973415375 10.440383881330492 12.216010160744188 55.270596541464329 12.330229222774504 8.4695458114147169 14.372454360127447 38.648121654987335 63.632121585309505 641.48358564078808 23.954720079898834 34.437563389539719 11.740348123013975 6.2477245777845374 12.031836628913878 9.7292652577161771 12.631435960531237 7.1541045904159537 8.2915518656373006 18.667793326079849 4.8186439573764792
leaf_count=485 284 447 435 134 44 566 121 139 278 100 84 84 267 100 77 60 193 184 1458 158 308 38 47 58 90 23 65 29 157 15
internal_value=0 0.271664 0.280434 0.191812 0.312973 0.240247 0.263051 0.298078 0.0944846 0.148255 0.000417204 0.285182 0.30111 0.126198 0.210784 0.189137 0.342634 0.287101 0.343389 0.197247 0.0390685 0.0971378 0.30509 0.240202 0.183247 0.232525 0.369506 0.178516 0.107245 -0.0303658
internal_weight=0 1350.34 1318.47 354.091 964.375 284.387 241.471 228.058 216.795 137.944 78.8515 226.2 213.984 46.0808 102.176 24.8128 158.714 102.28 679.988 38.5044 112.621 78.1832 17.9881 93.7065 68.506 58.7767 28.0771 15.4457 30.6996 35.7678
internal_count=6528 5007 4723 1811 2912 1252 983 805 1521 892 629 849 765 239 599 144 498 377 1660 202 828 520 85 522 422 332 117 94 215 293
is_linear=0
shrinkage=0.1


Tree=2
num_leaves=31
num_cat=0
split_feature=0 2 0 104 107 107 1 105 71 75 3 64 106 60 92 53 29 54 3 14 49 94 96 30 56 35 69 0 83 88
split_gain=360.489 210.57 193.321 172.815 260.199 172.295 160.059 150.442 84.7015 86.2178 83.2884 81.344 80.868 76.0262 73.8757 73.6503 81.1746 72.6472 73.2639 72.2636 66.3002 65.4879 65.4619 65.4191 81.3107 65.3058 63.2224 62.7537 66.7774 62.2823
threshold=1.6024100000000001 20.515000000000004 4.5006000000000048 1.5000000000000002 1.5000000000000002 4.5000000000000009 257.48985000000005 4.5000000000000009 -0.11385861039161681 -0.18597925454378125 0.10467348620295526 -0.30529122054576868 9.5000000000000018 -0.2623551189899444 -0.16958076506853101 0.052072564139962203 0.42827045917510992 0.1820575296878815 -0.22191097587347028 -0.29553556442260737 0.20504872500896457 0.095089171081781401 -0.46662445366382593 -0.016325048170983788 -0.067144829779863344 -0.22197663038969037 0.13061888515949252 -0.40375000000000011 0.17416910827159884 0.098193716257810607
decision_type=2 2 2 2 2 2 2 2 2 2 2 2 2 2 2 2 2 2 2 2 2 2 2 2 2 2 2 2 2 2
left_child=3 2 12 6 -5 13 15 8 -7 23 -4 -8 -2 -3 -9 -1 29 18 -14 22 -19 26 -20 -10 -25 -13 -16 -6 -29 -17
right_child=1 5 10 4 27 7 11 14 9 -11 -12 25 17 -15 21 16 -18 20 19 -21 -22 -23 -24 24 -26 -27 -28 28 -30 -31
leaf_value=-0.064166647404979668 -0.090493187879613524 0.0041690107372505834 0.27664744268589342 0.28277032565396021 -0.016012026752150448 -0.088918489583826851 -0.012870581636917329 0.23572402805280915 0.40719625539196463 -0.071157968532542443 -0.039612306270232739 -0.11780962196109822 0.42695619569940846 0.2637637701305881 0.2556502633955397 -0.059348063541680644 0.25727492967449972 0.24133668714213274 0.49120961853684925 -0.065573614250727455 -0.11873783698362922 0.23875059825299694 0.0036491955089546636 -0.11797409188997082 0.24420564093492705 0.30093431447262581 -0.1213016594683599 0.17995869672559567 0.0020347878484452838 0.1633324119893359
leaf_weight=86.358823299407959 30.770127668976784 11.45003581792116 78.150206595659256 115.04725609719753 45.430315859615803 26.930886879563332 14.435152158141134 212.36858297884464 11.488704569637774 15.639245189726351 9.3202551528811437 4.114899978041648 4.1627555936574927 767.00540743023157 6.0329523906111744 38.588795073330402 17.873275376856327 37.623439073562622 4.9361343085765839 44.128561988472939 5.9179907143115988 16.502470761537552 6.2286769151687604 9.2897831648588163 18.629129931330684 39.244500420987606 16.950794070959091 69.304911345243454 30.323580928146839 18.621410869061947
leaf_count=703 276 59 181 270 367 224 105 612 31 115 69 34 11 1472 23 301 64 155 8 358 48 47 44 75 73 122 124 274 190 93
internal_value=0 0.21645 0.12735 0.115337 0.170462 0.234172 0.0499357 0.174071 0.0564059 0.127504 0.242949 0.192742 0.0517598 0.259945 0.21237 -0.00118743 0.0712494 0.0942574 0.0223871 -0.00807082 0.192397 0.086768 0.219207 0.206344 0.123693 0.261195 -0.0223564 0.0813897 0.125805 0.0131324
internal_weight=0 1333.53 221.238 479.343 260.106 1112.29 219.237 333.833 81.9777 55.0469 87.4705 57.7946 133.768 778.455 251.855 161.442 75.0835 102.998 59.4561 55.2934 43.5414 39.4862 11.1648 39.4076 27.9189 43.3594 22.9837 145.059 99.6285 57.2102
internal_count=6528 4005 1150 2523 1101 2855 1422 1324 518 294 250 261 900 1531 806 1161 458 624 421 410 203 194 52 179 148 156 147 831 464 394
is_linear=0
shrinkage=0.1


Tree=3
num_leaves=31
num_cat=0
split_feature=106 107 0 98 1 0 93 54 65 103 0 12 34 72 0 19 107 2 0 22 52 5 18 75 99 34 55 24 23 11
split_gain=247.508 206.945 170.399 126.585 95.9545 84.9444 81.9258 81.3197 74.8033 72.9282 104.114 59.8125 56.2191 55.1445 72.69 81.241 78.6526 62.3089 58.4116 57.3421 62.1848 54.1628 52.2556 53.8693 52.1089 49.3825 48.1108 46.7101 50.1965 44.7089
threshold=7.5000000000000009 8.5000000000000018 -1.3780999999999985 -0.30269327759742731 180.21610000000001 -0.79444999999999999 0.31820054352283483 -0.0058666986878961316 -0.15296941995620725 4.5000000000000009 1.4213000000000002 -0.05871103145182132 0.19489503651857379 -0.1043264903128147 2.0433300000000005 0.33055785298347479 1.0000000180025095e-35 24.225000000000005 4.5420500000000041 -0.021954723633825775 -0.012565349228680132 0.47999550402164465 -0.20970353484153745 -0.19731962680816648 0.20221840590238574 0.18129952996969226 -0.065503664314746843 0.27087277173995977 -0.12249109894037245 -0.010230981744825838
decision_type=2 2 2 2 2 2 2 2 2 2 2 2 2 2 2 2 2 2 2 2 2 2 2 2 2 2 2 2 2 2
left_child=5 2 21 6 -5 8 -4 -6 -1 -3 -11 12 -8 14 15 16 -13 18 22 -19 -21 -2 23 -16 -14 -12 -27 28 -9 -20
right_child=1 9 3 4 7 -7 11 27 -10 10 25 13 24 -15 17 -17 -18 19 29 20 -22 -23 -24 -25 -26 26 -28 -29 -30 -31
leaf_value=0.29077436561314302 -0.073974595762629394 -0.04077159468068188 0.21494957402638826 -0.045677748229245613 -0.12858166511635324 -0.098709248988818388 -0.12244080019759514 -0.12681121095180048 -0.11621525644633157 -0.11377325330894672 0.23269496329963923 0.20735265569540462 0.1977880314420305 0.20861322721408349 -0.04602265772460739 0.40389328188471335 0.052725644446919052 0.20412586404786148 0.078682466464909298 0.22124862261992409 -0.056192571445558517 0.20027171590962306 -0.064311097820365024 0.24852918011133887 -0.12456576875654862 -0.072319247412672802 0.17579485979332846 0.2594262105904282 0.14994690598512661 0.29387368550059922
leaf_weight=12.706890225410463 36.593483828008175 57.422164782881737 553.91271809488535 40.331313982605934 10.267980143427847 50.394925735890865 12.97666699439287 7.6617278084158889 7.0058753415942183 17.603233076632023 39.347080461680889 43.247858554124832 22.983114130795006 293.34145386517048 10.137879446148874 8.6245503798127157 137.43118278682232 381.32891272008419 17.825595833361149 14.462281614542006 18.302758254110813 8.965885400772093 26.79731397330761 16.021055355668068 6.4142472594976416 14.135928593575956 17.478151448071003 34.510099291801453 45.307422019541264 21.063251554965973
leaf_count=40 320 419 1201 302 66 490 96 53 63 169 93 99 75 647 70 19 675 748 66 22 84 21 200 46 45 84 63 71 151 30
internal_value=0 0.161437 0.170883 0.175931 0.0841001 -0.0298654 0.183932 0.137648 0.146131 0.0470055 0.103917 0.167266 0.0509254 0.172253 0.156912 0.10405 0.0897376 0.176691 0.102175 0.193218 0.0662682 -0.0200041 0.0338348 0.134376 0.127453 0.157919 0.064853 0.168897 0.109915 0.195236
internal_weight=0 1914.5 1768.51 1722.95 138.079 70.1077 1584.87 97.7472 19.7128 145.987 88.5644 1030.96 42.374 988.584 695.243 189.304 180.679 505.939 91.8451 414.094 32.765 45.5594 52.9562 26.1589 29.3974 70.9612 31.6141 87.4792 52.9691 38.8888
internal_count=6528 5935 5107 4766 643 593 4123 341 103 828 409 2922 216 2706 2059 793 774 1266 412 854 106 341 316 116 120 240 147 275 204 96
is_linear=0
shrinkage=0.1


Tree=4
num_leaves=31
num_cat=0
split_feature=106 107 106 107 10 0 46 0 103 100 12 8 0 87 22 4 37 95 58 98 51 17 88 2 94 32 58 103 12 8
split_gain=177.239 166.118 277.394 119.501 86.9303 83.2651 81.1255 78.8955 99.6473 70.4898 69.481 68.9469 68.4583 59.4275 56.6518 62.9113 55.8327 52.7839 49.8036 49.7217 49.0597 103.386 62.3049 56.4231 55.3485 47.6637 46.9235 43.4374 43.3765 43.102
threshold=7.5000000000000009 2.5000000000000004 13.500000000000002 10.500000000000002 -0.22249404340982434 -1.3780999999999985 0.27886880934238439 2.8708400000000016 1.5000000000000002 0.45097103714942938 0.18970016390085223 -0.11966143175959586 -0.79444999999999999 0.25909382104873663 -0.036171277984976762 0.090175397694110884 -0.21074567735195157 -0.1319385692477226 -0.008657791651785372 -0.50776278972625721 -0.033218054100871079 0.17355075478553775 -0.013301416300237177 45.765000000000008 0.086491130292415633 -0.011337761301547287 -0.0048971080686897031 4.5000000000000009 -0.093910750001668916 -0.14224264025688169
decision_type=2 2 2 2 2 2 2 2 2 2 2 2 2 2 2 2 2 2 2 2 2 2 2 2 2 2 2 2 2 2
left_child=12 4 6 7 -2 -6 10 16 -9 25 -3 19 13 -1 18 17 -4 -16 -10 -5 21 24 29 -22 -18 -7 27 -21 -25 -23
right_child=1 2 3 11 5 9 -8 8 14 -11 -12 -13 -14 -15 15 -17 20 -19 -20 26 23 22 -24 28 -26 -27 -28 -29 -30 -31
leaf_value=-0.11626581882670511 -0.077369846307402013 -0.063869256065748434 -0.062421365209735916 0.27045642817339433 -0.041651280164275162 0.17953334490296632 -0.10014846738770644 -0.039997039329295117 0.13745846540482537 0.047921701001283144 0.26819061210197243 -0.097359016871832488 -0.096247263248196588 0.23812713673678726 0.12692724498543781 0.16358762075485758 -0.023807356291448905 -0.13624960478677048 0.20847633681151878 -0.11498310027837882 -0.132311684160443 0.18830337945952022 -0.093946968184009827 -0.1224151822387568 0.20236089394002824 -0.016661795731279242 -0.11934582650268653 0.20633034806177275 0.17491243596125966 -0.064651196753622464
leaf_weight=7.0950696021318462 14.730473309755324 12.286491125822069 21.06296880543232 11.361277855932711 18.718137234449387 941.62544602155685 77.176320441067219 24.029926709830761 155.08308870345354 44.304230093955994 12.935613624751566 34.977115117013454 46.70635698735714 14.205059528350828 13.578955739736559 46.050790034234524 13.666968852281569 17.368702419102192 271.8350694924593 5.741875700652602 6.7911756187677375 18.344495832920078 43.367329604923725 5.1058258488774291 51.950551688671112 12.547585569322107 13.156683027744291 15.742717057466505 125.7735243588686 10.645043872296808
leaf_count=65 95 84 119 29 143 1918 626 123 381 179 26 281 490 38 29 92 69 97 445 54 44 44 282 40 95 61 108 50 361 60
internal_value=0 0.135614 0.106741 0.124381 0.163818 0.167311 -0.0492645 0.135764 0.158952 0.171228 0.106434 0.00846113 -0.0284923 0.120079 0.168439 0.0894875 0.0945046 -0.0207751 0.182678 0.0889193 0.106496 0.0643545 -0.0180786 0.14873 0.155254 0.176953 0.0293807 0.120458 0.163313 0.0954177
internal_weight=0 2039.96 1008.03 905.634 1031.93 1017.2 102.398 824.654 527.947 998.477 25.2221 80.9797 68.0065 21.3001 503.917 76.9984 296.708 30.9477 426.918 46.0026 275.645 137.974 72.3569 137.671 65.6175 954.173 34.6413 21.4846 130.879 28.9895
internal_count=6528 5935 3539 2803 2396 2301 736 2281 1167 2158 110 522 593 103 1044 218 1114 126 826 241 995 550 386 445 164 1979 212 104 401 104
is_linear=0
shrinkage=0.1


Tree=5
num_leaves=31
num_cat=0
split_feature=1 104 107 107 105 54 0 92 33 2 0 52 19 96 76 54 80 85 62 107 30 106 106 36 71 43 0 14 46 71
split_gain=140.534 160.577 141.523 134.513 72.1239 56.1793 64.6793 60.8016 54.6933 54.3186 61.7859 53.6606 51.8166 54.8237 50.6942 47.725 47.5559 44.6131 44.1188 43.8949 49.4244 43.5253 42.9701 41.7613 45.8024 41.2986 39.659 58.4865 39.2166 39.1841
threshold=166.17555000000002 1.0000000180025095e-35 1.5000000000000002 8.5000000000000018 11.500000000000002 0.1733052656054497 1.5632500000000003 -0.23190223425626752 0.35519506037235266 44.730000000000011 -1.3780999999999985 -0.0892173796892166 0.19308046996593478 -0.39060123264789576 -0.1008346527814865 -0.019766119308769699 -0.29107823967933649 -0.090073671191930757 -0.0019001404289156196 2.5000000000000004 0.16555789113044742 20.500000000000004 34.500000000000007 0.36151129007339483 -0.13473930209875104 -0.2182933688163757 0.74405500000000002 -0.20940814167261121 0.38360202312469488 -0.18031793087720868
decision_type=2 2 2 2 2 2 2 2 2 2 2 2 2 2 2 2 2 2 2 2 2 2 2 2 2 2 2 2 2 2
left_child=1 -1 11 4 5 9 7 -7 12 15 -11 -3 13 -5 16 -2 -15 19 -19 -17 -21 -8 -6 -12 -25 -14 27 -13 -27 -9
right_child=3 2 -4 8 22 6 21 29 -10 10 23 26 25 14 -16 17 -18 18 -20 20 -22 -23 -24 24 -26 28 -28 -29 -30 -31
leaf_value=-0.05096294400176711 -0.13003002133287647 -0.073712430443881968 -0.040073447974559834 0.13995235607816467 -0.098102112904235567 0.12783807376778342 0.18457547791617951 0.17702800393003026 -0.11800784216087729 -0.1146385620541113 0.14877677001543088 -0.12229282938878105 0.23602460477335718 0.21552702265894111 -0.091432281227532608 0.10222242650895119 -0.12082578636501898 -0.13828934246225955 0.17122301050374655 -0.042104004657021715 0.13746345608391583 0.13128108382407874 0.10189476885320413 -0.14110349475718845 0.10524930423741211 -0.1242407416220781 0.16873458653295417 0.13529122404332436 0.17416797847890164 -0.095682006256999103
leaf_weight=101.35852903872728 10.223944060504435 11.757616914808748 59.622620344161987 25.103374779224396 21.014756113290787 92.19245632737875 445.72768910974264 6.7741899490356472 20.574298284947872 9.6555900052189809 480.72056721150875 12.430809304118155 23.741517834365368 12.604854233562948 45.516757987439632 120.86715254932642 6.3067351430654517 4.9020357802510253 76.107739672064781 57.170340605080128 20.943128809332848 233.53096960484982 21.978305146098137 10.168144963681696 29.276635192334652 8.2967010661959666 160.96604190021753 30.303984865546227 9.3864437043666822 23.708386763930321
leaf_count=835 71 67 412 103 133 286 669 12 188 93 981 96 42 26 332 309 49 30 137 316 52 432 86 57 74 61 282 109 27 161
internal_value=0 0.0566325 0.0962779 0.123766 0.131975 0.135364 0.154184 0.0873565 0.0335637 0.11696 0.136008 0.13401 0.0573768 0.0145898 -0.0342556 0.0821849 0.103358 0.089934 0.152494 0.0644643 0.00604012 0.166253 0.00413747 0.14066 0.041744 0.149853 0.145999 0.0603645 0.0341585 -0.0350772
internal_weight=0 376.44 275.081 1816.49 1664.96 1621.97 801.934 122.675 151.531 820.035 529.821 215.458 130.956 89.5317 64.4283 290.214 18.9116 279.99 81.0098 198.981 78.1135 679.259 42.9931 520.165 39.4448 41.4247 203.701 42.7348 17.6831 30.4826
internal_count=6528 1801 966 4727 3899 3680 1560 459 828 2120 1205 554 640 510 407 915 75 844 167 677 368 1101 219 1112 131 130 487 205 88 173
is_linear=0
shrinkage=0.1


Tree=6
num_leaves=31
num_cat=0
split_feature=0 1 107 103 104 107 1 104 51 23 70 46 55 1 39 85 73 76 0 35 32 59 89 51 88 81 7 102 3 99
split_gain=111.839 87.0956 79.1514 90.271 74.4811 98.7289 85.6662 54.5831 60.6264 62.0051 56.7483 50.0226 45.0457 61.4041 44.3706 42.4549 41.6252 41.4127 39.5984 46.65 39.4573 39.8101 37.3861 36.3382 42.5973 48.0146 44.4736 35.6722 34.841 34.6233
threshold=1.6024100000000001 137.13765000000004 4.5000000000000009 3.5000000000000004 1.5000000000000002 1.5000000000000002 257.48985000000005 1.0000000180025095e-35 0.025615658611059192 -0.087439034134149538 -0.12346322461962699 0.35444697737693792 -0.075411058962345109 136.19265000000004 -0.11468488723039626 -0.12765219807624814 0.15761457383632663 -0.1072825789451599 0.19779999999999978 -0.19304307550191876 -0.26608459651470179 -0.059529593214392655 0.52949419617652904 0.0030801424290984873 0.12510944157838824 -0.15758983045816419 -0.027521814219653603 -0.15569034963846204 0.22202078998088839 -0.041075278073549264
decision_type=2 2 2 2 2 2 2 2 2 2 2 2 2 2 2 2 2 2 2 2 2 2 2 2 2 2 2 2 2 2
left_child=4 17 7 23 6 18 12 8 9 27 11 -11 28 -14 15 -8 -7 -2 19 -6 -15 -22 -10 24 25 -4 -27 -3 -1 -18
right_child=1 2 3 -5 5 16 14 -9 22 10 -12 -13 13 20 -16 -17 29 -19 -20 -21 21 -23 -24 -25 -26 26 -28 -29 -30 -31
leaf_value=-0.10823051548076511 0.1809822150173965 -0.13484136470203487 0.1512553532487412 0.10668146426582435 0.1290784787611573 -0.12459285149519919 0.1895830244698129 0.14320279663620869 0.086965889621541725 0.11726299975169902 -0.14204668354725203 -0.064809581396582328 -0.09558966860625015 0.15471256587034363 -0.062198027618507568 -0.015860985322157357 -0.12218538800540904 -0.083464322947303646 0.18085804636736061 -0.12489408289774395 -0.051167132082470305 0.18892970170715398 -0.10073803923163112 -0.090200535135036175 0.14679052001097678 0.13126925407992973 -0.090582216054854212 0.14468437517294672 0.08512839324960994 0.067098267914594917
leaf_weight=62.182057917118073 7.2425692304968825 4.6569150462746611 15.829545602202414 338.86772383004427 27.191624447703362 14.208721570670603 47.076795339584351 800.67552553862333 19.533426500856876 65.961889505386353 13.929366096854208 19.565416075289249 30.287669658660889 32.907244093716145 12.392359808087347 12.791832774877546 10.36357645690441 32.474620193243027 111.53461463004351 9.8529959097504598 29.294718027114868 9.0360565632581693 23.230940341949463 29.128122478723526 25.97756265103817 11.313894651830195 44.88086061924696 232.50873294472694 10.961594544351099 143.09171594679356
leaf_count=513 26 30 50 832 77 108 105 1136 67 150 77 100 277 91 88 68 83 243 126 67 190 20 146 275 72 41 314 446 70 640
internal_value=0 0.111088 0.114619 0.0797233 0.0596166 0.0917516 0.0184613 0.128398 0.0971547 0.111403 0.0451276 0.0756117 -0.0194231 0.023681 0.110036 0.145687 0.0391534 -0.0352416 0.151106 0.0615278 0.0743903 0.00543304 -0.0150007 0.00786557 0.0370128 -0.0025816 -0.0459161 0.139196 -0.079253 0.054315
internal_weight=0 1685.78 1646.06 465.998 563.174 316.243 246.93 1180.06 379.387 336.622 99.4567 85.5273 174.669 101.526 72.261 59.8686 167.664 39.7172 148.579 37.0446 71.238 38.3308 42.7644 127.13 98.0019 72.0243 56.1948 237.166 73.1437 153.455
internal_count=6528 4005 3736 1584 2523 1101 1422 2152 1016 803 327 250 1161 578 261 173 831 269 270 144 301 210 213 752 477 405 355 476 583 723
is_linear=0
shrinkage=0.1


Tree=7
num_leaves=31
num_cat=0
split_feature=0 48 2 12 107 1 76 106 43 106 17 30 107 100 1 107 2 14 39 37 52 14 103 61 22 0 34 1 103 70
split_gain=91.08 80.1943 79.2108 53.75 52.0368 48.7617 47.8382 46.1634 46.4536 46.1152 41.6406 41.6278 41.5776 40.695 38.7816 46.1692 41.7512 40.4839 38.4689 37.1009 37.4953 38.3949 36.9823 58.1208 37.0045 41.4806 62.6772 38.0407 47.4465 53.1157
threshold=0.74405500000000002 -0.12820339947938916 27.755000000000006 -0.05871103145182132 1.0000000180025095e-35 143.20650000000003 -0.067240905016660676 26.500000000000004 -0.2478351145982742 15.500000000000002 0.10445294156670572 -0.069054897874593721 2.5000000000000004 0.45876219868659979 166.17555000000002 8.5000000000000018 51.680000000000007 -0.20940814167261121 -0.21215058863162992 0.03620447404682637 0.12788417935371402 -0.10801270604133605 1.5000000000000002 0.134573869407177 -0.17341475933790204 2.7433100000000015 0.1626139506697655 361.38160000000005 5.5000000000000009 -0.17607877403497693
decision_type=2 2 2 2 2 2 2 2 2 2 2 2 2 2 2 2 2 2 2 2 2 2 2 2 2 2 2 2 2 2
left_child=14 2 4 -4 5 -2 -6 -5 -9 11 -10 -8 13 -3 16 19 -1 -18 -19 20 21 -16 23 -14 -24 26 -26 -27 29 -29
right_child=1 12 3 7 6 -7 9 8 10 -11 -12 -13 22 -15 15 -17 17 18 -20 -21 -22 -23 24 -25 25 27 -28 28 -30 -31
leaf_value=-0.11346781239596747 -0.078558002364220489 0.13895830629878633 -0.033829142065631437 0.10681837962651274 -0.12872727231142528 0.12852919361605272 0.082987281594670781 -0.14963986855599271 0.18084476659258836 0.081571718721086553 0.032654975148416525 -0.083586683558696237 -0.13409934251307432 -0.018084828055944632 0.11467366053543381 -0.11333139764474065 -0.11959152050359641 -0.12042006962884888 0.12851682671219819 -0.12263023249044885 -0.071783841206352492 -0.064514509530766428 0.17993771773805811 0.23060717127341965 -0.15042707275528344 0.13872885792637166 0.067383151370897273 -0.15358009105451459 0.12661177203203852 0.061824620755288023
leaf_weight=32.02866218239069 13.830252811312674 511.62710633128881 33.553461417555809 633.66226138919592 27.233261670917273 63.926096946001053 20.944599095731974 11.503109931945799 23.326558656990528 60.245361909270287 101.33788998425007 52.883086420595646 15.952124714851381 17.050615750253201 134.51200223714113 14.462558865547178 13.415832772850989 7.671399973332881 32.535538583993912 9.1968242749571782 14.127815589308737 13.124656558036802 49.658548437058926 6.0181228369474402 15.832365050911902 161.83003534376621 79.81008917093277 16.587279476225376 56.232851482927799 36.944275498390198
leaf_count=343 101 807 163 1297 211 141 128 58 26 196 322 427 107 76 481 150 114 63 105 72 100 93 68 9 83 265 240 85 100 97
internal_value=0 0.0942732 0.0750297 0.0900666 0.0244972 0.0916953 -0.00789512 0.0954667 0.0426412 0.0166486 0.0603835 -0.0363304 0.115006 0.133893 0.0325229 0.05823 -0.0231294 0.0308293 0.0810202 0.0727433 0.0838509 0.0987441 0.0922541 -0.0341984 0.0989181 0.0879625 0.0313275 0.107907 0.0624641 -0.00492065
internal_weight=0 2009.99 1042.45 803.383 239.063 77.7563 161.306 769.83 136.168 134.073 124.664 73.8277 967.543 528.678 271.075 185.424 85.6514 53.6228 40.2069 170.961 161.764 147.637 438.866 21.9702 416.895 367.237 95.6425 271.594 109.764 53.5316
internal_count=6528 5007 3070 1866 1204 242 962 1703 406 751 348 555 1937 883 1521 896 625 282 168 746 674 574 1054 116 938 870 323 547 282 182
is_linear=0
shrinkage=0.1


Tree=8
num_leaves=31
num_cat=0
split_feature=0 1 107 103 107 106 104 58 1 104 51 23 70 31 39 77 23 91 76 46 3 59 68 41 58 28 47 54 45 55
split_gain=75.1334 60.5615 59.9106 63.114 57.5119 88.464 68.6173 43.0942 46.4935 42.6803 43.3948 44.5011 44.5043 40.7574 43.3788 51.1615 41.3278 44.6471 39.7085 36.3396 34.8422 34.653 33.9319 33.5305 38.654 31.8417 30.8516 29.7074 43.5574 45.7435
threshold=1.6024100000000001 137.13765000000004 4.5000000000000009 3.5000000000000004 1.5000000000000002 11.500000000000002 1.5000000000000002 -0.00070043688174337138 122.16605000000001 1.0000000180025095e-35 0.025615658611059192 -0.087439034134149538 -0.12346322461962699 -0.11406684666872023 -0.11627879366278647 -0.020733630284667012 -0.10823110491037367 -0.15966054052114484 -0.036464039236307137 0.35444697737693792 0.24301987141370776 -0.074381858110427843 -0.036470407620072358 -0.060970054939389222 -0.02539507299661636 -0.026168733835220333 0.062719404697418227 0.16873542964458468 0.16421097517013553 -0.0148705025203526
decision_type=2 2 2 2 2 2 2 2 2 2 2 2 2 2 2 2 2 2 2 2 2 2 2 2 2 2 2 2 2 2
left_child=4 22 9 -4 6 -6 7 20 -9 10 11 25 19 14 16 18 17 -7 -16 -13 -1 -17 -2 24 -18 -3 -21 28 29 -5
right_child=1 2 3 27 5 13 -8 8 -10 -11 -12 12 -14 -15 15 21 23 -19 -20 26 -22 -23 -24 -25 -26 -27 -28 -29 -30 -31
leaf_value=-0.087396304015398024 -0.099292538521435714 -0.14608431233777178 0.00088406935434583481 -0.076588116670568862 -0.10266273283740138 -0.1224060295875604 0.12440181348753343 -0.11529372273556529 0.10927705460168605 0.11550357476748803 -0.019487816107541616 0.090938710849024662 -0.13906879032259603 -0.13064053482724594 0.16351100313270844 -0.11123161459805908 -0.12607384710047231 0.14308293471755468 -0.12342876791836033 0.15556741062410051 0.20900405493678878 0.10038839011891865 0.10006211793414257 -0.040122490452436453 0.13835196180222065 0.11494141972479713 -0.13731799609604595 0.10986632404306212 0.096236614842198503 0.08522554044543329
leaf_weight=38.894994385540485 26.56510091573 4.7651681974530211 128.83334310352802 40.74711000919342 51.54982341080904 6.8416212052106848 150.82021421939135 11.09347654506564 54.561062261462212 816.69743007421494 42.953728727996349 68.932780213654041 13.323553673923014 13.183084487915037 21.174142315983776 41.13481717184186 6.7185962796211234 85.426266491413116 6.2453356534242621 4.7872051596641567 4.4162649847567073 9.5308318063616735 12.581740833818911 39.527263708412647 31.202177219092846 242.57984058186412 14.460029438138006 187.87677427381277 94.795796349644661 30.582439258694649
leaf_count=321 215 27 752 179 488 55 270 121 165 1136 213 150 77 90 48 287 50 213 49 9 15 36 54 229 86 449 91 352 225 76
internal_value=0 0.0877447 0.0905908 0.0608152 0.045948 0.0170466 0.0807176 0.0202541 0.0713319 0.102487 0.0753547 0.0870327 0.0312785 0.0406917 0.0498066 -0.0118762 0.0781865 0.123397 0.0981547 0.0570171 -0.0571736 -0.0714233 -0.0352202 0.0243248 0.0915024 0.109913 -0.064471 0.0826261 0.0518192 -0.00721075
internal_weight=0 1730.48 1691.34 482.835 572.32 312.534 259.786 108.966 65.6545 1208.5 391.802 348.849 101.504 260.984 247.801 78.0851 169.716 92.2679 27.4195 88.18 43.3113 50.6656 39.1468 77.448 37.9208 247.345 19.2472 354.002 166.125 71.3295
internal_count=6528 4005 3736 1584 2523 1631 892 622 286 2152 1016 803 327 1143 1053 420 633 268 97 250 336 323 269 365 136 476 100 832 480 255
is_linear=0
shrinkage=0.1


Tree=9
num_leaves=31
num_cat=0
split_feature=98 37 0 87 106 107 104 103 22 95 79 74 39 99 47 96 48 62 106 1 9 81 48 98 30 21 41 1 37 38
split_gain=65.3147 54.1234 50.2859 46.0743 45.5655 49.7052 49.0405 45.8348 38.7793 49.8367 59.7519 39.1879 38.5754 44.743 36.7779 56.8088 56.1903 65.5181 43.4346 48.9 42.005 38.3701 36.9046 36.5828 36.1135 34.5883 34.5846 34.4452 46.2834 34.4042
threshold=-0.30269327759742731 -0.031202369369566437 0.74405500000000002 0.0082678915932774561 7.5000000000000009 4.5000000000000009 1.5000000000000002 3.5000000000000004 -0.16302952170372007 -0.060910848900675767 -0.051075791940093034 0.050156343728303916 -0.15444934368133542 0.072559729218482985 0.14929551631212237 -0.22417040914297101 -0.11631496250629424 0.19598064571619037 13.500000000000002 273.72510000000005 -0.23673041164875028 0.029596315696835521 -0.2335969805717468 -0.38739308714866633 0.06069143861532212 0.0764160491526127 -0.2477619871497154 402.47995000000009 -0.14595662802457807 0.0093614254146814364
decision_type=2 2 2 2 2 2 2 2 2 2 2 2 2 2 2 2 2 2 2 2 2 2 2 2 2 2 2 2 2 2
left_child=2 -2 -1 -3 -4 6 14 12 -9 11 -11 -10 13 -7 26 18 21 -18 20 -20 29 -17 -22 -12 -25 -14 -6 -8 -29 -16
right_child=1 3 4 -5 5 7 27 8 9 10 23 -13 25 -15 15 16 17 -19 19 -21 22 -23 -24 24 -26 -27 -28 28 -30 -31
leaf_value=0.031740837969202386 -0.032419994038433861 -0.080750416292268201 -0.073763579889897971 0.11765959769067849 -0.1433049742467089 0.08276740875489727 0.12559100318515071 0.14596798744729239 0.097136209905697588 0.09234765062409396 -0.14367565487995879 -0.06731355128334951 -0.12255436722737444 -0.12207229640877591 0.14389123767984954 -0.13807933135869085 0.10061397156813748 -0.15616479048164475 0.12489322629735655 0.056734068050486253 -0.12869570256217661 0.11382702373044316 0.07723362476113281 -0.13685855549119824 0.11443859797756371 0.092298303101599879 0.12015344019556558 0.08142474844896555 -0.18641334092978845 -0.10317926940123999
leaf_weight=244.68331248313189 109.55101430788636 14.591310501098631 19.091622225940228 59.145715903490782 5.1045056730508795 56.619112886488438 430.63205678761005 57.760881423950195 185.68282659351826 37.924383282661438 30.585393838584423 15.717122636735438 34.233016557991505 13.137752983719109 6.9074149802327147 33.462445959448814 56.630652166903019 12.051315017044542 244.33377980440855 184.92521815001965 9.3785262331366521 7.380261003971099 120.72961459308863 9.1352982893586177 15.290371209383009 9.5924493484199029 208.69005563855171 34.151766031980515 7.9545254260301581 30.61905874311924
leaf_count=1289 658 101 225 185 28 208 510 89 385 92 169 62 265 107 13 168 102 63 326 353 67 13 316 53 28 41 366 54 34 158
internal_value=0 0.0121621 0.0743814 0.0783976 0.0799378 0.0815166 0.090972 0.0532333 0.0710522 0.0563506 -0.00422426 0.0843027 -0.00200363 0.0441886 0.0775234 0.0665253 0.000323623 0.0555582 0.0786728 0.0955302 0.0355062 -0.09256 0.0623897 -0.0708005 0.0204525 -0.0755278 0.113863 0.11715 0.030826 -0.0577015
internal_weight=0 183.288 2122.4 73.737 1877.72 1858.63 1392.95 465.679 352.096 294.335 92.9354 201.4 113.582 69.7569 920.213 706.418 109.525 68.682 596.894 429.259 167.635 40.8427 130.108 55.0111 24.4257 43.8255 213.795 472.738 42.1063 37.5265
internal_count=6528 944 5584 286 4295 4070 2571 1499 878 789 342 447 621 315 1973 1579 346 165 1233 679 554 181 383 250 81 306 394 598 88 171
is_linear=0
shrinkage=0.1


Tree=10
num_leaves=31
num_cat=0
split_feature=38 0 103 71 14 106 106 48 85 51 107 106 63 10 0 24 2 35 4 21 34 98 95 88 98 38 82 100 83 54
split_gain=57.8814 43.8873 45.1299 49.5019 44.7785 37.9936 43.148 41.8023 36.7362 36.0421 35.2387 69.1501 36.3541 35.8997 35.4524 33.2554 40.6458 32.5465 44.5861 31.1398 33.9235 32.174 30.6637 29.7255 35.952 46.5018 35.2653 29.2678 48.8828 43.1628
threshold=0.1701694801449776 -0.51384999999999581 1.5000000000000002 -0.058748414739966386 -0.18987816572189328 8.5000000000000018 22.500000000000004 -0.27116785943508143 -0.068385612219572053 0.016727681271731857 2.5000000000000004 14.500000000000002 0.15009175240993503 -0.210271380841732 -0.35479999999999989 0.034147851169109351 65.730000000000018 -0.20794785767793653 0.017658160999417308 0.11834821477532388 0.2363725230097771 -0.45863845944404596 -0.21738235652446744 0.067301217466592803 -0.48375789821147913 0.14586066454648974 0.22951570153236392 0.31681410968303686 0.25915098190307623 0.16187300533056262
decision_type=2 2 2 2 2 2 2 2 2 2 2 2 2 2 2 2 2 2 2 2 2 2 2 2 2 2 2 2 2 2
left_child=1 19 3 4 17 -2 7 -7 9 27 13 12 -12 -4 -13 16 -16 -3 -19 20 -1 -22 -10 24 -17 26 -26 -8 29 -29
right_child=5 2 10 -5 -6 6 8 -9 22 -11 11 14 -14 -15 15 23 -18 18 -20 -21 21 -23 -24 -25 25 -27 -28 28 -30 -31
leaf_value=-0.11909664628012245 -0.013626170486092319 -0.12839531402797988 -0.087117419626228848 0.077669705556236937 -0.13137052184885559 -0.091206456469614561 0.10574246365647391 0.094434865477483809 0.13419914907872429 -0.087885206755119488 -0.098879441142071242 0.2145916099695846 0.13490703063857443 0.088361152236429874 0.05556257228370079 0.1317812856889761 -0.08995149804420291 0.17922113524031125 -0.031203843165978414 0.098640402099766489 0.11572504776220245 -0.11541519161299395 -0.17185619706562749 0.090899307241383884 -0.01005049035559197 -0.15488463643548361 0.11927994013436966 -0.10880386751324755 -0.16724456510415864 0.070239513170022111
leaf_weight=37.165406472980976 44.391920905560255 12.657837700098751 12.044566094875334 51.086673557758331 36.324442990124226 12.300955954939125 108.73560114577413 871.3025739826262 4.3987919539213207 16.254736043512821 45.992639943957329 13.542772151529787 7.7759856432676306 363.72540914639831 43.546545401215553 27.782881416380405 34.327852487564087 17.014844976365566 24.668077982962132 15.913095284253357 16.259354546666149 9.5648293942213041 12.797584772109984 182.26362276822329 67.26328158006072 15.701236598193644 30.709574699401855 14.875468298792837 10.742380321025847 141.96277502924204
leaf_count=344 306 111 72 162 316 74 211 1691 6 63 356 12 28 736 107 41 166 42 161 70 49 98 68 414 252 86 60 71 54 301
internal_value=0 0.0454174 0.0511578 -0.00105537 -0.0454142 0.0772129 0.080592 0.0918505 0.0484773 0.0568262 0.0599201 0.0416356 -0.0650694 0.0827365 0.0554561 0.0500896 -0.00858156 0.0120439 0.054691 -0.0263478 -0.0579237 0.0301147 -0.093568 0.0642036 0.0298069 0.0048835 0.0304881 0.0653391 0.0391232 0.053258
internal_weight=0 1065.33 986.428 141.752 90.6652 1237.76 1193.37 883.604 309.767 292.571 844.676 468.906 53.7686 375.77 415.138 401.595 77.8744 54.3408 41.6829 78.9027 62.9896 25.8242 17.1964 323.721 141.457 113.674 97.9729 276.316 167.581 156.838
internal_count=6528 3683 3122 792 630 2845 2539 1765 774 700 2330 1522 384 808 1138 1126 273 314 203 561 491 147 74 853 439 398 312 637 426 372
is_linear=0
shrinkage=0.1


Tree=11
num_leaves=31
num_cat=0
split_feature=107 106 107 27 103 107 107 1 92 0 105 56 105 2 25 12 99 59 25 60 9 90 89 68 25 74 26 104 1 0
split_gain=54.1666 55.7602 109.898 41.8134 40.7331 42.6834 38.6124 63.4138 82.6759 53.6544 51.7947 45.0483 44.8179 44.434 36.7003 36.0368 34.1785 31.7553 31.4141 44.5901 40.3197 38.4635 42.8289 36.7875 31.1941 30.5354 30.4616 30.3882 47.8126 32.2341
threshold=12.500000000000002 12.500000000000002 1.0000000180025095e-35 0.2660274356603623 1.5000000000000002 2.5000000000000004 2.5000000000000004 270.3653000000001 -0.087460223585367189 2.8247100000000014 3.5000000000000004 0.0017733950517140331 1.5000000000000002 29.445000000000004 0.1231563948094845 0.18970016390085223 0.16177179664373401 -0.22937234491109845 0.0434660091996193 -0.050112189725041383 -0.17338130623102185 1.0000000180025095e-35 0.56161892414093029 -0.10088238492608069 0.098628319799900069 -0.41611833870410914 -0.038983188569545739 1.0000000180025095e-35 182.19980000000001 0.19779999999999978
decision_type=2 2 2 2 2 2 2 2 2 2 2 2 2 2 2 2 2 2 2 2 2 2 2 2 2 2 2 2 2 2
left_child=1 2 14 6 25 16 7 -3 10 11 13 18 -11 -9 27 -7 24 -13 20 23 21 26 -23 -20 -6 -4 -8 28 -1 -29
right_child=-2 3 4 -5 5 15 9 8 -10 12 -12 17 -14 -15 -16 -17 -18 -19 19 -21 -22 22 -24 -25 -26 -27 -28 29 -30 -31
leaf_value=-0.069048858608023414 -0.04657161653193171 0.10755044149028625 0.18441552848849974 -0.12896258789274939 0.058340407194391652 -0.12021508860042192 -0.0066809364207197344 0.080757400088996567 -0.15849324521626473 -0.12627272705196205 0.079909495685342141 -0.05526163114228471 0.07676690392182843 -0.16603917939826315 -0.13120983335009265 0.075920818920538674 -0.13631176455933178 0.099754880520012079 -0.033275380404881094 -0.14541246527975971 -0.14139170850899405 -0.13562380055181983 0.10390619396149388 0.123922713663079 -0.13470869056713142 -0.092808146661156776 -0.14010315272781734 -0.001740930644997784 0.11519693049328106 0.12145553059124835
leaf_weight=28.677076369524002 50.060970053076744 475.48574426397681 4.2185611538588992 10.774805516004561 143.32819413021207 37.293294057250023 56.766581252217293 12.674845755100252 18.448102444410324 11.066566504538057 199.73155664652586 15.395836319774387 616.7719495035708 17.188060462474823 8.054008334875105 12.510085403919218 10.891050592064856 93.282295249402523 21.010531231760979 10.186077028512953 25.319030214101076 9.0081574097275716 43.569242477416992 51.07848883420229 8.8893624730408174 68.320356752723455 24.495901983231306 24.4523487649858 27.67931892350316 161.57831820100546
leaf_count=257 332 701 8 77 446 362 223 21 73 93 328 85 1250 64 58 51 85 225 80 63 158 60 93 97 57 604 152 115 81 229
internal_value=0 0.0586 0.0304489 0.0674106 -0.0119684 0.0100808 0.0686541 0.0861679 0.0451787 0.0556967 0.0615439 0.0243303 0.073188 -0.0612902 0.0787958 -0.0709478 0.034822 0.0777945 0.000264066 0.0504341 -0.0256707 -0.00377924 0.0628672 0.0781069 0.0470665 -0.076686 -0.0469 0.0857738 0.0214431 0.105262
internal_weight=0 2248.15 535.892 1712.25 285.451 212.912 1701.48 723.528 248.043 977.951 229.594 350.112 627.839 29.8629 250.441 49.8034 163.109 108.678 241.434 82.2751 159.159 133.84 52.5774 72.089 152.218 72.5389 81.2625 242.387 56.3564 186.031
internal_count=6528 6196 2353 3843 1613 1001 3766 1187 486 2579 413 1236 1343 85 740 413 588 310 926 240 686 528 153 177 503 612 375 682 338 344
is_linear=0
shrinkage=0.1


Tree=12
num_leaves=31
num_cat=0
split_feature=107 106 107 37 27 29 2 95 92 34 105 33 13 25 19 96 76 52 11 45 22 64 17 1 46 23 80 54 84 104
split_gain=45.9611 51.0298 89.6 35.762 35.0442 33.5303 40.5506 46.1728 33.2701 37.512 31.8694 31.5573 30.7904 30.6887 30.6246 32.5587 31.3044 33.2353 29.7744 40.8223 29.5927 28.2768 46.3884 35.1735 27.7824 27.2732 27.259 26.413 25.7486 25.1419
threshold=8.5000000000000018 12.500000000000002 1.0000000180025095e-35 -0.10266442969441412 0.2660274356603623 0.38503223657608038 67.63000000000001 -0.025813151150941845 -0.23991875350475309 0.15791554749011996 11.500000000000002 0.35519506037235266 -0.097284644842147813 0.1231563948094845 0.19308046996593478 -0.39060123264789576 -0.1008346527814865 -0.13547129929065702 0.050597928464412696 0.22730715572834018 -0.017856142483651635 -0.3075950145721435 0.3241626918315888 181.27540000000002 0.28169842064380651 -0.088278390467166887 -0.29107823967933649 0.28439308702945715 -0.075698193162679658 1.0000000180025095e-35
decision_type=2 2 2 2 2 2 2 2 2 2 2 2 2 2 2 2 2 2 2 2 2 2 2 2 2 2 2 2 2 2
left_child=1 2 13 5 8 6 7 -4 10 20 -3 14 -7 29 15 28 26 -18 27 -20 25 -9 23 -23 -12 -10 -17 -5 -2 -1
right_child=11 4 3 18 -6 12 -8 21 9 -11 24 -13 -14 -15 -16 16 17 -19 19 -21 -22 22 -24 -25 -26 -27 -28 -29 -30 -31
leaf_value=0.019254176581687984 -0.12782420351282614 0.083922154731177395 -0.11767324347293205 -0.12666670012061687 -0.12634048076226034 0.12843869389928472 0.097911593859221546 -0.12317403267316968 0.036286821080864402 0.060244053238778218 0.099155199952978362 -0.12092717176699477 -0.013562690740236217 -0.12798587677266232 0.083529336028246498 0.12347407708026373 0.15923930214212276 -0.12754402260657735 -0.12300988248875733 0.13667616210118297 -0.16181915503752681 -0.090515594839573374 0.2075828185787274 0.14951337913035076 -0.14500682736564857 -0.099053420679604487 -0.12427927614403017 0.048539200256380803 0.11560428450630966 0.095787348105207837
leaf_weight=55.97465830296278 5.2992453053593662 720.80189445987344 46.547560837119818 54.307465400546789 9.6246389709413034 38.815323412418365 24.83165217936039 11.137134261429308 96.427408747375011 717.88780359551311 7.8307343944907215 19.140919964760542 25.172246228903532 7.4616529755294314 45.474403645843267 14.469491079449655 4.470940187573432 42.024829994887114 10.296438165009024 14.689638964831827 10.272552102804182 19.781802177429203 13.654693298041819 8.8302060440182668 11.510601460933684 17.608541488647461 6.4074269123375407 10.224333759397267 24.135724946856499 184.10095826908946
leaf_count=338 39 1265 300 503 72 75 70 118 229 1575 19 188 129 58 130 26 8 324 97 59 53 182 21 14 69 75 49 35 64 344
internal_value=0 0.054977 0.0279675 -0.0109644 0.0638982 0.0137216 -0.0164586 -0.0448724 0.0650553 0.0514619 0.0805231 -0.000378874 0.0725764 0.0717359 0.0158382 -0.0159589 -0.0542916 -0.0999675 -0.063021 0.0296629 0.000744616 0.0185819 0.0559342 -0.0164381 -0.0461528 0.0153886 0.047435 -0.0989073 0.0717793 0.0779433
internal_weight=0 2117.79 525.826 278.288 1591.96 188.771 124.783 99.9514 1582.34 842.196 740.143 161.423 63.9876 247.537 142.282 96.8077 67.3727 46.4958 89.5179 24.9861 124.309 53.4038 42.2667 28.612 19.3413 114.036 20.8769 64.5318 29.435 240.076
internal_count=6528 5700 2343 1603 3357 909 705 635 3285 1932 1353 828 204 740 640 510 407 332 694 156 357 335 217 196 88 304 75 538 103 682
is_linear=0
shrinkage=0.1


Tree=13
num_leaves=31
num_cat=0
split_feature=3 2 0 106 73 103 9 58 0 66 16 78 75 96 98 2 0 43 53 0 63 35 68 97 47 36 63 40 73 6
split_gain=41.1192 49.6085 38.7748 44.0862 44.2338 36.692 36.0937 35.4075 33.8848 31.7774 36.8652 44.7167 31.1087 30.4509 36.0245 30.3935 37.1472 31.1757 38.4864 31.1363 29.7692 28.6109 28.3835 29.5568 31.0837 28.1889 27.7679 28.0722 27.1721 26.4569
threshold=0.058350516483187682 44.785000000000011 1.7817600000000005 22.500000000000004 0.45317134261131292 6.5000000000000009 -0.17338130623102185 -0.025837132707238194 -1.1788999999999983 -0.042265789583325379 -0.098035052418708787 0.083145685493946089 -0.20655571669340131 -0.31365816295146937 -0.4710299670696258 20.515000000000004 4.5006000000000048 -0.3295150995254516 0.049443827942013747 3.5703000000000022 0.066706314682960524 -0.24963923543691632 -0.071507226675748811 0.11599620804190637 0.12691430747509005 0.32375274598598486 -0.018404626287519928 0.24282506853342059 0.10301143303513528 -0.21279714256525037
decision_type=2 2 2 2 2 2 2 2 2 2 2 2 2 2 2 2 2 2 2 2 2 2 2 2 2 2 2 2 2 2
left_child=2 20 7 4 15 9 8 12 -3 -5 11 -11 25 -13 -15 16 17 -4 19 29 22 -20 23 -2 -25 -1 27 -10 -9 -19
right_child=1 6 3 5 -6 -7 -8 28 26 10 -12 13 -14 14 -16 -17 -18 18 21 -21 -22 -23 -24 24 -26 -27 -28 -29 -30 -31
leaf_value=0.059210697170056226 0.13315901911986303 -0.11461537470462886 0.12570875977267612 0.049314008288385329 -0.062577794062234487 0.094726184280580245 -0.061027749177762103 -0.13892543334679983 -0.10072111798772874 -0.13681975069558569 0.10534338519968019 0.083567324002713966 -0.13210043345766898 0.026536461685803155 -0.17294093535213462 0.090995552576933092 0.099577517130683912 -0.038443269798692226 0.061615147660205871 -0.14777866066630518 -0.055971715252102032 -0.1431954280450019 0.066647603321764962 -0.13460277300774875 -0.0010235677385286453 -0.072828711207208852 0.069637439719124131 0.061279514226304656 0.048258471515832041 0.13073967160518254
leaf_weight=40.584871768951416 11.409507684409617 11.46473817154765 18.021090108901262 127.76514892280102 22.12999714910984 74.579668760299683 28.938716500997543 7.933747485280036 20.416480179876089 35.531614992767572 18.959856905043125 27.114221557974815 21.265782684087753 21.976447403430939 15.395785346627234 629.97344752773643 71.459846444427967 13.942889992147682 8.9365092627704126 7.4968755319714537 89.030490256845951 28.808055773377419 65.854474645107985 24.093977555632591 62.892524112015963 26.875393904745579 333.59889358654618 22.467804655432701 344.34729968383908 27.423193082213402
leaf_count=142 25 125 46 272 120 125 122 57 100 152 29 49 183 50 76 915 105 81 26 41 561 180 202 231 271 180 760 58 1170 74
internal_value=0 0.0254995 0.0550308 0.0647017 0.0769 0.0332613 0.0467065 0.0298227 0.0547429 0.0146831 -0.0225055 -0.046741 -0.0266377 0.00289175 -0.0556398 0.0807293 0.0440009 0.00604292 -0.0188569 0.0397317 -0.00940599 -0.0947039 0.0158345 -0.0181736 -0.038023 0.00660772 0.0599002 -0.0158462 0.0440429 0.0737147
internal_weight=0 670.168 1590.52 1149.51 828.192 321.323 416.887 441.007 387.948 246.743 118.978 100.018 88.726 64.4865 37.3722 806.062 176.088 104.629 86.6075 48.863 253.281 37.7446 164.25 98.396 86.9865 67.4603 376.483 42.8843 352.281 41.3661
internal_count=6528 2455 4073 2341 1588 753 1165 1732 1043 628 356 327 505 175 126 1468 553 448 402 196 1290 206 729 527 502 322 918 158 1227 155
is_linear=0
shrinkage=0.1


Tree=14
num_leaves=31
num_cat=0
split_feature=107 0 107 106 104 1 54 2 1 74 95 31 69 39 51 78 54 61 1 3 0 35 63 1 104 70 57 90 34 51
split_gain=37.9436 38.4509 31.1271 54.2563 46.3564 32.8556 30.4433 40.1194 38.64 31.9625 35.8538 35.3733 29.1027 32.9017 27.6384 28.6736 26.809 27.2957 26.7583 26.5633 26.104 27.4436 26.0954 25.9471 28.234 27.9046 25.8716 25.3172 30.7761 24.9573
threshold=8.5000000000000018 2.0194000000000005 1.5000000000000002 11.500000000000002 1.5000000000000002 122.16605000000001 0.1733052656054497 44.730000000000011 330.82945000000001 -0.0087491939775645716 -0.049389265477657311 -0.29097707569599146 0.229342095553875 -0.21410021185874936 -0.0062986032571643582 0.080724157392978682 -0.022573753260076043 0.0887749418616295 310.30635000000007 0.082937799394130721 0.19779999999999978 -0.19304307550191876 -0.041139880195260041 383.38215000000008 1.0000000180025095e-35 -0.21938578784465787 0.020295936614274982 0.082779090851545348 0.23311055451631549 -0.15154960006475446
decision_type=2 2 2 2 2 2 2 2 2 2 2 2 2 2 2 2 2 2 2 2 2 2 2 2 2 2 2 2 2 2
left_child=1 2 4 -4 5 -1 7 12 26 10 -10 -12 14 -14 22 -16 -5 -18 -2 -7 21 -6 -3 -8 -25 -26 -9 28 -20 -15
right_child=18 6 3 16 20 19 23 8 9 -11 11 -13 13 29 15 -17 17 -19 27 -21 -22 -23 -24 24 25 -27 -28 -29 -30 -31
leaf_value=-0.078621226386340518 -0.096346434113823126 -0.090444508946349228 -0.083413859289486872 -0.13361012661992264 0.063222279500919493 0.04928371084456569 0.078252467598212333 -0.18748252088080256 0.090207010236593471 -0.079975454863117287 0.037370740361356229 -0.14114033691198732 0.033073488487999202 0.12083623463397004 0.0074512734902787599 -0.15463874532573602 0.033022061604734948 -0.14277015997752132 0.026675859056847242 -0.093848757178118983 0.10786555580507223 -0.12724165863450629 0.063556524087926988 -0.099488746226232327 -0.17804899474776678 0.063703765750883629 0.094479308875893273 0.17786294318562929 -0.09847796322987501 -0.14547741667574488
leaf_weight=32.405163824558258 26.786213420331478 11.824832409620283 55.835469946265221 10.582533236593006 30.46927809715271 118.70030814781785 584.3993270136416 3.3046247512102118 71.954693667590618 24.692722514271736 35.008473820984364 16.254653871059418 27.936161331832409 3.9938823431730262 73.514919817447662 12.816275268793104 316.66871324554086 9.0861806347966176 98.092286143451929 14.55598673969507 129.77470254898071 10.063810832798479 158.34200593829155 16.105760022997856 5.134612262248992 68.089220389723778 213.22004965692759 8.7294022738933545 24.569760754704475 29.59093577042222
leaf_count=343 250 64 564 69 77 353 977 15 111 80 73 65 85 6 334 84 1033 54 372 96 150 67 370 58 23 114 280 14 192 155
internal_value=0 0.0455483 0.0270121 0.00787518 0.0493504 0.0116877 0.0555006 0.0406141 0.0632635 0.0238665 0.0446764 -0.019232 0.0146589 -0.0471101 0.0294742 -0.0166118 0.0230301 0.0281187 -0.00525361 0.0336489 0.0859856 0.0159327 0.052855 0.0705798 0.020385 0.0467515 0.090176 0.0133171 0.00160698 -0.113808
internal_weight=0 2084.33 728.142 392.173 335.969 165.661 1356.18 682.454 364.435 147.911 123.218 51.2631 318.019 61.521 256.498 86.3312 336.337 325.755 158.178 133.256 170.308 40.5331 170.167 673.729 89.3296 73.2238 216.525 131.391 122.662 33.5848
internal_count=6528 5700 2806 1720 1086 792 2894 1722 624 329 249 138 1098 246 852 418 1156 1087 828 449 294 144 434 1172 195 137 295 578 564 161
is_linear=0
shrinkage=0.1


Tree=15
num_leaves=31
num_cat=0
split_feature=107 106 10 46 57 104 1 1 0 0 99 107 0 56 103 100 37 2 76 22 4 99 79 64 51 86 100 93 6 104
split_gain=34.6582 74.9781 37.0817 34.3441 32.6923 32.6603 61.095 38.685 64.0694 44.9176 53.2238 32.3371 36.3881 35.6705 32.1393 35.0765 30.6673 29.371 28.2647 27.4871 40.1433 31.0081 27.0182 38.361 28.9267 26.4755 26.3197 39.5959 29.9506 25.4378
threshold=2.5000000000000004 14.500000000000002 -0.22249404340982434 0.27886880934238439 1.0000000180025095e-35 1.5000000000000002 137.13765000000004 279.87870000000004 1.4560999999999999 3.6097000000000032 0.041173720732331283 12.500000000000002 2.8494500000000014 0.004896467551589013 1.5000000000000002 0.45565575361251837 -0.18645012378692624 23.265000000000004 -0.11134325340390204 -0.036171277984976762 0.090175397694110884 0.11764680594205858 0.017888735048472885 0.020906804129481319 -0.10775860399007796 -0.47044560313224787 0.41986936330795294 0.41078040003776556 -0.1661516800522804 2.5000000000000004
decision_type=2 2 2 2 2 2 2 2 2 2 2 2 2 2 2 2 2 2 2 2 2 2 2 2 2 2 2 2 2 2
left_child=2 3 -1 -2 -5 6 25 8 17 18 -11 12 13 16 15 -14 29 -8 -9 -16 21 -21 24 -24 -18 -4 -10 28 -28 -3
right_child=1 11 5 4 -6 -7 7 9 26 10 -12 -13 14 -15 19 -17 22 -19 -20 20 -22 -23 23 -25 -26 -27 27 -29 -30 -31
leaf_value=-0.09521410072317027 0.037404278882716788 -0.16402768930960537 0.043241037970594982 0.099474805242385764 -0.09804209274415239 0.075477002713404184 0.1171743143797238 -0.2102496425623763 0.083007784861532305 0.026954091502094841 -0.17083417113789237 -0.045639705424949308 -0.11822939700498653 0.061399918517702781 0.06827416980334948 0.14552163439619359 -0.13955861160887326 -0.059700770757915911 0.072948340625371935 -0.16508665268754641 0.061858699172308552 0.026597862550558168 -0.11140593839538238 0.057538664123727837 0.048655870631259583 -0.087453797096461727 -0.16901339273152774 0.1159522079956567 0.02513482859744717 -0.0024268027864766044
leaf_weight=17.225453436374664 35.456203628331423 21.578120615333319 22.423474933952093 9.3123121894896013 83.688444294035435 401.371253952384 11.279613420367239 3.7518917024135581 408.67207682877779 28.109872967004776 26.366653174161911 47.202042173594236 20.307320345193151 98.568127982318401 479.1074776314199 6.7078413479030123 8.8353583775460702 55.989790432155132 58.078099101781845 18.489614076912403 52.50192316621542 15.525516547262667 36.522430963814259 21.265783026814461 107.73339523747563 50.199010401964188 14.335948221385477 20.682883128523827 17.826037973165512 17.756166879087687
leaf_count=142 142 114 118 47 777 689 43 16 706 57 106 332 119 266 871 10 62 293 99 91 96 42 217 44 299 496 75 36 45 78
internal_value=0 0.0253763 0.0503913 -0.046338 -0.0782644 0.0526325 0.0398571 0.0496464 0.0611312 -0.00256892 -0.0687755 0.035052 0.0392611 0.0116351 0.0538171 -0.0527402 -0.0113196 -0.0300427 0.0557637 0.0589064 0.0070305 -0.0775961 0.00667367 -0.0492351 0.0343901 -0.0470995 0.0744204 0.00801049 -0.0614052 -0.0910783
internal_weight=0 1080.56 1136.31 128.457 93.0008 1119.09 717.715 645.093 528.786 116.307 54.4765 952.101 904.899 312.259 592.64 27.0152 213.691 67.2694 61.83 565.625 86.5171 34.0151 174.357 57.7882 116.569 72.6225 461.517 52.8449 32.162 39.3343
internal_count=6528 3607 2921 966 824 2779 2090 1476 1198 278 163 2641 2309 1080 1229 129 814 336 115 1100 229 133 622 261 361 614 862 156 120 192
is_linear=0
shrinkage=0.1


Tree=16
num_leaves=31
num_cat=0
split_feature=38 9 98 0 8 96 83 9 36 38 74 67 26 59 34 0 71 71 48 63 79 20 10 16 57 0 75 90 77 5
split_gain=33.1636 34.732 31.1854 33.4377 30.4181 28.779 28.9369 27.7704 27.6122 27.2948 27.2252 28.4745 27.222 27.1821 25.9038 25.0267 32.3739 24.9272 26.0897 24.3202 22.7872 22.6571 29.8846 23.8677 23.3342 21.7376 37.0142 32.489 29.8156 31.881
threshold=0.1693263649940491 -0.28770186007022852 -0.48132438957691187 1.3508000000000002 -0.083469681441783891 -0.48769864439964289 0.25619165599346166 -0.20922110229730603 0.19669622927904132 0.16367853432893756 0.03489802964031697 0.30012811720371252 0.053399752825498588 -0.20824410021305081 0.15088170766830447 6.3942600000000089 0.018333756364881996 -0.21267091482877729 -0.32068756222724909 0.13794373720884326 0.20371522754430774 0.16427808254957202 -0.1198151335120201 -0.014007593505084513 0.15301233530044558 2.7433100000000015 -0.075211040675640092 -0.10287227481603621 0.035086089745163924 0.36835867166519171
decision_type=2 2 2 2 2 2 2 2 2 2 2 2 2 2 2 2 2 2 2 2 2 2 2 2 2 2 2 2 2 2
left_child=1 17 10 14 9 7 20 -6 13 12 -3 -12 -5 -2 -4 25 -17 19 -19 -1 -7 22 24 -24 -20 26 27 -10 29 -29
right_child=8 2 3 4 5 6 -8 -9 15 -11 11 -13 -14 -15 -16 16 -18 18 21 -21 -22 -23 23 -25 -26 -27 -28 28 -30 -31
leaf_value=-0.10332384318247741 0.17047080510556992 0.054657417083781301 0.031010081406725065 0.042325572427044801 -0.030051474614209091 -0.10633134624920855 0.049034302065922152 0.17926027217521714 0.082166093571401921 -0.16697175027741309 0.06309284045156921 -0.17563019915290601 -0.052485209520710896 -0.10662935892678756 -0.082839525716429052 -0.15600681029641716 0.082899636353720635 0.18017154265971194 -0.16285349079977277 0.090835574787128531 0.086305420282318857 0.10049894144432095 0.058751234123559121 -0.13743359378944028 0.050529576561275075 0.063210847870373621 -0.13378358686557301 -0.091109943166023513 0.038083370125261432 0.046227904520068558
leaf_weight=18.747113540768627 4.283958654850724 188.19089975953102 26.916652973741293 259.5582191310823 14.751027299091222 65.999485716223717 19.402490122243762 11.114673510193823 132.57029798254371 7.1138774864375582 9.1268564090132731 11.040883272886274 34.283315572887659 20.386363599449396 77.602407991886139 13.336306694895031 9.869711868464945 17.406742982566357 12.856491234153511 9.8362640924751741 6.7705713957548133 69.987384129315615 129.74343795515597 6.512528669089078 8.5215369537472707 615.77663804963231 12.613854791969059 40.953433513641357 303.5563082806766 28.78121679276228
leaf_count=130 8 483 139 640 96 360 65 10 270 43 21 61 184 111 618 77 20 25 85 29 12 164 406 60 26 1120 104 224 854 83
internal_value=0 0.0214677 0.0101038 -0.00291885 0.00970374 -0.0333194 -0.0594764 0.0598913 0.0461734 0.0265779 0.042824 -0.0675967 0.0312637 -0.0585114 -0.05352 0.0484047 -0.0543979 0.0518645 0.0621736 -0.0365087 -0.0884083 0.05315 0.0321277 0.0493743 -0.0777965 0.0505079 0.0354211 0.0396402 0.0245376 -0.0344272
internal_weight=0 1005.48 731.871 523.513 418.994 118.038 92.1725 25.8657 1182.13 300.955 208.359 20.1677 293.842 24.6703 104.519 1157.46 23.206 273.611 245.028 28.5834 72.7701 227.621 157.634 136.256 21.378 1134.25 518.475 505.861 373.291 69.7347
internal_count=6528 3657 2732 2167 1410 543 437 106 2871 867 565 82 824 119 757 2752 97 925 766 159 372 741 577 466 111 2655 1535 1431 1161 307
is_linear=0
shrinkage=0.1


Tree=17
num_leaves=31
num_cat=0
split_feature=7 32 105 12 104 53 55 106 98 61 0 11 0 72 82 2 55 33 96 102 19 8 42 38 7 57 12 106 54 65
split_gain=28.8485 27.8349 27.2144 37.2739 31.2595 35.6463 32.6474 31.9484 26.2214 28.4257 22.2474 22.4913 25.1015 40.1258 30.4819 27.1371 44.1732 30.3597 27.6269 40.3944 23.8865 24.7647 23.5323 22.8652 23.1393 21.6882 20.4277 20.2686 43.0309 28.2723
threshold=0.050359427928924567 -0.011337761301547287 11.500000000000002 0.055962752550840385 3.5000000000000004 -0.19312598556280133 -0.25806945562362665 7.5000000000000009 -0.33368316292762751 -0.1189293824136257 -1.3780999999999985 -0.016814260743558403 1.8876100000000005 -0.10233320295810698 0.034082252532243736 23.265000000000004 -0.090973518788814531 0.14292227476835254 -0.39526005089282984 -0.17902380973100659 0.05755922012031079 -0.015570411458611487 -0.059901574626564973 0.12645991146564486 0.1575124263763428 0.13168286532163623 0.19077281653881076 22.500000000000004 0.085081107914447798 -0.12383357807993887
decision_type=2 2 2 2 2 2 2 2 2 2 2 2 2 2 2 2 2 2 2 2 2 2 2 2 2 2 2 2 2 2
left_child=1 8 4 25 5 -2 -7 -8 27 -10 -9 12 13 14 -12 16 -14 -18 19 -17 23 -22 -16 -13 -25 -4 -24 -1 29 -29
right_child=2 -3 3 -5 -6 6 7 10 9 -11 11 20 15 -15 22 18 17 -19 -20 -21 21 -23 26 24 -26 -27 -28 28 -30 -31
leaf_value=0.060846103101672946 -0.14633974232356883 -0.068460932266916658 -0.1176045549484086 -0.13953193657368637 0.089361431949810291 -0.11109487572294133 -0.086675534834686763 -0.11595934021851124 0.029139547497118803 -0.135069375134662 0.10159542972679857 0.046245028160551899 0.054855989411019872 0.090320064888159218 -0.14601773822556999 0.076721884995624781 0.074502715789743004 -0.14800946643257881 0.045262008918610271 -0.1478836509438923 0.054064258550708781 -0.10522405327658908 -0.072602073465952516 -0.1875010771515232 0.025688487658820775 0.12749860742919264 0.057564297331566906 -0.13893737020696176 0.042922290537679736 0.1028337759665825
leaf_weight=632.58050586655736 12.671614987775682 21.1027329005301 5.1619685702025917 23.778796747326851 69.861769869923592 18.045938923954964 25.257450366392732 10.762380830943583 32.525655183941126 15.596984807401894 11.377841938287018 20.782993875443935 32.641231436282396 24.431386813521385 29.104369089007378 14.077443290501831 7.6664522513747206 30.632716177031398 340.92691864445806 18.569382574409246 448.83742913603783 9.9772916957735998 43.443230632692575 12.612803857773544 8.5372740589082223 12.008869200944899 16.68775500357151 22.90080909058452 188.22129862383008 6.1317970156669608
leaf_count=1418 115 109 54 161 160 136 363 115 100 120 43 57 115 56 190 31 20 202 677 94 1159 53 230 64 27 37 37 116 461 8
internal_value=0 0.0450614 0.0217145 -0.0584586 0.0244348 0.0204456 0.0223252 0.0245015 0.0477293 -0.0240821 0.027099 0.0285375 0.0149452 -0.0246362 -0.0525504 0.0260797 -0.03062 -0.103469 0.0368467 -0.0510328 0.0439976 0.0506004 -0.0722046 -0.0282473 -0.101447 0.0538147 -0.0364779 0.0517956 0.0254433 -0.0878744
internal_weight=0 919.06 1247.86 40.9496 1206.91 1137.04 1124.37 1106.33 897.957 48.1226 1081.07 1070.31 569.559 125.045 100.613 444.514 70.9404 38.2992 373.574 32.6468 500.748 458.815 89.2354 41.9331 21.1501 17.1708 60.131 849.834 217.254 29.0326
internal_count=6528 2332 4196 252 3944 3784 3669 3533 2223 220 3170 3055 1695 556 500 1139 337 222 802 125 1360 1212 457 148 91 91 267 2003 585 124
is_linear=0
shrinkage=0.1


Tree=18
num_leaves=31
num_cat=0
split_feature=107 106 66 21 104 1 1 0 105 81 99 36 0 8 41 86 36 44 36 20 45 15 63 82 102 61 15 20 55 23
split_gain=28.4901 56.7296 30.8933 32.5125 28.5296 46.8313 29.1411 48.4344 36.7209 30.1137 33.5767 29.7692 26.2409 24.9922 24.5941 35.4636 28.799 46.2513 39.9796 34.1094 30.0395 29.1688 38.4331 26.4326 25.072 24.8765 24.6943 24.4711 28.5874 32.5328
threshold=2.5000000000000004 14.500000000000002 -0.054041810333728783 -0.14027817547321317 1.5000000000000002 137.13765000000004 279.87870000000004 1.4560999999999999 3.5000000000000004 -0.1302056089043617 0.051168294623494155 0.2361375689506531 0.19779999999999978 -0.096003524959087358 -0.1463888734579086 -0.5202881097793578 0.34105253219604498 -0.29027251899242396 0.26450139284133917 0.10920270159840585 0.39890556037426 -0.058520043268799775 -0.035149320960044854 0.19658367335796359 -0.055268734693527215 -0.033196808770298951 -0.024835277348756787 0.11309517920017244 -0.091805692762136445 -0.0065684528090059749
decision_type=2 2 2 2 2 2 2 2 2 2 2 2 2 2 2 2 2 2 2 2 2 2 2 2 2 2 2 2 2 2
left_child=4 2 3 -2 5 -1 7 -7 -8 -10 -11 -12 13 -6 -3 -16 18 20 21 -20 -18 22 -17 -24 -23 -25 -19 -14 29 -29
right_child=1 14 -4 -5 12 6 8 -9 9 10 11 -13 27 -15 15 16 17 26 19 -21 -22 24 23 25 -26 -27 -28 28 -30 -31
leaf_value=-0.048342722778473055 -0.10482282882854431 0.050828088997348544 -0.091817232195226195 0.060337064182460744 0.033014583919391237 -0.032419549974686504 -0.11764523073680958 0.058659632119192923 -0.11669768264908349 0.11035422855378872 0.080670791254569774 -0.10061519011990741 0.088617767021807597 -0.12805015961955848 -0.14286967017832189 0.078544989794813933 -0.15505171370650406 0.0343385037577646 0.025971899943889765 0.091526809837585515 0.14965975483898178 0.053344139904021814 -0.15497075018613804 0.049442639325331078 -0.11706213596836497 -0.16572842132582366 -0.17087122798761825 -0.19437044868446079 0.055792445785781297 0.097275388103894425
leaf_weight=72.097055057063699 17.337711483240128 270.66604313626885 68.070133378729224 38.136362923309207 50.833203788846731 67.105510957539082 24.460244610905647 449.39715003594756 13.538830351084469 38.694053895771503 15.855342999100683 21.129259429872036 247.45197573304176 11.886713761836289 13.925951384007929 15.676157366484402 31.231778679415584 67.074712663888931 278.75969886779785 110.96685756742954 3.609185926616191 60.717486539855599 33.968763127923012 16.866969302296642 10.065434645861385 7.8848000690340987 6.4258755445480338 10.819477684795858 62.8868652805686 5.916280433535575
leaf_count=665 148 637 667 151 167 349 85 905 50 44 24 81 310 83 88 38 195 173 749 229 4 149 214 38 51 43 33 49 101 8
internal_value=0 0.016983 -0.0466745 0.00871845 0.0400451 0.0280034 0.036738 0.0468264 -0.00909932 0.0206601 0.0452332 -0.0228977 0.06174 0.0024895 0.0254592 0.0150106 0.0184287 -0.0285868 0.0279513 0.0446374 -0.123487 -0.0168414 -0.0605628 -0.0976993 0.0291121 -0.0191012 0.0163978 0.0731019 0.0248815 -0.0912703
internal_weight=0 1051.38 123.544 55.4741 1092.07 702.277 630.18 516.503 113.678 89.2175 75.6787 36.9846 389.795 62.7199 927.84 657.174 643.248 108.342 534.906 389.727 34.841 145.18 74.3967 58.7205 70.7829 24.7518 73.5006 327.075 79.6226 16.7358
internal_count=6528 3607 966 299 2921 2203 1538 1254 284 199 149 105 718 250 2641 2004 1916 405 1511 978 199 533 333 295 200 81 206 468 158 57
is_linear=0
shrinkage=0.1


Tree=19
num_leaves=31
num_cat=0
split_feature=107 106 95 105 63 45 22 106 85 96 80 54 2 7 94 81 83 102 107 26 78 20 21 70 34 73 91 50 0 1
split_gain=26.6085 52.3741 28.4762 30.6208 34.5885 28.1852 35.7696 27.6672 32.5503 27.4099 27.2411 25.8666 25.7398 33.8727 25.3323 25.069 31.7942 26.0895 24.9578 34.9936 38.6242 28.8023 22.3982 22.233 32.213 21.9804 38.871 21.5852 21.3944 20.6478
threshold=1.0000000180025095e-35 12.500000000000002 -0.076191443949937807 2.5000000000000004 0.065917871892452254 0.037648882716894157 -0.0095430877991020662 18.500000000000004 -0.2214047312736511 -0.14386960864067075 0.014586849603801967 -0.022573753260076043 17.180000000000003 -0.021583927795290943 0.085109446197748198 -0.0090536507777869684 0.16570285707712176 -0.16424689441919324 4.5000000000000009 0.034259721636772163 0.10318777710199357 0.16427808254957202 -0.090542506426572786 -0.22418580204248426 0.2549064457416535 0.16703891754150393 -0.10340940579771994 0.19728151708841327 3.2634500000000024 333.24015000000003
decision_type=2 2 2 2 2 2 2 2 2 2 2 2 2 2 2 2 2 2 2 2 2 2 2 2 2 2 2 2 2 2
left_child=11 15 9 4 22 7 10 14 -9 12 18 -1 13 -3 -5 16 17 -2 25 20 27 -22 -4 -19 -25 26 -7 -20 -29 -14
right_child=1 2 3 5 -6 6 -8 8 -10 -11 -12 -13 29 -15 -16 -17 -18 23 19 -21 21 -23 -24 24 -26 -27 -28 28 -30 -31
leaf_value=-0.13855516529679943 -0.12203164459988139 0.079107246926083841 -0.062804611099257154 0.084830354067163202 -0.14515901243002408 0.054121283904753771 -0.10401286325584816 0.14127083591369613 -0.16151444008470989 -0.070641313482426929 -0.149810791463623 0.054075215600365378 0.061313405062882 -0.11422880166720813 -0.13148058045087019 -0.084587586711957111 -0.052763884672084066 0.1126114063702221 0.067168473747234975 -0.11451033388697723 -0.11531323174380735 0.052625463304519261 0.06866854673177053 0.040082382877051924 -0.13838922666928977 0.059922911753871211 -0.22865321447345091 -0.13887658515115289 0.040522355504394973 0.026896198518350806
leaf_weight=7.1058775484561911 10.683978069573639 15.1563363969326 27.342430299147964 19.536718208342794 24.235188303515315 13.8453990444541 19.925014063715935 4.1666613072156933 24.00795466825366 21.384801972657442 8.0760649889707548 367.02970354631543 458.44428090378642 22.536713134497404 7.4894671887159339 49.648724466562271 83.955298254266381 31.548737455159426 113.41522781550884 20.875221084803343 29.992172099649906 15.484958747401832 24.631141655147076 67.65373820066452 11.890811264514921 296.45196562632918 7.4915630668401709 11.087257489562036 16.600676007568836 281.24640064686537
leaf_count=60 141 30 142 36 174 27 99 4 136 89 47 927 872 109 31 432 561 121 285 144 159 44 67 258 100 547 35 79 39 733
internal_value=0 0.0210189 0.0282199 0.0132547 -0.0465012 0.0207392 0.0275377 -0.0473982 -0.116736 0.0410472 0.0324525 0.0504166 0.0441196 -0.0364886 0.0248865 -0.0208095 -0.0054181 0.0272229 0.035255 0.00827573 0.0220134 -0.0581301 -0.000497291 0.0415769 0.0134033 0.0528672 -0.0451629 0.0478435 -0.0313155 0.0482272
internal_weight=0 1738.8 1483.42 684.655 76.2088 608.446 553.246 55.2008 28.1746 798.769 533.321 374.136 777.384 37.693 27.0262 255.381 205.733 121.777 525.244 207.456 186.58 45.4771 51.9736 111.093 79.5445 317.789 21.337 141.103 27.6879 739.691
internal_count=6528 5541 3928 2095 383 1712 1505 207 140 1833 1406 987 1744 139 67 1613 1181 620 1359 750 606 203 209 479 358 609 62 403 118 1605
is_linear=0
shrinkage=0.1


Tree=20
num_leaves=31
num_cat=0
split_feature=107 106 17 85 25 29 48 41 61 8 64 69 52 88 41 2 37 43 88 99 74 8 68 66 32 20 1 75 27 102
split_gain=23.0423 22.3351 21.5402 25.3384 27.2615 25.479 43.695 39.8189 32.2201 29.7575 25.7713 26.7787 23.8603 21.7448 21.6507 21.3709 21.1207 20.8891 24.9751 30.9526 29.4984 25.5625 25.4652 21.3696 21.287 22.207 23.2181 20.1587 20.1387 19.7779
threshold=12.500000000000002 55.500000000000007 0.17355075478553775 -0.017317802645266053 -0.14723347872495648 0.31899657845497137 -0.12820339947938916 -0.042669182643294327 0.015662605874240402 -0.015570411458611487 0.077639389783144011 0.27902285754680639 -0.077989291399717317 0.18541944026947024 -0.060970054939389222 3.5600000000000005 -0.13987799733877179 -0.26913315057754511 0.061714662238955505 0.077735032886266722 0.050156343728303916 -0.17282468080520627 -0.065741915255784975 0.10329978168010713 -0.20459991693496701 0.12195030599832536 197.08375000000004 -0.13820199668407437 0.089847482740879073 -0.077718846499919877
decision_type=2 2 2 2 2 2 2 2 2 2 2 2 2 2 2 2 2 2 2 2 2 2 2 2 2 2 2 2 2 2
left_child=1 2 13 5 -5 9 7 8 27 -4 12 -12 -8 17 -10 -14 -2 -1 19 21 24 -19 -21 -24 25 26 29 -7 -27 -20
right_child=16 -3 3 4 -6 6 10 -9 14 -11 11 -13 15 -15 -16 -17 -18 18 20 22 -22 -23 23 -25 -26 28 -28 -29 -30 -31
leaf_value=0.066099894781387059 0.015641316219792294 -0.15226095267529419 0.039693305600669852 0.055427727307193544 -0.13372456184065673 0.027700122319131094 -0.16412947821166224 -0.089428262913044315 -0.1404072479883329 -0.074175987327771462 0.026481906154669402 -0.18198786854874055 -0.097146598031413997 -0.11397353549916055 0.058455936970522038 0.0412924543427583 -0.12122986510667358 0.032850093614938299 -0.12608680686980095 0.085235395462720964 -0.072597777402375899 -0.095942137869227506 -0.16547315363042844 0.080881815669452489 0.10844400273060609 -0.13093236593910842 0.067060409191852133 -0.083793910975950125 0.075022489285697117 0.026032984286312979
leaf_weight=242.60444587282836 24.821985132992268 7.0484010577201834 609.99314347654581 11.751207455992697 21.670923396945 152.02213830314577 5.9786648303270331 68.769361890852451 23.955926127731804 23.847279153764248 13.164442874491217 11.583470303565262 11.492101129144428 8.982104452326892 7.0965161025524131 375.4301288202405 20.656250586733222 23.146984061226249 11.775810539722441 42.897094149142504 19.904986500740051 46.109260484576225 8.8369370326399785 5.8533218652009955 56.16994839720428 13.534212686121466 161.31040126085281 18.152974013239145 7.3131850101053706 31.170248145237565
leaf_count=467 135 42 1829 47 148 432 44 424 151 166 32 59 72 50 21 914 197 73 87 94 85 214 56 10 96 76 276 110 24 97
internal_value=0 0.0254432 0.0260589 0.0187715 -0.0672187 0.0209463 0.00761519 -0.0237364 -0.00128625 0.0354091 0.027883 -0.0710941 0.0341174 0.0405873 -0.0949604 0.0371806 -0.0465257 0.0426575 0.0293702 -0.0078517 0.0450465 -0.0528969 0.046321 -0.0673132 0.0533718 0.0396297 0.0496641 0.0158068 -0.0586842 -0.0156783
internal_weight=0 2041.57 2034.52 1354.91 33.4221 1321.49 687.646 269.997 201.228 633.84 417.649 24.7479 392.901 679.609 31.0524 386.922 45.4782 670.627 428.022 126.844 301.179 69.2562 57.5874 14.6903 281.274 225.104 204.256 170.175 20.8474 42.9461
internal_count=6528 6196 6154 4449 195 4254 2259 1138 714 1995 1121 91 1030 1705 172 986 332 1655 1188 447 741 287 160 66 656 560 460 542 100 184
is_linear=0
shrinkage=0.1


Tree=21
num_leaves=31
num_cat=0
split_feature=107 106 107 92 34 103 99 54 52 104 39 51 94 89 53 0 85 28 1 100 29 57 12 47 68 90 21 107 25 1
split_gain=21.708 40.9924 22.5101 22.027 27.144 21.8771 22.047 21.6472 21.5373 25.0225 21.4569 21.4111 20.3272 24.9203 24.4686 20.1803 21.6754 20.5109 19.9935 19.7247 19.3965 39.0986 19.3545 19.5497 25.2686 20.2302 23.4535 24.7774 18.4757 18.3923
threshold=1.0000000180025095e-35 12.500000000000002 8.5000000000000018 -0.24101044982671735 0.15791554749011996 1.5000000000000002 0.16177179664373401 -0.022573753260076043 0.064861774444580092 1.0000000180025095e-35 -0.19033071398735044 0.087681941688060774 0.16310442984104159 0.63879331946372997 0.046870926395058639 1.4560999999999999 -0.15881945192813871 0.29366603493690496 310.30635000000007 0.42409449815750128 0.31132256984710699 0.18215350061655047 0.21091088652610782 0.23607804626226428 -0.12448500469326972 0.0076017268002033242 -0.1455438360571861 4.5000000000000009 0.1231563948094845 416.48575000000005
decision_type=2 2 2 2 2 2 2 2 2 2 2 2 2 2 2 2 2 2 2 2 2 2 2 2 2 2 2 2 2 2
left_child=7 5 3 29 10 11 8 -1 9 -7 -5 -2 22 19 -15 16 -11 -18 -4 -14 -12 -22 23 24 -6 26 -26 -28 -9 -3
right_child=1 2 18 4 12 6 -8 28 -10 15 20 -13 13 14 -16 -17 17 -19 -20 -21 21 -23 -24 -25 25 -27 27 -29 -30 -31
leaf_value=-0.1358112488823566 -0.09840868902224012 0.047663603617574775 -0.097172013984885661 -0.14272568588708071 -0.12710662599475703 -0.091326821507531492 -0.12656455934828267 0.05062151726965658 0.055299967790431531 -0.13278471765997754 0.032797063866443481 0.071113653952502687 -0.19172748594059041 -0.092623940231367163 0.13574688571165622 0.071899172844099343 -0.0662473114544707 0.082968452789811117 0.002586930349798189 0.048589762638614059 -0.16888909790803558 0.024659232647431219 -0.10100836465911218 0.045411922079236305 -0.11392351626192665 0.053498904195416377 0.038104981736598265 -0.090094899505068757 -0.098213237527334088 -0.0077594961312799212
leaf_weight=6.5900220163166514 50.672300823032856 539.33618443459272 23.962076643481851 14.995168577879666 13.298689406365154 34.055954894050956 13.61176693253219 350.90544880181551 58.211789034307003 14.406041568145154 44.608079534024 8.7348034270107728 13.643644548952581 8.5764688812196272 10.35778361558914 32.555887874215841 17.603635841980577 19.324727460741997 124.33462916687131 4.5558596700429908 18.856638688594103 23.375482350587845 11.321016464382408 346.72033899649978 18.96823862940073 79.94298967346549 66.291605345904827 19.513535067439079 8.5435922276228649 67.353809464722872
leaf_count=60 547 1080 240 80 64 261 153 871 240 130 109 65 69 40 9 60 112 45 578 8 100 56 42 747 102 169 137 103 56 195
internal_value=0 0.0169433 0.0233821 0.0275875 0.0154339 -0.0205249 -0.00394631 0.0437912 0.00552842 -0.0190361 -0.0322623 -0.0734833 0.0236222 -0.0480114 0.0323039 0.0103109 -0.0287478 0.0118378 -0.0135323 -0.131569 -0.013188 -0.0617601 0.0284059 0.0310954 0.00602759 0.0156126 -0.013295 0.00895017 0.0470839 0.0415106
internal_weight=0 1699.19 1450.01 1301.72 695.026 249.177 189.77 366.039 176.158 117.946 101.835 59.4071 593.19 37.1338 18.9343 83.8903 51.3344 36.9284 148.297 18.1995 86.8402 42.2321 556.056 544.735 198.015 184.716 104.773 85.8051 359.449 606.69
internal_count=6528 5541 3928 3110 1835 1613 1001 987 848 608 345 612 1490 126 49 347 287 157 818 77 265 156 1364 1322 575 511 342 240 927 1275
is_linear=0
shrinkage=0.1


Tree=22
num_leaves=31
num_cat=0
split_feature=93 84 107 92 82 39 37 1 60 85 40 72 97 28 46 76 102 42 24 106 29 64 97 6 76 26 38 85 11 34
split_gain=20.2237 26.1019 23.4985 21.025 21.1294 26.7028 20.6992 41.1658 31.5224 26.3972 25.2536 23.7082 24.5116 23.1397 25.4878 22.8036 22.7103 24.927 23.3583 21.3897 21.0221 20.2998 20.1985 26.1823 20.0586 20.0503 19.6539 19.5989 18.8959 18.8457
threshold=0.31957732141017919 -0.21210401505231855 12.500000000000002 -0.33078055083751673 0.11750779673457147 -0.26744122803211207 -0.17023511976003644 255.08515000000003 -0.15334549546241757 -0.017317802645266053 0.15246835350990298 -0.051468452438712113 0.28541204333305364 0.22768723219633105 0.38780820369720465 0.031964682042598731 -0.022192883305251595 -0.071470502763986574 0.094292551279068007 42.500000000000007 0.22977663576602939 -0.25872105360031122 0.27661621570587164 -0.24863347411155698 0.078570239245891585 -0.14800851792097089 0.072277810424566283 -0.14927340298891065 0.28908678889274603 0.28382492065429693
decision_type=2 2 2 2 2 2 2 2 2 2 2 2 2 2 2 2 2 2 2 2 2 2 2 2 2 2 2 2 2 2
left_child=3 -2 6 -1 5 -5 7 10 -9 11 26 12 16 14 -10 20 17 18 -8 -15 -14 -13 23 -18 29 -25 -3 -20 -26 -19
right_child=1 2 -4 4 -6 -7 9 8 13 -11 -12 21 15 19 -16 -17 22 24 27 -21 -22 -23 -24 25 28 -27 -28 -29 -30 -31
leaf_value=0.072992413253394464 -0.098022453853192443 -0.13018169997354609 -0.078731858148533757 0.073146773521663447 0.032733353301921043 -0.069974305738320683 -0.166789707821243 0.039561007025840714 -0.0060563794042319766 -0.11188926538404705 -0.094635062231226599 0.037646633857157913 0.059254343046156933 -0.18380952812201723 -0.14263793904667607 0.015838898078299243 0.023540540410871797 0.035974231737540822 -0.099374202331284717 0.061380074813980404 -0.089566530144212342 0.11293188190082533 0.090398892601590508 0.078783568739332885 -0.13942154075602395 -0.11115240531468287 0.053000295697638082 0.056370124808716893 0.14357542996417924 0.10199107713376038
leaf_weight=113.88844848051667 20.970600685104728 6.1638037953525773 26.544030448421836 18.352253295481205 507.35441342927516 45.003223273903131 10.761193104088305 30.298446387052536 48.324782140552998 14.378326777368782 14.725514860823749 146.68591731972992 11.499459080398081 25.939783556386832 19.048868454992771 80.128501161932945 39.997764443978667 476.53060717880726 12.480849733576173 4.123547986149787 54.366331819444895 47.385506682097912 14.683426719158886 6.4101615585386744 11.062373157590626 41.800164576619864 117.71740509197116 22.914286065846685 2.9990704059600821 47.55726870149374
leaf_count=251 185 54 232 49 1244 224 70 78 139 104 114 393 30 135 94 344 143 1348 83 7 292 62 24 12 105 219 319 57 2 115
internal_value=0 0.0126768 0.0144163 0.0337625 0.0259339 -0.0285163 0.0163066 -0.00857134 -0.0495243 0.0226678 0.0291695 0.0245512 0.0172193 -0.0772257 -0.0446727 -0.019993 0.025125 0.0327535 -0.0377727 -0.150179 -0.063584 0.0560287 -0.0181962 -0.0362734 0.0388024 -0.0858981 0.0438859 0.00145237 -0.079063 0.0419648
internal_weight=0 1355.5 1334.53 684.598 570.71 63.3555 1307.98 266.342 127.735 1041.64 138.607 1027.26 833.191 97.437 67.3737 145.994 687.197 584.306 46.1563 30.0633 65.8658 194.071 102.892 88.2081 538.149 48.2103 123.881 35.3951 14.0614 524.088
internal_count=6528 4760 4575 1768 1517 273 4343 940 453 3403 487 3299 2844 375 233 666 2178 1780 210 142 322 455 398 374 1570 231 373 140 107 1463
is_linear=0
shrinkage=0.1


Tree=23
num_leaves=31
num_cat=0
split_feature=32 7 55 14 76 61 1 81 71 32 105 16 83 78 45 23 65 0 46 8 86 63 63 60 61 87 60 5 22 51
split_gain=18.138 20.6821 23.693 20.53 33.3932 34.2743 27.7501 23.7875 19.9968 19.8691 19.4604 18.9729 20.4722 25.1734 19.2339 18.5197 18.0351 20.507 18.2365 24.6859 21.6456 20.383 47.6403 30.431 30.2215 29.1129 20.5976 23.5621 19.9005 23.924
threshold=-0.031309084035456174 0.050359427928924567 -0.25806945562362665 -0.12181003764271735 -0.048828644677996628 -0.11125451326370238 211.13005000000001 -0.091927565634250627 0.078839045017957701 -0.30725905299186701 5.5000000000000009 -0.0080280024558305723 -0.012995998375117777 -0.095869142562150941 -0.019138924777507779 -0.085488937795162187 -0.057454209774732583 2.3755500000000009 0.47244280576705938 -0.015570411458611487 -0.49970273673534388 0.0066092668566852817 0.03941097483038903 -0.18683229386806485 -0.051040824502706521 0.26247006654739385 -0.13638044148683545 0.17985529452562335 -0.061387281864881509 -0.021786483936011788
decision_type=2 2 2 2 2 2 2 2 2 2 2 2 2 2 2 2 2 2 2 2 2 2 2 2 2 2 2 2 2 2
left_child=1 -1 -3 11 7 -6 9 8 -5 -7 15 12 -4 -14 -15 -9 18 -18 19 20 -16 -22 24 -24 25 -23 -25 -28 -29 -30
right_child=-2 2 3 4 5 6 -8 10 -10 -11 -12 -13 13 14 16 -17 17 -19 -20 -21 21 22 23 26 -26 -27 27 28 29 -31
leaf_value=0.031520071056417902 -0.04059782282607672 -0.10643982471706517 0.073363728716623083 -0.15403601310641871 -0.16822823584631949 0.040247445532235006 0.053196173584308497 0.059745034072972991 0.035200796515262589 -0.10615648435334935 -0.12248825712636012 -0.086661618744877378 -0.14240176885092046 -0.15172433083249595 -0.097642135369124694 -0.11779060077411091 -0.14197820838749373 0.017239860381856383 0.085210923361722007 -0.10576997438769054 0.05707723422543598 -0.055020261913806837 -0.1161828459113502 0.067637202204833158 -0.12833685531027689 0.10571350773964008 -0.11304960638689826 0.036888066980041732 0.0049648117001840145 -0.16886730557505011
leaf_weight=827.13075638189912 51.569031700491905 16.994607532396913 70.209909485653043 32.100263152271509 9.611958369612692 15.713681491091842 105.84753968752921 27.841396167874333 6.7599950470030299 22.60512240044773 12.601857155561445 16.496326366439462 9.7812768407165986 6.5427325014024964 14.680645594373344 7.4474880825728205 14.313197288662193 18.603682197630405 45.195912841707468 15.343849282711743 153.76419615745544 36.959225222468376 13.949989935383199 126.64139056578279 32.569333137944341 16.211410190910101 12.849919032305477 235.88034368120134 32.93261481449008 10.423026852309702
leaf_count=2183 263 147 197 169 83 63 222 57 18 179 62 156 93 48 88 40 118 42 129 117 398 168 102 310 165 30 92 624 102 63
internal_value=0 0.0194804 0.0107516 0.0125237 -0.0133773 0.0146083 0.0267985 -0.0629858 -0.121117 -0.0461195 -0.015816 0.0195763 0.0215981 0.0170358 0.0190178 0.0222773 0.0204494 -0.0519927 0.0236399 0.019677 0.0224793 0.0251028 0.0156191 0.0291136 -0.0524795 -0.00601349 0.0339542 0.0193501 0.0254429 -0.0368258
internal_weight=0 1968 1140.87 1123.88 240.529 153.778 144.166 86.751 38.8603 38.3188 47.8907 883.349 866.853 796.643 786.861 35.2889 780.319 32.9169 747.402 702.206 686.862 672.181 518.417 432.677 85.74 53.1706 418.727 292.086 279.236 43.3556
internal_count=6528 6265 4082 3935 893 547 464 346 187 242 159 3042 2886 2689 2596 97 2548 160 2388 2259 2142 2054 1656 1293 363 198 1191 881 789 165
is_linear=0
shrinkage=0.1


Tree=24
num_leaves=31
num_cat=0
split_feature=0 29 89 104 106 106 79 72 37 107 9 82 22 102 95 29 100 57 57 37 103 102 102 87 11 0 85 63 65 93
split_gain=17.3588 24.0125 24.6263 23.4605 31.6936 34.8663 32.2281 30.3626 26.7594 25.029 24.2544 24.1844 22.2979 22.1146 25.4152 26.3114 31.1004 28.7153 25.5648 24.4999 21.6603 20.9551 29.5394 18.9549 28.9211 18.9483 20.0692 26.4215 18.2648 18.1032
threshold=0.74405500000000002 0.28521580994129186 0.61761578917503368 1.0000000180025095e-35 15.500000000000002 26.500000000000004 0.022635953500866893 -0.29620788991451258 -0.1280577555298805 4.5000000000000009 -0.2899313867092132 0.33970148861408239 -0.14266635477542874 0.029709794558584694 -0.067091919481754289 0.30506493151187902 0.36543001234531408 0.061922343447804458 0.12271468341350557 -0.1528184115886688 5.5000000000000009 0.029709794558584694 -0.1766964793205261 0.31287677586078649 -0.095193535089492784 1.6383000000000016 -0.17000085860490796 0.066706314682960524 -0.31383889913558954 0.35396233201026922
decision_type=2 2 2 2 2 2 2 2 2 2 2 2 2 2 2 2 2 2 2 2 2 2 2 2 2 2 2 2 2 2
left_child=1 2 -1 4 6 7 8 20 25 -5 12 13 -10 14 18 16 -16 -17 -11 -20 -6 22 -7 -9 -25 -2 27 -27 -24 -3
right_child=3 29 -4 9 5 21 -8 23 10 11 -12 -13 -14 -15 15 17 -18 -19 19 -21 -22 -23 28 24 -26 26 -28 -29 -30 -31
leaf_value=0.059878724232891159 -0.12850453100244433 -0.0033746081603831116 -0.086851143547773013 0.036703026944498396 -0.12833553419290322 0.089794965557523088 -0.092338927395993448 0.049325123058059445 -0.12300215710858911 0.089982005206766927 -0.087069038957154982 -0.12350564642361833 0.11919327450303661 -0.11134191478117693 0.056566814885463293 0.05985635860169787 -0.14207793718889553 -0.12058626279289122 0.03400128166107904 -0.12120314660167895 0.089439172739845405 0.073667217398568879 0.065166728792853179 -0.17039050755531818 0.023320664515606236 -0.14405888569153272 0.080472691125333062 0.078236192603362398 -0.14057858475492674 -0.069661355640284792
leaf_weight=70.18626612611115 6.5691239144653073 105.63675138540566 13.665358217433093 862.15832303091884 18.62532528676093 8.5368241313844901 56.184002382680774 287.72491690889001 5.3883568346500423 65.402072176337242 49.023373118601739 14.664397716522215 12.906052753329275 14.431910805404184 49.449270356446505 11.762070767581461 9.3759388662874681 35.25043129734695 44.808860009536147 13.157302761450408 6.0509813353419295 11.037758093327282 4.9225660488009444 10.042416099458931 33.14708511903882 10.769885599613191 54.958681462332606 10.618535123765467 34.943241406232119 67.544081751257181
leaf_count=296 79 535 140 1737 123 19 347 576 62 114 422 74 57 89 148 35 70 225 117 69 10 24 11 52 72 92 146 43 194 550
internal_value=0 -0.00795963 0.0359661 0.0198793 0.00429635 0.0202227 -0.0277257 0.032073 -0.00356188 0.0285223 -0.050401 0.00121656 0.0478581 0.0087235 0.0162834 -0.0196679 0.0249055 -0.0754413 0.0471261 -0.0012274 -0.0749341 -0.0506692 -0.079023 0.0400525 -0.021721 0.0344657 0.0484881 -0.0336979 -0.115173 -0.0292278
internal_weight=0 257.032 83.8516 1741.91 621.449 415.031 206.418 355.591 150.234 1120.46 67.3178 258.302 18.2944 243.638 229.206 105.838 58.8252 47.0125 123.368 57.9662 24.6763 59.4404 48.4026 330.914 43.1895 82.9162 76.3471 21.3884 39.8658 173.181
internal_count=6528 1521 436 5007 2329 1081 1248 833 901 2678 541 941 119 867 778 478 218 260 300 186 133 248 224 700 124 360 281 135 205 1085
is_linear=0
shrinkage=0.1


Tree=25
num_leaves=31
num_cat=0
split_feature=96 74 43 87 18 86 106 103 72 93 0 45 11 85 67 18 63 90 31 51 80 4 20 77 0 33 92 99 92 43
split_gain=16.9069 20.4731 18.7224 18.1649 18.5874 37.6101 23.0227 25.9888 18.2076 19.7988 31.7398 23.6725 20.9356 24.0376 20.7403 15.6332 14.7395 23.6464 19.2146 23.3626 31.7393 21.9478 21.2111 26.4992 22.1686 20.5672 17.5238 24.4472 21.7887 26.575
threshold=-0.14386960864067075 -0.090422913432121263 -0.3295150995254516 0.023757835850119594 -0.34059965610504145 -0.39880791306495661 22.500000000000004 2.5000000000000004 -0.10850708559155463 0.44368141889572149 4.3892000000000051 -0.035061175003647797 0.13396637141704562 -0.10967489331960677 0.51428255438804638 -0.13255276530981061 0.0095469555817544478 -0.013006331399083136 -0.17323875427246091 -0.02701625786721706 -0.35616409778594965 0.003244610503315926 0.04635307006537915 0.069445800036191954 1.7817600000000005 0.28618352115154272 -0.27787706255912775 -0.056326210498809808 -0.19391211122274396 -0.15582272410392758
decision_type=2 2 2 2 2 2 2 2 2 2 2 2 2 2 2 2 2 2 2 2 2 2 2 2 2 2 2 2 2 2
left_child=2 -2 -1 -4 5 -5 7 -7 9 11 12 -6 13 -11 16 -15 -13 18 22 20 -20 -21 -18 24 -24 -22 27 -19 -28 -30
right_child=1 -3 3 4 8 6 -8 -9 -10 10 -12 14 -14 15 -16 -17 17 26 19 21 25 -23 23 -25 -26 -27 28 -29 29 -31
leaf_value=0.048652571553382547 0.027953865258950342 -0.10123140354599532 -0.060277185051559927 -0.16868520373803431 -0.15426006895600591 -0.11867211115156634 -0.12721245268512579 0.079993332054414418 0.03692893775489519 -0.13243315116907325 0.057544251275738506 0.036240750712862452 0.03807202512196748 -0.10871207343087937 -0.13582125006628462 0.046774947583342129 0.032070087807416672 -0.16434810456042601 0.10142548434195751 0.10236804451476773 -0.16815378541417009 -0.060965060908825579 -0.10411128769642773 -0.12277598141551323 0.017237747906588677 -0.0011136678915280758 0.039917874984114893 0.0048900280968385834 0.0055621439391874833 -0.16298206304544244
leaf_weight=164.02098791487515 22.387817410752177 27.138002777472138 32.903300004079938 16.361480126157403 8.1812675297260267 8.267968734726308 10.398382470011709 32.344968471676111 354.14881278946996 41.194341139867902 31.927494222298265 310.90864321403205 17.630285838618875 10.370686654001476 8.8793689552694541 17.17583373375237 130.25744412466884 10.902021348476408 6.9509391114115706 14.964637249708174 31.845023376867175 18.272661484777927 18.2419562805444 22.888454850763083 86.156523296609521 9.5911693535745126 389.83229985274374 39.322716456837952 66.04035784304142 10.898933339864014
leaf_count=392 85 177 259 106 57 49 45 57 978 342 80 941 66 64 47 66 354 90 9 23 162 63 142 140 235 27 1044 139 212 77
internal_value=0 -0.0428341 0.0163417 0.0133251 0.0147299 -0.0367587 0.00555564 0.0395491 0.0168239 0.0113571 -0.0276508 0.0152541 -0.0591435 -0.0840769 0.0164334 -0.0117627 0.0175918 0.0108196 -0.00969861 -0.0519775 -0.0963178 0.0125734 0.00370098 -0.0253302 -0.00396605 -0.129489 0.0242803 -0.0318456 0.0303195 -0.0183132
internal_weight=0 49.5258 1920.88 1756.86 1723.95 67.3728 51.0113 40.6129 1656.58 1302.43 118.299 1184.13 86.3711 68.7409 1175.95 27.5465 1167.07 856.165 339.169 81.6244 48.3871 33.2373 257.544 127.287 104.398 41.4362 516.996 50.2247 466.772 76.9393
internal_count=6528 262 6266 5874 5615 257 151 106 5358 4380 618 3762 538 472 3705 130 3658 2717 1155 284 198 86 871 517 377 189 1562 229 1333 289
is_linear=0
shrinkage=0.1


Tree=26
num_leaves=31
num_cat=0
split_feature=107 0 2 71 18 11 11 75 49 18 85 36 66 34 103 2 6 92 107 29 73 12 81 68 98 104 85 27 28 52
split_gain=16.2695 33.773 24.2258 28.9645 23.3237 22.8272 22.0393 25.9052 21.95 25.1029 28.5115 21.4812 26.3276 21.1249 20.0278 22.8407 21.4887 23.1433 21.3879 19.6589 19.2197 18.9759 21.0973 18.5865 23.3125 20.1932 23.0163 22.5238 23.4482 18.0461
threshold=2.5000000000000004 2.8247100000000014 44.730000000000011 -0.0098799034021794779 -0.32846203446388239 -0.065194372087717042 -0.12203590571880339 -0.20655571669340131 0.18966524302959445 -0.27066893875598902 -0.14010326564311978 0.26450139284133917 -0.029699341394007202 0.083142392337322249 5.5000000000000009 71.885000000000005 -0.21366816759109494 -0.22626660764217374 12.500000000000002 0.34362216293811804 0.080511573702096953 0.082782994955778136 -0.022790686227381226 -0.059640893712639802 -0.2969458401203155 1.0000000180025095e-35 -0.091265257447957979 -0.032892044633626931 0.30489939451217657 -0.15255571156740186
decision_type=2 2 2 2 2 2 2 2 2 2 2 2 2 2 2 2 2 2 2 2 2 2 2 2 2 2 2 2 2 2
left_child=4 2 3 -2 21 6 7 -4 9 -7 19 12 -10 -9 18 -16 -17 -18 -3 -11 -6 -1 -23 24 25 26 27 -22 -29 -26
right_child=1 14 5 -5 20 8 -8 13 11 10 -12 -13 -14 -15 15 16 17 -19 -20 -21 23 22 -24 -25 29 -27 -28 28 -30 -31
leaf_value=-0.10343028309760467 -0.12345377691936602 0.013175092433861037 0.076019878936349358 0.031896434195102318 -0.14294422633361367 -0.12323830293221694 -0.093838262002010453 0.05841002717070011 0.061544811783091437 -0.0078513776658631091 0.049258603496851336 0.073473190225199311 -0.11275688512200743 -0.11681759014605371 0.10519455141515265 0.07138130961998157 -0.13754856733360193 0.023587365659469221 -0.1149948291678231 -0.15775216987068522 -0.076611285417662531 -0.12026524275241449 0.060983385559828511 0.044024616875863655 0.065243892332883746 0.032927290580334743 -0.15513104579786924 0.039662396021490715 -0.11182874531638612 -0.1200484542941212
leaf_weight=25.558499561622739 41.292631238698959 440.2273375838995 23.884820107370615 16.919227993115783 6.6556557547301045 19.737544959411025 50.675857903435826 10.037844548001887 18.045770784839988 22.658773459494114 51.858905915170908 72.627586986869574 16.671800116077065 21.869761862792075 52.05438543856144 40.149667575955391 13.697567537426947 25.519493728876114 13.416319916024802 14.251608695834873 29.880886793136597 8.8162664324045164 23.648800853639841 394.05336356349289 7.0171996951103237 357.36966237798333 10.375751918181775 89.006268866360188 11.542215324938295 20.94405322894454
leaf_count=132 472 1251 55 75 50 138 311 29 51 101 155 189 116 151 60 74 61 64 162 92 165 47 47 950 24 824 86 329 79 188
internal_value=0 0.00426017 -0.0189294 -0.0783014 0.0225273 -0.00820668 -0.0460989 -0.00273766 0.0104835 -0.0212341 0.00144614 0.0425445 -0.022157 -0.0616926 0.0193429 0.0537176 0.0199554 -0.0326935 0.00938452 -0.0657301 0.0263777 -0.0389778 0.0117632 0.0276024 0.0153028 0.0202898 -0.0117848 -0.00038153 0.0222723 -0.0735472
internal_weight=0 965.597 380.532 58.2119 984.869 322.32 106.468 55.7924 215.852 108.507 88.7693 107.345 34.7176 31.9076 585.065 131.421 79.3667 39.2171 453.644 36.9104 926.845 58.0236 32.4651 920.189 526.136 498.175 140.805 130.429 100.548 27.9613
internal_count=6528 3607 1935 547 2921 1388 546 235 842 486 348 356 167 180 1672 259 199 125 1413 193 2695 226 94 2645 1695 1483 659 573 408 212
is_linear=0
shrinkage=0.1


Tree=27
num_leaves=31
num_cat=0
split_feature=107 106 81 83 88 2 47 78 58 91 102 59 16 42 83 93 12 24 21 85 37 49 1 26 78 1 18 68 70 25
split_gain=14.8553 27.2636 17.3502 20.0358 17.5272 17.5597 17.4032 18.5494 16.8295 19.0178 25.0597 20.5662 17.6067 17.507 24.8236 25.5753 27.46 21.0986 20.0668 21.8702 19.8535 30.8083 22.171 39.7776 20.2152 23.5151 18.515 17.2611 29.5699 25.972
threshold=1.0000000180025095e-35 12.500000000000002 -0.0090536507777869684 0.16570285707712176 0.11780664324760438 68.760000000000019 0.6063450574874879 0.27210193872451788 0.038070198148489005 -0.051984556019306176 0.053529025986790664 -0.25075143575668329 -0.059257099404931061 -0.026526932604610916 0.14057765901088717 0.31352621316909796 0.13051694631576541 0.063233163207769408 -0.20414894819259641 -0.12390161678194998 -0.025194304995238778 0.25780014693737036 398.43220000000002 -0.14587521553039548 0.18197985738515857 244.29980000000003 -0.30861417949199671 -0.11482519656419753 -0.14679930359125135 0.0434660091996193
decision_type=2 2 2 2 2 2 2 2 2 2 2 2 2 2 2 2 2 2 2 2 2 2 2 2 2 2 2 2 2 2
left_child=-1 2 3 4 -2 -6 7 -4 13 10 12 -11 -10 14 15 -3 -17 18 -15 -20 21 22 24 -24 26 -26 -16 28 29 -28
right_child=1 8 6 -5 5 -7 -8 -9 9 11 -12 -13 -14 17 20 16 -18 -19 19 -21 -22 -23 23 -25 25 -27 27 -29 -30 -31
